<?xml version="1.0"?>
<opencv_storage>
<cascade>
  <stageType>BOOST</stageType>
  <featureType>HAAR</featureType>
  <height>34</height>
  <width>34</width>
  <stageParams>
    <boostType>GAB</boostType>
    <minHitRate>9.9500000476837158e-01</minHitRate>
    <maxFalseAlarm>5.0000000000000000e-01</maxFalseAlarm>
    <weightTrimRate>9.4999998807907104e-01</weightTrimRate>
    <maxDepth>1</maxDepth>
    <maxWeakCount>100</maxWeakCount></stageParams>
  <featureParams>
    <maxCatCount>0</maxCatCount>
    <featSize>1</featSize>
    <mode>BASIC</mode></featureParams>
  <stageNum>15</stageNum>
  <stages>
    <!-- stage 0 -->
    <_>
      <maxWeakCount>10</maxWeakCount>
      <stageThreshold>-8.8107746839523315e-01</stageThreshold>
      <weakClassifiers>
        <_>
          <internalNodes>
            0 -1 354 1.7642418388277292e-03</internalNodes>
          <leafValues>
            -9.2475585639476776e-02 7.8649234771728516e-01</leafValues></_>
        <_>
          <internalNodes>
            0 -1 314 -2.2294460795819759e-03</internalNodes>
          <leafValues>
            7.1602213382720947e-01 -1.6842876374721527e-01</leafValues></_>
        <_>
          <internalNodes>
            0 -1 87 -8.9842947199940681e-03</internalNodes>
          <leafValues>
            6.0314518213272095e-01 -1.5372051298618317e-01</leafValues></_>
        <_>
          <internalNodes>
            0 -1 347 -1.0130697861313820e-02</internalNodes>
          <leafValues>
            6.0809755325317383e-01 -1.9319558143615723e-01</leafValues></_>
        <_>
          <internalNodes>
            0 -1 625 -2.7491732034832239e-03</internalNodes>
          <leafValues>
            5.2483487129211426e-01 -2.0563760399818420e-01</leafValues></_>
        <_>
          <internalNodes>
            0 -1 333 -1.4631676021963358e-03</internalNodes>
          <leafValues>
            5.9898126125335693e-01 -1.6842453181743622e-01</leafValues></_>
        <_>
          <internalNodes>
            0 -1 283 9.3305227346718311e-04</internalNodes>
          <leafValues>
            -2.5119686126708984e-01 4.6738559007644653e-01</leafValues></_>
        <_>
          <internalNodes>
            0 -1 376 4.4551752507686615e-03</internalNodes>
          <leafValues>
            -1.2287717312574387e-01 4.8794758319854736e-01</leafValues></_>
        <_>
          <internalNodes>
            0 -1 81 2.9572826623916626e-01</internalNodes>
          <leafValues>
            -1.3452599942684174e-01 5.9462922811508179e-01</leafValues></_>
        <_>
          <internalNodes>
            0 -1 223 -1.5232586860656738e-01</internalNodes>
          <leafValues>
            6.7867338657379150e-01 -1.0917729139328003e-01</leafValues></_></weakClassifiers></_>
    <!-- stage 1 -->
    <_>
      <maxWeakCount>20</maxWeakCount>
      <stageThreshold>-1.0961756706237793e+00</stageThreshold>
      <weakClassifiers>
        <_>
          <internalNodes>
            0 -1 281 -2.5653580669313669e-03</internalNodes>
          <leafValues>
            6.2632697820663452e-01 -5.4945055395364761e-02</leafValues></_>
        <_>
          <internalNodes>
            0 -1 183 2.3953383788466454e-03</internalNodes>
          <leafValues>
            -1.8021929264068604e-01 5.6885457038879395e-01</leafValues></_>
        <_>
          <internalNodes>
            0 -1 639 4.9450166989117861e-04</internalNodes>
          <leafValues>
            -8.3929248154163361e-02 6.8650668859481812e-01</leafValues></_>
        <_>
          <internalNodes>
            0 -1 8 -2.6488560251891613e-03</internalNodes>
          <leafValues>
            -4.3408471345901489e-01 1.5049500763416290e-01</leafValues></_>
        <_>
          <internalNodes>
            0 -1 27 2.3726744111627340e-03</internalNodes>
          <leafValues>
            -1.2623298168182373e-01 5.2657854557037354e-01</leafValues></_>
        <_>
          <internalNodes>
            0 -1 646 5.4709007963538170e-03</internalNodes>
          <leafValues>
            -1.5080551803112030e-01 4.2291104793548584e-01</leafValues></_>
        <_>
          <internalNodes>
            0 -1 561 1.6834944253787398e-03</internalNodes>
          <leafValues>
            -6.7946098744869232e-02 6.8789076805114746e-01</leafValues></_>
        <_>
          <internalNodes>
            0 -1 562 -7.2179734706878662e-04</internalNodes>
          <leafValues>
            5.7201808691024780e-01 -1.1187708377838135e-01</leafValues></_>
        <_>
          <internalNodes>
            0 -1 31 -3.6810521036386490e-02</internalNodes>
          <leafValues>
            -6.5671455860137939e-01 9.6822164952754974e-02</leafValues></_>
        <_>
          <internalNodes>
            0 -1 115 -1.7933836579322815e-01</internalNodes>
          <leafValues>
            -6.2699574232101440e-01 1.0982438176870346e-01</leafValues></_>
        <_>
          <internalNodes>
            0 -1 664 -2.2169323638081551e-03</internalNodes>
          <leafValues>
            5.4543238878250122e-01 -1.1814092844724655e-01</leafValues></_>
        <_>
          <internalNodes>
            0 -1 363 -3.4505740040913224e-04</internalNodes>
          <leafValues>
            1.8725419044494629e-01 -3.0438160896301270e-01</leafValues></_>
        <_>
          <internalNodes>
            0 -1 662 -6.1837068642489612e-05</internalNodes>
          <leafValues>
            -2.8441244363784790e-01 2.1097296476364136e-01</leafValues></_>
        <_>
          <internalNodes>
            0 -1 44 -1.5962459146976471e-02</internalNodes>
          <leafValues>
            4.2176848649978638e-01 -1.3776843249797821e-01</leafValues></_>
        <_>
          <internalNodes>
            0 -1 285 1.8730282783508301e-02</internalNodes>
          <leafValues>
            -1.3519163429737091e-01 4.3516033887863159e-01</leafValues></_>
        <_>
          <internalNodes>
            0 -1 436 1.5146896475926042e-03</internalNodes>
          <leafValues>
            -1.5108163654804230e-01 3.9613032341003418e-01</leafValues></_>
        <_>
          <internalNodes>
            0 -1 45 3.7376292049884796e-02</internalNodes>
          <leafValues>
            -1.1975798010826111e-01 4.4889858365058899e-01</leafValues></_>
        <_>
          <internalNodes>
            0 -1 38 -7.4103012681007385e-02</internalNodes>
          <leafValues>
            3.6341848969459534e-01 -1.6181173920631409e-01</leafValues></_>
        <_>
          <internalNodes>
            0 -1 518 -6.1601060442626476e-03</internalNodes>
          <leafValues>
            3.3460557460784912e-01 -1.7193090915679932e-01</leafValues></_>
        <_>
          <internalNodes>
            0 -1 273 -6.6161314025521278e-03</internalNodes>
          <leafValues>
            3.5490545630455017e-01 -1.4303487539291382e-01</leafValues></_></weakClassifiers></_>
    <!-- stage 2 -->
    <_>
      <maxWeakCount>28</maxWeakCount>
      <stageThreshold>-1.0718343257904053e+00</stageThreshold>
      <weakClassifiers>
        <_>
          <internalNodes>
            0 -1 221 1.9984855316579342e-03</internalNodes>
          <leafValues>
            -6.4398542046546936e-02 5.5234658718109131e-01</leafValues></_>
        <_>
          <internalNodes>
            0 -1 220 -1.6190792666748166e-03</internalNodes>
          <leafValues>
            4.7915062308311462e-01 -1.4634013175964355e-01</leafValues></_>
        <_>
          <internalNodes>
            0 -1 193 -6.4659374766051769e-04</internalNodes>
          <leafValues>
            4.6172329783439636e-01 -1.3472190499305725e-01</leafValues></_>
        <_>
          <internalNodes>
            0 -1 201 8.0212578177452087e-03</internalNodes>
          <leafValues>
            1.0020703822374344e-01 -5.1389265060424805e-01</leafValues></_>
        <_>
          <internalNodes>
            0 -1 145 3.7657644134014845e-03</internalNodes>
          <leafValues>
            -1.3552850484848022e-01 5.1666069030761719e-01</leafValues></_>
        <_>
          <internalNodes>
            0 -1 215 5.6742378546914551e-06</internalNodes>
          <leafValues>
            -1.4384903013706207e-01 3.4595298767089844e-01</leafValues></_>
        <_>
          <internalNodes>
            0 -1 208 -1.6858492745086551e-03</internalNodes>
          <leafValues>
            3.5329011082649231e-01 -2.0598563551902771e-01</leafValues></_>
        <_>
          <internalNodes>
            0 -1 666 2.0587977487593889e-03</internalNodes>
          <leafValues>
            1.8254607915878296e-01 -3.0531758069992065e-01</leafValues></_>
        <_>
          <internalNodes>
            0 -1 326 -5.9858579188585281e-03</internalNodes>
          <leafValues>
            4.6022289991378784e-01 -9.9901720881462097e-02</leafValues></_>
        <_>
          <internalNodes>
            0 -1 21 7.0503000169992447e-03</internalNodes>
          <leafValues>
            -4.4071868062019348e-02 6.2591403722763062e-01</leafValues></_>
        <_>
          <internalNodes>
            0 -1 267 -5.7489611208438873e-04</internalNodes>
          <leafValues>
            7.1343827247619629e-01 -6.7406944930553436e-02</leafValues></_>
        <_>
          <internalNodes>
            0 -1 179 -2.6685991324484348e-03</internalNodes>
          <leafValues>
            4.3050912022590637e-01 -1.0492271929979324e-01</leafValues></_>
        <_>
          <internalNodes>
            0 -1 413 -1.8106256902683526e-05</internalNodes>
          <leafValues>
            1.7801740765571594e-01 -2.6962843537330627e-01</leafValues></_>
        <_>
          <internalNodes>
            0 -1 407 -7.7587991952896118e-02</internalNodes>
          <leafValues>
            4.0910446643829346e-01 -1.1913879215717316e-01</leafValues></_>
        <_>
          <internalNodes>
            0 -1 498 -9.6290174406021833e-04</internalNodes>
          <leafValues>
            3.9619913697242737e-01 -1.1995888501405716e-01</leafValues></_>
        <_>
          <internalNodes>
            0 -1 454 -6.0356767789926380e-05</internalNodes>
          <leafValues>
            1.9437125325202942e-01 -2.9206100106239319e-01</leafValues></_>
        <_>
          <internalNodes>
            0 -1 584 -3.8024148670956492e-04</internalNodes>
          <leafValues>
            5.4883658885955811e-01 -9.1897055506706238e-02</leafValues></_>
        <_>
          <internalNodes>
            0 -1 113 6.2381470203399658e-01</internalNodes>
          <leafValues>
            -6.6840015351772308e-02 7.1243506669998169e-01</leafValues></_>
        <_>
          <internalNodes>
            0 -1 352 4.9708196893334389e-03</internalNodes>
          <leafValues>
            -1.1313006281852722e-01 4.0619859099388123e-01</leafValues></_>
        <_>
          <internalNodes>
            0 -1 256 -1.6747584566473961e-02</internalNodes>
          <leafValues>
            2.9575219750404358e-01 -1.6743171215057373e-01</leafValues></_>
        <_>
          <internalNodes>
            0 -1 177 -1.0812196414917707e-03</internalNodes>
          <leafValues>
            3.4265914559364319e-01 -1.3377055525779724e-01</leafValues></_>
        <_>
          <internalNodes>
            0 -1 240 1.2734793126583099e-03</internalNodes>
          <leafValues>
            -1.4547343552112579e-01 3.5857093334197998e-01</leafValues></_>
        <_>
          <internalNodes>
            0 -1 411 -3.3199343830347061e-02</internalNodes>
          <leafValues>
            3.8343766331672668e-01 -1.3197439908981323e-01</leafValues></_>
        <_>
          <internalNodes>
            0 -1 568 -1.3598633930087090e-02</internalNodes>
          <leafValues>
            2.6168593764305115e-01 -1.6907264292240143e-01</leafValues></_>
        <_>
          <internalNodes>
            0 -1 4 -6.0023795813322067e-03</internalNodes>
          <leafValues>
            -3.2669422030448914e-01 1.4959996938705444e-01</leafValues></_>
        <_>
          <internalNodes>
            0 -1 213 7.5866369297727942e-04</internalNodes>
          <leafValues>
            -7.0418275892734528e-02 8.4678733348846436e-01</leafValues></_>
        <_>
          <internalNodes>
            0 -1 334 -5.5271452292799950e-03</internalNodes>
          <leafValues>
            3.7176266312599182e-01 -1.1388248950242996e-01</leafValues></_>
        <_>
          <internalNodes>
            0 -1 52 -1.1512568453326821e-03</internalNodes>
          <leafValues>
            4.4766682386398315e-01 -9.5242761075496674e-02</leafValues></_></weakClassifiers></_>
    <!-- stage 3 -->
    <_>
      <maxWeakCount>41</maxWeakCount>
      <stageThreshold>-1.0644388198852539e+00</stageThreshold>
      <weakClassifiers>
        <_>
          <internalNodes>
            0 -1 682 -2.2577974013984203e-03</internalNodes>
          <leafValues>
            -2.6565143465995789e-01 2.2187694907188416e-01</leafValues></_>
        <_>
          <internalNodes>
            0 -1 373 3.5868495702743530e-02</internalNodes>
          <leafValues>
            -5.7059593498706818e-02 8.6588472127914429e-01</leafValues></_>
        <_>
          <internalNodes>
            0 -1 276 1.3561787083745003e-02</internalNodes>
          <leafValues>
            -1.4838707447052002e-01 3.0685937404632568e-01</leafValues></_>
        <_>
          <internalNodes>
            0 -1 241 1.0084565728902817e-02</internalNodes>
          <leafValues>
            -8.4718316793441772e-02 4.7165259718894958e-01</leafValues></_>
        <_>
          <internalNodes>
            0 -1 25 1.1589438654482365e-02</internalNodes>
          <leafValues>
            -1.4017572999000549e-01 3.4703457355499268e-01</leafValues></_>
        <_>
          <internalNodes>
            0 -1 178 1.5237019956111908e-01</internalNodes>
          <leafValues>
            -8.0337963998317719e-02 5.1607000827789307e-01</leafValues></_>
        <_>
          <internalNodes>
            0 -1 71 -2.4201793596148491e-02</internalNodes>
          <leafValues>
            3.0559420585632324e-01 -1.4878173172473907e-01</leafValues></_>
        <_>
          <internalNodes>
            0 -1 647 9.0788165107369423e-03</internalNodes>
          <leafValues>
            -9.7325704991817474e-02 4.3852266669273376e-01</leafValues></_>
        <_>
          <internalNodes>
            0 -1 628 -8.7339598685503006e-03</internalNodes>
          <leafValues>
            4.5086532831192017e-01 -5.7763103395700455e-02</leafValues></_>
        <_>
          <internalNodes>
            0 -1 644 4.3849460780620575e-05</internalNodes>
          <leafValues>
            1.3112837076187134e-01 -3.2545098662376404e-01</leafValues></_>
        <_>
          <internalNodes>
            0 -1 123 -1.2054703384637833e-01</internalNodes>
          <leafValues>
            -6.0696363449096680e-01 3.0723730102181435e-02</leafValues></_>
        <_>
          <internalNodes>
            0 -1 124 8.6206488311290741e-02</internalNodes>
          <leafValues>
            9.3984067440032959e-02 -5.1711219549179077e-01</leafValues></_>
        <_>
          <internalNodes>
            0 -1 591 4.5511666685342789e-02</internalNodes>
          <leafValues>
            -9.5734111964702606e-02 4.4963207840919495e-01</leafValues></_>
        <_>
          <internalNodes>
            0 -1 401 1.3366816565394402e-02</internalNodes>
          <leafValues>
            -1.0948116332292557e-01 3.3104228973388672e-01</leafValues></_>
        <_>
          <internalNodes>
            0 -1 225 3.1206525862216949e-02</internalNodes>
          <leafValues>
            -7.3313206434249878e-02 4.1195297241210938e-01</leafValues></_>
        <_>
          <internalNodes>
            0 -1 228 -1.3191379606723785e-02</internalNodes>
          <leafValues>
            3.9907765388488770e-01 -1.2105637788772583e-01</leafValues></_>
        <_>
          <internalNodes>
            0 -1 362 -3.3110499382019043e-02</internalNodes>
          <leafValues>
            6.4166468381881714e-01 -4.3904688209295273e-02</leafValues></_>
        <_>
          <internalNodes>
            0 -1 583 1.5042430022731423e-03</internalNodes>
          <leafValues>
            -7.4120551347732544e-02 4.6735000610351563e-01</leafValues></_>
        <_>
          <internalNodes>
            0 -1 512 3.4971503191627562e-04</internalNodes>
          <leafValues>
            1.3349303603172302e-01 -3.1710210442543030e-01</leafValues></_>
        <_>
          <internalNodes>
            0 -1 80 -7.3782745748758316e-03</internalNodes>
          <leafValues>
            2.7107271552085876e-01 -1.3765996694564819e-01</leafValues></_>
        <_>
          <internalNodes>
            0 -1 236 -7.1094837039709091e-04</internalNodes>
          <leafValues>
            -3.0863723158836365e-01 1.2567976117134094e-01</leafValues></_>
        <_>
          <internalNodes>
            0 -1 16 1.8834121525287628e-02</internalNodes>
          <leafValues>
            5.3530637174844742e-02 -5.6859272718429565e-01</leafValues></_>
        <_>
          <internalNodes>
            0 -1 572 -1.6710633644834161e-04</internalNodes>
          <leafValues>
            -2.9422834515571594e-01 1.2214031815528870e-01</leafValues></_>
        <_>
          <internalNodes>
            0 -1 213 9.3466683756560087e-04</internalNodes>
          <leafValues>
            -4.9684878438711166e-02 6.5722852945327759e-01</leafValues></_>
        <_>
          <internalNodes>
            0 -1 643 -3.5101937828585505e-04</internalNodes>
          <leafValues>
            -3.4464600682258606e-01 1.0280705243349075e-01</leafValues></_>
        <_>
          <internalNodes>
            0 -1 610 -2.5623629335314035e-04</internalNodes>
          <leafValues>
            -3.0849418044090271e-01 1.1796546727418900e-01</leafValues></_>
        <_>
          <internalNodes>
            0 -1 675 -4.4646956957876682e-03</internalNodes>
          <leafValues>
            6.3875901699066162e-01 -5.9290286153554916e-02</leafValues></_>
        <_>
          <internalNodes>
            0 -1 99 -1.1107822647318244e-03</internalNodes>
          <leafValues>
            5.2933460474014282e-01 -5.6104622781276703e-02</leafValues></_>
        <_>
          <internalNodes>
            0 -1 671 2.4450279306620359e-03</internalNodes>
          <leafValues>
            -8.2561783492565155e-02 3.6754080653190613e-01</leafValues></_>
        <_>
          <internalNodes>
            0 -1 137 -1.9708514213562012e-02</internalNodes>
          <leafValues>
            3.3605498075485229e-01 -9.7476661205291748e-02</leafValues></_>
        <_>
          <internalNodes>
            0 -1 118 -1.8124846974387765e-04</internalNodes>
          <leafValues>
            -2.8486192226409912e-01 1.4936983585357666e-01</leafValues></_>
        <_>
          <internalNodes>
            0 -1 559 6.5163550898432732e-03</internalNodes>
          <leafValues>
            -7.5931198894977570e-02 4.4871866703033447e-01</leafValues></_>
        <_>
          <internalNodes>
            0 -1 500 -5.0595654174685478e-03</internalNodes>
          <leafValues>
            3.1849116086959839e-01 -1.1000715941190720e-01</leafValues></_>
        <_>
          <internalNodes>
            0 -1 320 -1.0982708772644401e-04</internalNodes>
          <leafValues>
            -2.9668346047401428e-01 1.0850542783737183e-01</leafValues></_>
        <_>
          <internalNodes>
            0 -1 218 3.6655107140541077e-01</internalNodes>
          <leafValues>
            -7.9524308443069458e-02 4.3662786483764648e-01</leafValues></_>
        <_>
          <internalNodes>
            0 -1 315 -1.2016555294394493e-02</internalNodes>
          <leafValues>
            4.0909308195114136e-01 -8.1015482544898987e-02</leafValues></_>
        <_>
          <internalNodes>
            0 -1 403 -7.2765760123729706e-03</internalNodes>
          <leafValues>
            2.8411182761192322e-01 -1.2056859582662582e-01</leafValues></_>
        <_>
          <internalNodes>
            0 -1 104 -4.6108537353575230e-03</internalNodes>
          <leafValues>
            3.1902813911437988e-01 -1.0371855646371841e-01</leafValues></_>
        <_>
          <internalNodes>
            0 -1 260 -2.5022675981745124e-04</internalNodes>
          <leafValues>
            -3.0634713172912598e-01 1.1142432689666748e-01</leafValues></_>
        <_>
          <internalNodes>
            0 -1 245 3.1078170286491513e-04</internalNodes>
          <leafValues>
            1.5686507523059845e-01 -2.8750032186508179e-01</leafValues></_>
        <_>
          <internalNodes>
            0 -1 444 -2.7087617199867964e-03</internalNodes>
          <leafValues>
            2.4243040382862091e-01 -1.5429399907588959e-01</leafValues></_></weakClassifiers></_>
    <!-- stage 4 -->
    <_>
      <maxWeakCount>42</maxWeakCount>
      <stageThreshold>-9.2305380105972290e-01</stageThreshold>
      <weakClassifiers>
        <_>
          <internalNodes>
            0 -1 522 6.7650508135557175e-03</internalNodes>
          <leafValues>
            -1.7421603202819824e-02 4.8117154836654663e-01</leafValues></_>
        <_>
          <internalNodes>
            0 -1 39 -7.6316773891448975e-02</internalNodes>
          <leafValues>
            3.1656774878501892e-01 -1.3034911453723907e-01</leafValues></_>
        <_>
          <internalNodes>
            0 -1 532 -9.9868702818639576e-05</internalNodes>
          <leafValues>
            1.6300980746746063e-01 -3.1397759914398193e-01</leafValues></_>
        <_>
          <internalNodes>
            0 -1 173 -6.2459353357553482e-03</internalNodes>
          <leafValues>
            3.2331618666648865e-01 -1.1854515969753265e-01</leafValues></_>
        <_>
          <internalNodes>
            0 -1 141 6.8897632881999016e-03</internalNodes>
          <leafValues>
            -1.6824498772621155e-01 2.7392163872718811e-01</leafValues></_>
        <_>
          <internalNodes>
            0 -1 587 -7.7372631058096886e-03</internalNodes>
          <leafValues>
            4.2196640372276306e-01 -2.2535132244229317e-02</leafValues></_>
        <_>
          <internalNodes>
            0 -1 272 1.7118331044912338e-02</internalNodes>
          <leafValues>
            -1.5211085975170135e-01 2.4991972744464874e-01</leafValues></_>
        <_>
          <internalNodes>
            0 -1 316 -7.2376644238829613e-03</internalNodes>
          <leafValues>
            3.7678572535514832e-01 -1.1059437692165375e-01</leafValues></_>
        <_>
          <internalNodes>
            0 -1 140 3.6681419610977173e-01</internalNodes>
          <leafValues>
            -7.5790278613567352e-02 5.1909130811691284e-01</leafValues></_>
        <_>
          <internalNodes>
            0 -1 331 -3.3761166036128998e-02</internalNodes>
          <leafValues>
            2.5971651077270508e-01 -1.4605316519737244e-01</leafValues></_>
        <_>
          <internalNodes>
            0 -1 388 -6.8854913115501404e-03</internalNodes>
          <leafValues>
            3.3472269773483276e-01 -1.0211341083049774e-01</leafValues></_>
        <_>
          <internalNodes>
            0 -1 200 5.2445372566580772e-03</internalNodes>
          <leafValues>
            7.0514395833015442e-02 -7.1544396877288818e-01</leafValues></_>
        <_>
          <internalNodes>
            0 -1 537 3.4826858900487423e-03</internalNodes>
          <leafValues>
            -1.2407898902893066e-01 3.6288669705390930e-01</leafValues></_>
        <_>
          <internalNodes>
            0 -1 34 2.1450765430927277e-02</internalNodes>
          <leafValues>
            -6.6525213420391083e-02 4.6081641316413879e-01</leafValues></_>
        <_>
          <internalNodes>
            0 -1 94 -2.7544537186622620e-01</internalNodes>
          <leafValues>
            5.7124847173690796e-01 -6.2326040118932724e-02</leafValues></_>
        <_>
          <internalNodes>
            0 -1 46 1.0643690824508667e-01</internalNodes>
          <leafValues>
            -1.0857946425676346e-01 3.1998670101165771e-01</leafValues></_>
        <_>
          <internalNodes>
            0 -1 533 -1.0660949919838458e-04</internalNodes>
          <leafValues>
            -2.7030527591705322e-01 1.4260475337505341e-01</leafValues></_>
        <_>
          <internalNodes>
            0 -1 89 -3.6203376948833466e-03</internalNodes>
          <leafValues>
            3.1533625721931458e-01 -1.2602801620960236e-01</leafValues></_>
        <_>
          <internalNodes>
            0 -1 244 -6.2313033267855644e-03</internalNodes>
          <leafValues>
            3.2138398289680481e-01 -9.7987771034240723e-02</leafValues></_>
        <_>
          <internalNodes>
            0 -1 68 2.1140120225027204e-04</internalNodes>
          <leafValues>
            1.0152035951614380e-01 -3.6242619156837463e-01</leafValues></_>
        <_>
          <internalNodes>
            0 -1 105 -2.9774229042232037e-03</internalNodes>
          <leafValues>
            3.9006161689758301e-01 -1.0516039282083511e-01</leafValues></_>
        <_>
          <internalNodes>
            0 -1 544 1.5500879846513271e-02</internalNodes>
          <leafValues>
            -8.4183633327484131e-02 3.9141002297401428e-01</leafValues></_>
        <_>
          <internalNodes>
            0 -1 554 2.4685552343726158e-03</internalNodes>
          <leafValues>
            8.9253701269626617e-02 -4.7805637121200562e-01</leafValues></_>
        <_>
          <internalNodes>
            0 -1 483 -4.8827991122379899e-05</internalNodes>
          <leafValues>
            1.5425492823123932e-01 -2.1829627454280853e-01</leafValues></_>
        <_>
          <internalNodes>
            0 -1 466 1.7730612307786942e-02</internalNodes>
          <leafValues>
            -7.6236300170421600e-02 3.8364988565444946e-01</leafValues></_>
        <_>
          <internalNodes>
            0 -1 9 1.6226517618633807e-04</internalNodes>
          <leafValues>
            1.0458230227231979e-01 -3.4066694974899292e-01</leafValues></_>
        <_>
          <internalNodes>
            0 -1 18 -2.5222364347428083e-03</internalNodes>
          <leafValues>
            3.7219172716140747e-01 -8.9232809841632843e-02</leafValues></_>
        <_>
          <internalNodes>
            0 -1 476 1.6685642767697573e-03</internalNodes>
          <leafValues>
            -1.0581258684396744e-01 3.2221156358718872e-01</leafValues></_>
        <_>
          <internalNodes>
            0 -1 508 -1.7738596070557833e-03</internalNodes>
          <leafValues>
            2.0242361724376678e-01 -1.5896850824356079e-01</leafValues></_>
        <_>
          <internalNodes>
            0 -1 51 2.7196472510695457e-03</internalNodes>
          <leafValues>
            -7.1825675666332245e-02 4.7697699069976807e-01</leafValues></_>
        <_>
          <internalNodes>
            0 -1 169 -1.0272842645645142e-01</internalNodes>
          <leafValues>
            4.9177849292755127e-01 -6.5136738121509552e-02</leafValues></_>
        <_>
          <internalNodes>
            0 -1 297 5.9820665046572685e-03</internalNodes>
          <leafValues>
            -9.5544859766960144e-02 3.5550528764724731e-01</leafValues></_>
        <_>
          <internalNodes>
            0 -1 464 -1.3463232899084687e-03</internalNodes>
          <leafValues>
            1.8359650671482086e-01 -1.9920390844345093e-01</leafValues></_>
        <_>
          <internalNodes>
            0 -1 510 1.3391274842433631e-04</internalNodes>
          <leafValues>
            1.3627468049526215e-01 -2.3843817412853241e-01</leafValues></_>
        <_>
          <internalNodes>
            0 -1 432 -4.3480773456394672e-03</internalNodes>
          <leafValues>
            6.0700899362564087e-01 -5.1164921373128891e-02</leafValues></_>
        <_>
          <internalNodes>
            0 -1 599 -2.9414824675768614e-03</internalNodes>
          <leafValues>
            -5.5857712030410767e-01 6.3549965620040894e-02</leafValues></_>
        <_>
          <internalNodes>
            0 -1 243 -5.4865283891558647e-03</internalNodes>
          <leafValues>
            3.7995457649230957e-01 -9.3826048076152802e-02</leafValues></_>
        <_>
          <internalNodes>
            0 -1 538 -5.6741671869531274e-05</internalNodes>
          <leafValues>
            -2.6463779807090759e-01 1.1713951826095581e-01</leafValues></_>
        <_>
          <internalNodes>
            0 -1 515 -1.3390692765824497e-04</internalNodes>
          <leafValues>
            1.5820702910423279e-01 -1.8281570076942444e-01</leafValues></_>
        <_>
          <internalNodes>
            0 -1 386 -4.3447474017739296e-03</internalNodes>
          <leafValues>
            3.1788119673728943e-01 -1.0681924223899841e-01</leafValues></_>
        <_>
          <internalNodes>
            0 -1 552 -3.5723010078072548e-03</internalNodes>
          <leafValues>
            6.1031299829483032e-01 -5.0520449876785278e-02</leafValues></_>
        <_>
          <internalNodes>
            0 -1 487 -5.4869800806045532e-03</internalNodes>
          <leafValues>
            -7.0198857784271240e-01 5.1459956914186478e-02</leafValues></_></weakClassifiers></_>
    <!-- stage 5 -->
    <_>
      <maxWeakCount>49</maxWeakCount>
      <stageThreshold>-9.6634316444396973e-01</stageThreshold>
      <weakClassifiers>
        <_>
          <internalNodes>
            0 -1 158 -4.8548346385359764e-03</internalNodes>
          <leafValues>
            4.4781145453453064e-01 -4.1095890104770660e-02</leafValues></_>
        <_>
          <internalNodes>
            0 -1 609 -4.5229808165458962e-05</internalNodes>
          <leafValues>
            -2.6619893312454224e-01 1.2780809402465820e-01</leafValues></_>
        <_>
          <internalNodes>
            0 -1 378 6.0893641784787178e-04</internalNodes>
          <leafValues>
            -1.5687178075313568e-01 2.2170718014240265e-01</leafValues></_>
        <_>
          <internalNodes>
            0 -1 167 -1.6923472285270691e-02</internalNodes>
          <leafValues>
            2.4134562909603119e-01 -1.5588234364986420e-01</leafValues></_>
        <_>
          <internalNodes>
            0 -1 268 1.2212949804961681e-02</internalNodes>
          <leafValues>
            -1.1888600885868073e-01 3.1311824917793274e-01</leafValues></_>
        <_>
          <internalNodes>
            0 -1 199 3.2450346043333411e-04</internalNodes>
          <leafValues>
            1.4995770156383514e-01 -3.0264720320701599e-01</leafValues></_>
        <_>
          <internalNodes>
            0 -1 300 -9.5927314832806587e-03</internalNodes>
          <leafValues>
            1.8764421343803406e-01 -1.7974357306957245e-01</leafValues></_>
        <_>
          <internalNodes>
            0 -1 393 1.2598524335771799e-03</internalNodes>
          <leafValues>
            1.3403248786926270e-01 -2.5336554646492004e-01</leafValues></_>
        <_>
          <internalNodes>
            0 -1 433 -2.1963145583868027e-02</internalNodes>
          <leafValues>
            2.9490432143211365e-01 -1.2837128341197968e-01</leafValues></_>
        <_>
          <internalNodes>
            0 -1 125 1.6225342452526093e-01</internalNodes>
          <leafValues>
            -1.1377865821123123e-01 3.8736981153488159e-01</leafValues></_>
        <_>
          <internalNodes>
            0 -1 50 7.7595360577106476e-02</internalNodes>
          <leafValues>
            1.0845316201448441e-01 -5.0063180923461914e-01</leafValues></_>
        <_>
          <internalNodes>
            0 -1 543 -2.5236386805772781e-02</internalNodes>
          <leafValues>
            5.5884301662445068e-01 -9.7312621772289276e-02</leafValues></_>
        <_>
          <internalNodes>
            0 -1 486 8.3274778444319963e-04</internalNodes>
          <leafValues>
            -8.2043536007404327e-02 2.8399828076362610e-01</leafValues></_>
        <_>
          <internalNodes>
            0 -1 692 -4.9219548236578703e-04</internalNodes>
          <leafValues>
            -2.9945006966590881e-01 8.6868278682231903e-02</leafValues></_>
        <_>
          <internalNodes>
            0 -1 122 -3.7792054936289787e-03</internalNodes>
          <leafValues>
            4.1664817929267883e-01 -6.6632337868213654e-02</leafValues></_>
        <_>
          <internalNodes>
            0 -1 17 -1.4105869922786951e-04</internalNodes>
          <leafValues>
            -3.6122375726699829e-01 8.5359111428260803e-02</leafValues></_>
        <_>
          <internalNodes>
            0 -1 22 1.7545185983181000e-02</internalNodes>
          <leafValues>
            -7.1775458753108978e-02 3.8623163104057312e-01</leafValues></_>
        <_>
          <internalNodes>
            0 -1 126 -2.1182265132665634e-02</internalNodes>
          <leafValues>
            3.3765855431556702e-01 -9.0959981083869934e-02</leafValues></_>
        <_>
          <internalNodes>
            0 -1 42 2.0497152581810951e-03</internalNodes>
          <leafValues>
            -1.4382262527942657e-01 2.1633945405483246e-01</leafValues></_>
        <_>
          <internalNodes>
            0 -1 566 -1.0690454393625259e-02</internalNodes>
          <leafValues>
            3.3071538805961609e-01 -8.2114726305007935e-02</leafValues></_>
        <_>
          <internalNodes>
            0 -1 606 -2.0214958931319416e-04</internalNodes>
          <leafValues>
            -3.0263268947601318e-01 1.0902914404869080e-01</leafValues></_>
        <_>
          <internalNodes>
            0 -1 675 -1.0011931881308556e-03</internalNodes>
          <leafValues>
            3.0773901939392090e-01 -1.1122593283653259e-01</leafValues></_>
        <_>
          <internalNodes>
            0 -1 64 5.3070478141307831e-02</internalNodes>
          <leafValues>
            -2.7990020811557770e-02 7.3638880252838135e-01</leafValues></_>
        <_>
          <internalNodes>
            0 -1 630 -2.1863933652639389e-03</internalNodes>
          <leafValues>
            2.6243075728416443e-01 -1.1165461689233780e-01</leafValues></_>
        <_>
          <internalNodes>
            0 -1 688 2.1970421948935837e-04</internalNodes>
          <leafValues>
            9.3492731451988220e-02 -3.1301459670066833e-01</leafValues></_>
        <_>
          <internalNodes>
            0 -1 324 -5.1632151007652283e-03</internalNodes>
          <leafValues>
            -6.1162745952606201e-01 3.9404213428497314e-02</leafValues></_>
        <_>
          <internalNodes>
            0 -1 597 -5.0748116336762905e-03</internalNodes>
          <leafValues>
            2.9236662387847900e-01 -1.0806699097156525e-01</leafValues></_>
        <_>
          <internalNodes>
            0 -1 596 8.4715982666239142e-05</internalNodes>
          <leafValues>
            1.2664324045181274e-01 -2.5195124745368958e-01</leafValues></_>
        <_>
          <internalNodes>
            0 -1 635 8.5124216275289655e-04</internalNodes>
          <leafValues>
            -9.1766357421875000e-02 3.2452797889709473e-01</leafValues></_>
        <_>
          <internalNodes>
            0 -1 92 -2.2079795598983765e-01</internalNodes>
          <leafValues>
            8.3759969472885132e-01 -3.9285149425268173e-02</leafValues></_>
        <_>
          <internalNodes>
            0 -1 79 9.9191698245704174e-04</internalNodes>
          <leafValues>
            -1.0080446302890778e-01 2.9403591156005859e-01</leafValues></_>
        <_>
          <internalNodes>
            0 -1 372 1.3687007594853640e-03</internalNodes>
          <leafValues>
            5.5772222578525543e-02 -6.3139545917510986e-01</leafValues></_>
        <_>
          <internalNodes>
            0 -1 182 -2.8181209927424788e-04</internalNodes>
          <leafValues>
            1.8972253799438477e-01 -1.5030793845653534e-01</leafValues></_>
        <_>
          <internalNodes>
            0 -1 185 3.5361923277378082e-02</internalNodes>
          <leafValues>
            -3.2921396195888519e-02 7.7202498912811279e-01</leafValues></_>
        <_>
          <internalNodes>
            0 -1 250 -1.2548246886581182e-03</internalNodes>
          <leafValues>
            3.4688198566436768e-01 -8.0896005034446716e-02</leafValues></_>
        <_>
          <internalNodes>
            0 -1 475 1.2739226222038269e-03</internalNodes>
          <leafValues>
            -1.2311510741710663e-01 2.4825181066989899e-01</leafValues></_>
        <_>
          <internalNodes>
            0 -1 419 6.4542415202595294e-05</internalNodes>
          <leafValues>
            1.2661403417587280e-01 -2.4514822661876678e-01</leafValues></_>
        <_>
          <internalNodes>
            0 -1 420 -3.3571955282241106e-04</internalNodes>
          <leafValues>
            -2.5288924574851990e-01 1.2397164851427078e-01</leafValues></_>
        <_>
          <internalNodes>
            0 -1 509 4.7780610620975494e-03</internalNodes>
          <leafValues>
            -4.5344665646553040e-02 6.7940783500671387e-01</leafValues></_>
        <_>
          <internalNodes>
            0 -1 20 -9.6103735268115997e-02</internalNodes>
          <leafValues>
            -7.3725265264511108e-01 4.1532669216394424e-02</leafValues></_>
        <_>
          <internalNodes>
            0 -1 96 1.0812060907483101e-02</internalNodes>
          <leafValues>
            -1.2439130246639252e-01 2.1027520298957825e-01</leafValues></_>
        <_>
          <internalNodes>
            0 -1 188 -7.4499042239040136e-04</internalNodes>
          <leafValues>
            -2.4288070201873779e-01 1.2408125400543213e-01</leafValues></_>
        <_>
          <internalNodes>
            0 -1 41 -2.5526966899633408e-02</internalNodes>
          <leafValues>
            3.1960391998291016e-01 -1.0543714463710785e-01</leafValues></_>
        <_>
          <internalNodes>
            0 -1 278 3.4613963216543198e-03</internalNodes>
          <leafValues>
            -8.1860557198524475e-02 3.1101197004318237e-01</leafValues></_>
        <_>
          <internalNodes>
            0 -1 91 1.0900043882429600e-02</internalNodes>
          <leafValues>
            -1.0810871422290802e-01 2.5556087493896484e-01</leafValues></_>
        <_>
          <internalNodes>
            0 -1 116 6.0548290610313416e-02</internalNodes>
          <leafValues>
            3.0345356091856956e-02 -8.8641661405563354e-01</leafValues></_>
        <_>
          <internalNodes>
            0 -1 482 -2.9601549613289535e-04</internalNodes>
          <leafValues>
            -2.8893139958381653e-01 9.2437662184238434e-02</leafValues></_>
        <_>
          <internalNodes>
            0 -1 448 1.0115418263012543e-05</internalNodes>
          <leafValues>
            -1.4916193485260010e-01 1.9270136952400208e-01</leafValues></_>
        <_>
          <internalNodes>
            0 -1 3 1.4923210255801678e-03</internalNodes>
          <leafValues>
            8.3482451736927032e-02 -3.7334427237510681e-01</leafValues></_></weakClassifiers></_>
    <!-- stage 6 -->
    <_>
      <maxWeakCount>49</maxWeakCount>
      <stageThreshold>-8.6995983123779297e-01</stageThreshold>
      <weakClassifiers>
        <_>
          <internalNodes>
            0 -1 109 2.0455349236726761e-02</internalNodes>
          <leafValues>
            4.0816325694322586e-02 8.1690138578414917e-01</leafValues></_>
        <_>
          <internalNodes>
            0 -1 392 6.4319500233978033e-04</internalNodes>
          <leafValues>
            1.1682429164648056e-01 -3.2165601849555969e-01</leafValues></_>
        <_>
          <internalNodes>
            0 -1 149 2.3747878149151802e-02</internalNodes>
          <leafValues>
            9.1483272612094879e-02 -3.7300482392311096e-01</leafValues></_>
        <_>
          <internalNodes>
            0 -1 353 -6.2330812215805054e-02</internalNodes>
          <leafValues>
            3.6222997307777405e-01 -1.0599984973669052e-01</leafValues></_>
        <_>
          <internalNodes>
            0 -1 28 1.9867369532585144e-01</internalNodes>
          <leafValues>
            -1.1638475209474564e-01 3.6377632617950439e-01</leafValues></_>
        <_>
          <internalNodes>
            0 -1 473 -5.1045871805399656e-04</internalNodes>
          <leafValues>
            2.7030402421951294e-01 -1.1643814295530319e-01</leafValues></_>
        <_>
          <internalNodes>
            0 -1 471 3.5872674197889864e-04</internalNodes>
          <leafValues>
            -1.7928257584571838e-01 2.4011807143688202e-01</leafValues></_>
        <_>
          <internalNodes>
            0 -1 257 -3.3560484647750854e-02</internalNodes>
          <leafValues>
            -3.6984753608703613e-01 1.3101096451282501e-01</leafValues></_>
        <_>
          <internalNodes>
            0 -1 73 -4.2952843941748142e-03</internalNodes>
          <leafValues>
            -3.1594681739807129e-01 6.6008552908897400e-02</leafValues></_>
        <_>
          <internalNodes>
            0 -1 7 1.9293162971735001e-02</internalNodes>
          <leafValues>
            1.4324547350406647e-01 -3.8165161013603210e-01</leafValues></_>
        <_>
          <internalNodes>
            0 -1 111 -3.6961962468922138e-03</internalNodes>
          <leafValues>
            2.3925335705280304e-01 -1.5239876508712769e-01</leafValues></_>
        <_>
          <internalNodes>
            0 -1 299 1.2421573512256145e-02</internalNodes>
          <leafValues>
            -5.4291632026433945e-02 3.3303958177566528e-01</leafValues></_>
        <_>
          <internalNodes>
            0 -1 680 5.6850869441404939e-04</internalNodes>
          <leafValues>
            9.9732458591461182e-02 -2.3106241226196289e-01</leafValues></_>
        <_>
          <internalNodes>
            0 -1 634 -1.1090638116002083e-02</internalNodes>
          <leafValues>
            4.7301483154296875e-01 -4.8099484294652939e-02</leafValues></_>
        <_>
          <internalNodes>
            0 -1 575 1.4365176903083920e-03</internalNodes>
          <leafValues>
            -7.3209762573242188e-02 3.9297980070114136e-01</leafValues></_>
        <_>
          <internalNodes>
            0 -1 668 -9.4518945843447000e-05</internalNodes>
          <leafValues>
            -2.5738477706909180e-01 1.1256811022758484e-01</leafValues></_>
        <_>
          <internalNodes>
            0 -1 694 -1.1303261271677911e-04</internalNodes>
          <leafValues>
            -2.8618031740188599e-01 9.5879949629306793e-02</leafValues></_>
        <_>
          <internalNodes>
            0 -1 229 9.6048432169482112e-05</internalNodes>
          <leafValues>
            -1.4692251384258270e-01 1.8936723470687866e-01</leafValues></_>
        <_>
          <internalNodes>
            0 -1 535 -6.6507887095212936e-03</internalNodes>
          <leafValues>
            4.5355993509292603e-01 -7.4981354176998138e-02</leafValues></_>
        <_>
          <internalNodes>
            0 -1 523 -5.0218380056321621e-04</internalNodes>
          <leafValues>
            3.4423789381980896e-01 -6.7814551293849945e-02</leafValues></_>
        <_>
          <internalNodes>
            0 -1 593 5.8480491861701012e-03</internalNodes>
          <leafValues>
            -3.2114986330270767e-02 6.9729673862457275e-01</leafValues></_>
        <_>
          <internalNodes>
            0 -1 502 1.2455726391635835e-04</internalNodes>
          <leafValues>
            1.2328699231147766e-01 -2.3921732604503632e-01</leafValues></_>
        <_>
          <internalNodes>
            0 -1 157 2.3961171973496675e-03</internalNodes>
          <leafValues>
            -7.5517088174819946e-02 3.7528693675994873e-01</leafValues></_>
        <_>
          <internalNodes>
            0 -1 555 1.9636936485767365e-04</internalNodes>
          <leafValues>
            7.0994608104228973e-02 -3.9955982565879822e-01</leafValues></_>
        <_>
          <internalNodes>
            0 -1 652 9.4937896355986595e-03</internalNodes>
          <leafValues>
            -5.3056169301271439e-02 5.0233983993530273e-01</leafValues></_>
        <_>
          <internalNodes>
            0 -1 565 -2.9560285620391369e-03</internalNodes>
          <leafValues>
            3.8380381464958191e-01 -6.2626942992210388e-02</leafValues></_>
        <_>
          <internalNodes>
            0 -1 427 -3.9180754683911800e-03</internalNodes>
          <leafValues>
            2.0345439016819000e-01 -1.3084499537944794e-01</leafValues></_>
        <_>
          <internalNodes>
            0 -1 581 -1.1106082638434600e-05</internalNodes>
          <leafValues>
            1.7008073627948761e-01 -1.8255053460597992e-01</leafValues></_>
        <_>
          <internalNodes>
            0 -1 291 1.8041447037830949e-04</internalNodes>
          <leafValues>
            9.6436537802219391e-02 -2.9121211171150208e-01</leafValues></_>
        <_>
          <internalNodes>
            0 -1 660 5.6604651035740972e-04</internalNodes>
          <leafValues>
            8.0898240208625793e-02 -3.3418211340904236e-01</leafValues></_>
        <_>
          <internalNodes>
            0 -1 335 -4.3340057134628296e-02</internalNodes>
          <leafValues>
            2.1974688768386841e-01 -1.1917917430400848e-01</leafValues></_>
        <_>
          <internalNodes>
            0 -1 319 -1.4789984561502934e-03</internalNodes>
          <leafValues>
            1.8196995556354523e-01 -2.0292951166629791e-01</leafValues></_>
        <_>
          <internalNodes>
            0 -1 364 -1.6460630577057600e-03</internalNodes>
          <leafValues>
            -2.6642796397209167e-01 1.1994641274213791e-01</leafValues></_>
        <_>
          <internalNodes>
            0 -1 263 5.1205101954110432e-06</internalNodes>
          <leafValues>
            -1.4422118663787842e-01 1.9644400477409363e-01</leafValues></_>
        <_>
          <internalNodes>
            0 -1 32 -1.6201364994049072e-01</internalNodes>
          <leafValues>
            -2.6979744434356689e-01 9.9150121212005615e-02</leafValues></_>
        <_>
          <internalNodes>
            0 -1 84 -4.3733641505241394e-03</internalNodes>
          <leafValues>
            4.0162995457649231e-01 -6.3172325491905212e-02</leafValues></_>
        <_>
          <internalNodes>
            0 -1 663 2.4779152590781450e-04</internalNodes>
          <leafValues>
            1.3140152394771576e-01 -2.0934650301933289e-01</leafValues></_>
        <_>
          <internalNodes>
            0 -1 355 -4.9643465317785740e-03</internalNodes>
          <leafValues>
            2.0666150748729706e-01 -1.2502720952033997e-01</leafValues></_>
        <_>
          <internalNodes>
            0 -1 279 1.6876461450010538e-03</internalNodes>
          <leafValues>
            -1.1881192028522491e-01 2.5613236427307129e-01</leafValues></_>
        <_>
          <internalNodes>
            0 -1 24 -6.1978725716471672e-03</internalNodes>
          <leafValues>
            -8.6926591396331787e-01 3.5782899707555771e-02</leafValues></_>
        <_>
          <internalNodes>
            0 -1 547 -1.5532724792137742e-03</internalNodes>
          <leafValues>
            2.6187354326248169e-01 -1.1045549809932709e-01</leafValues></_>
        <_>
          <internalNodes>
            0 -1 440 2.5306915631517768e-04</internalNodes>
          <leafValues>
            1.0173569619655609e-01 -2.8320521116256714e-01</leafValues></_>
        <_>
          <internalNodes>
            0 -1 253 6.9256885908544064e-03</internalNodes>
          <leafValues>
            -7.5400307774543762e-02 3.6666426062583923e-01</leafValues></_>
        <_>
          <internalNodes>
            0 -1 282 5.5808204706409015e-06</internalNodes>
          <leafValues>
            -1.5963783860206604e-01 1.6810375452041626e-01</leafValues></_>
        <_>
          <internalNodes>
            0 -1 306 5.7916127843782306e-05</internalNodes>
          <leafValues>
            -1.5425302088260651e-01 1.6544972360134125e-01</leafValues></_>
        <_>
          <internalNodes>
            0 -1 238 -2.4658277630805969e-02</internalNodes>
          <leafValues>
            5.2019405364990234e-01 -5.5247873067855835e-02</leafValues></_>
        <_>
          <internalNodes>
            0 -1 490 2.7291574515402317e-03</internalNodes>
          <leafValues>
            9.1055214405059814e-02 -3.1378704309463501e-01</leafValues></_>
        <_>
          <internalNodes>
            0 -1 204 4.0054783225059509e-02</internalNodes>
          <leafValues>
            6.4752817153930664e-02 -4.0441951155662537e-01</leafValues></_>
        <_>
          <internalNodes>
            0 -1 6 3.7855722010135651e-02</internalNodes>
          <leafValues>
            -9.5452025532722473e-02 2.8728398680686951e-01</leafValues></_></weakClassifiers></_>
    <!-- stage 7 -->
    <_>
      <maxWeakCount>54</maxWeakCount>
      <stageThreshold>-8.7380063533782959e-01</stageThreshold>
      <weakClassifiers>
        <_>
          <internalNodes>
            0 -1 195 6.3389249145984650e-02</internalNodes>
          <leafValues>
            3.3383157104253769e-02 6.8911916017532349e-01</leafValues></_>
        <_>
          <internalNodes>
            0 -1 166 1.2527391314506531e-02</internalNodes>
          <leafValues>
            -1.2784729897975922e-01 3.8875365257263184e-01</leafValues></_>
        <_>
          <internalNodes>
            0 -1 557 5.2880053408443928e-04</internalNodes>
          <leafValues>
            1.2211610376834869e-01 -2.5687634944915771e-01</leafValues></_>
        <_>
          <internalNodes>
            0 -1 579 1.6762431710958481e-02</internalNodes>
          <leafValues>
            -8.1405282020568848e-02 3.2790267467498779e-01</leafValues></_>
        <_>
          <internalNodes>
            0 -1 303 4.0582120418548584e-02</internalNodes>
          <leafValues>
            -9.5217801630496979e-02 3.1121936440467834e-01</leafValues></_>
        <_>
          <internalNodes>
            0 -1 271 -9.3226656317710876e-03</internalNodes>
          <leafValues>
            2.2179254889488220e-01 -1.1463249474763870e-01</leafValues></_>
        <_>
          <internalNodes>
            0 -1 184 -1.8157396465539932e-02</internalNodes>
          <leafValues>
            3.1605631113052368e-01 -1.0135389119386673e-01</leafValues></_>
        <_>
          <internalNodes>
            0 -1 439 -2.8160793590359390e-05</internalNodes>
          <leafValues>
            1.6823434829711914e-01 -1.9648884236812592e-01</leafValues></_>
        <_>
          <internalNodes>
            0 -1 404 -2.6070598978549242e-03</internalNodes>
          <leafValues>
            2.4750395119190216e-01 -1.4064542949199677e-01</leafValues></_>
        <_>
          <internalNodes>
            0 -1 365 -3.6683408543467522e-03</internalNodes>
          <leafValues>
            -3.7098506093025208e-01 7.1644112467765808e-02</leafValues></_>
        <_>
          <internalNodes>
            0 -1 661 -6.2160514062270522e-05</internalNodes>
          <leafValues>
            -2.4929387867450714e-01 9.9981732666492462e-02</leafValues></_>
        <_>
          <internalNodes>
            0 -1 528 2.3603113368153572e-02</internalNodes>
          <leafValues>
            -7.7414013445377350e-02 2.7328488230705261e-01</leafValues></_>
        <_>
          <internalNodes>
            0 -1 531 -1.0886915028095245e-02</internalNodes>
          <leafValues>
            2.3040981590747833e-01 -1.3355074822902679e-01</leafValues></_>
        <_>
          <internalNodes>
            0 -1 70 1.9018996506929398e-02</internalNodes>
          <leafValues>
            4.4519457966089249e-02 -5.3513681888580322e-01</leafValues></_>
        <_>
          <internalNodes>
            0 -1 49 2.6465550065040588e-02</internalNodes>
          <leafValues>
            -9.7183629870414734e-02 2.7446994185447693e-01</leafValues></_>
        <_>
          <internalNodes>
            0 -1 421 1.3244620058685541e-03</internalNodes>
          <leafValues>
            -1.6241373121738434e-01 1.9706609845161438e-01</leafValues></_>
        <_>
          <internalNodes>
            0 -1 383 7.6455920934677124e-02</internalNodes>
          <leafValues>
            -9.2059575021266937e-02 3.2189312577247620e-01</leafValues></_>
        <_>
          <internalNodes>
            0 -1 382 3.8647253066301346e-02</internalNodes>
          <leafValues>
            4.7598157078027725e-02 -7.0169675350189209e-01</leafValues></_>
        <_>
          <internalNodes>
            0 -1 683 -2.4286862462759018e-03</internalNodes>
          <leafValues>
            2.5684076547622681e-01 -1.0407418757677078e-01</leafValues></_>
        <_>
          <internalNodes>
            0 -1 344 -7.7609303407371044e-03</internalNodes>
          <leafValues>
            2.0630402863025665e-01 -1.1710870265960693e-01</leafValues></_>
        <_>
          <internalNodes>
            0 -1 550 1.1626988649368286e-02</internalNodes>
          <leafValues>
            3.2997246831655502e-02 -6.6735857725143433e-01</leafValues></_>
        <_>
          <internalNodes>
            0 -1 389 -3.4624076215550303e-04</internalNodes>
          <leafValues>
            3.3184376358985901e-01 -7.8677661716938019e-02</leafValues></_>
        <_>
          <internalNodes>
            0 -1 0 2.0032953761983663e-04</internalNodes>
          <leafValues>
            5.8992594480514526e-02 -4.1576972603797913e-01</leafValues></_>
        <_>
          <internalNodes>
            0 -1 2 1.1007150897057727e-04</internalNodes>
          <leafValues>
            -1.4147788286209106e-01 1.8507142364978790e-01</leafValues></_>
        <_>
          <internalNodes>
            0 -1 304 1.3196872547268867e-02</internalNodes>
          <leafValues>
            -8.4736436605453491e-02 3.4083685278892517e-01</leafValues></_>
        <_>
          <internalNodes>
            0 -1 11 4.2541003227233887e-01</internalNodes>
          <leafValues>
            -3.6369346082210541e-02 5.6498640775680542e-01</leafValues></_>
        <_>
          <internalNodes>
            0 -1 274 -4.7560045495629311e-03</internalNodes>
          <leafValues>
            2.3221541941165924e-01 -1.0201911628246307e-01</leafValues></_>
        <_>
          <internalNodes>
            0 -1 431 1.8712628632783890e-02</internalNodes>
          <leafValues>
            -9.2778742313385010e-02 2.5344154238700867e-01</leafValues></_>
        <_>
          <internalNodes>
            0 -1 520 8.2219336181879044e-03</internalNodes>
          <leafValues>
            -4.2976520955562592e-02 6.9057816267013550e-01</leafValues></_>
        <_>
          <internalNodes>
            0 -1 341 3.7204913794994354e-02</internalNodes>
          <leafValues>
            -2.5525918230414391e-02 7.2105646133422852e-01</leafValues></_>
        <_>
          <internalNodes>
            0 -1 525 2.0081663387827575e-04</internalNodes>
          <leafValues>
            1.0884566605091095e-01 -2.1873761713504791e-01</leafValues></_>
        <_>
          <internalNodes>
            0 -1 381 -1.6881750198081136e-03</internalNodes>
          <leafValues>
            1.9866448640823364e-01 -1.2711058557033539e-01</leafValues></_>
        <_>
          <internalNodes>
            0 -1 367 -9.6406508237123489e-04</internalNodes>
          <leafValues>
            3.9649561047554016e-01 -5.8511413633823395e-02</leafValues></_>
        <_>
          <internalNodes>
            0 -1 129 4.4035358587279916e-04</internalNodes>
          <leafValues>
            -7.1829274296760559e-02 3.1157884001731873e-01</leafValues></_>
        <_>
          <internalNodes>
            0 -1 343 -3.5551952896639705e-04</internalNodes>
          <leafValues>
            -2.5054389238357544e-01 9.6961610019207001e-02</leafValues></_>
        <_>
          <internalNodes>
            0 -1 492 1.0888783435802907e-05</internalNodes>
          <leafValues>
            -1.3870960474014282e-01 1.9447706639766693e-01</leafValues></_>
        <_>
          <internalNodes>
            0 -1 684 -4.0682416874915361e-04</internalNodes>
          <leafValues>
            -2.6887851953506470e-01 8.9511506259441376e-02</leafValues></_>
        <_>
          <internalNodes>
            0 -1 691 1.8253043526783586e-04</internalNodes>
          <leafValues>
            1.3139191269874573e-01 -2.0239572227001190e-01</leafValues></_>
        <_>
          <internalNodes>
            0 -1 147 -6.0294354334473610e-03</internalNodes>
          <leafValues>
            2.4165445566177368e-01 -1.0129437595605850e-01</leafValues></_>
        <_>
          <internalNodes>
            0 -1 678 -3.1208840664476156e-04</internalNodes>
          <leafValues>
            3.6849725246429443e-01 -6.1639998108148575e-02</leafValues></_>
        <_>
          <internalNodes>
            0 -1 603 1.6107941046357155e-03</internalNodes>
          <leafValues>
            -5.3152192384004593e-02 4.3216758966445923e-01</leafValues></_>
        <_>
          <internalNodes>
            0 -1 23 2.1499423310160637e-03</internalNodes>
          <leafValues>
            1.2538778781890869e-01 -1.9221295416355133e-01</leafValues></_>
        <_>
          <internalNodes>
            0 -1 119 -2.7629390358924866e-02</internalNodes>
          <leafValues>
            -7.4315196275711060e-01 3.3864162862300873e-02</leafValues></_>
        <_>
          <internalNodes>
            0 -1 384 -3.5895062610507011e-03</internalNodes>
          <leafValues>
            2.3874978721141815e-01 -1.0422317683696747e-01</leafValues></_>
        <_>
          <internalNodes>
            0 -1 449 1.3514442252926528e-04</internalNodes>
          <leafValues>
            -1.2957012653350830e-01 1.8643203377723694e-01</leafValues></_>
        <_>
          <internalNodes>
            0 -1 127 -1.8194463849067688e-01</internalNodes>
          <leafValues>
            6.2873435020446777e-01 -3.7776239216327667e-02</leafValues></_>
        <_>
          <internalNodes>
            0 -1 130 -5.9451805427670479e-03</internalNodes>
          <leafValues>
            2.9760575294494629e-01 -7.8714549541473389e-02</leafValues></_>
        <_>
          <internalNodes>
            0 -1 194 1.3706898316740990e-02</internalNodes>
          <leafValues>
            -7.5904533267021179e-02 3.7714034318923950e-01</leafValues></_>
        <_>
          <internalNodes>
            0 -1 293 -1.0811829997692257e-04</internalNodes>
          <leafValues>
            1.4004248380661011e-01 -1.7266225814819336e-01</leafValues></_>
        <_>
          <internalNodes>
            0 -1 340 -1.0403725318610668e-03</internalNodes>
          <leafValues>
            -2.5140103697776794e-01 1.0685816407203674e-01</leafValues></_>
        <_>
          <internalNodes>
            0 -1 548 -6.2933759763836861e-03</internalNodes>
          <leafValues>
            6.4557462930679321e-01 -4.6599935740232468e-02</leafValues></_>
        <_>
          <internalNodes>
            0 -1 93 -2.9042027890682220e-03</internalNodes>
          <leafValues>
            2.7534973621368408e-01 -9.1843098402023315e-02</leafValues></_>
        <_>
          <internalNodes>
            0 -1 405 1.5487924218177795e-02</internalNodes>
          <leafValues>
            -7.5094595551490784e-02 3.3662381768226624e-01</leafValues></_>
        <_>
          <internalNodes>
            0 -1 357 -3.7931539118289948e-03</internalNodes>
          <leafValues>
            3.1763789057731628e-01 -7.8633852303028107e-02</leafValues></_></weakClassifiers></_>
    <!-- stage 8 -->
    <_>
      <maxWeakCount>56</maxWeakCount>
      <stageThreshold>-8.1411409378051758e-01</stageThreshold>
      <weakClassifiers>
        <_>
          <internalNodes>
            0 -1 95 -1.1977507174015045e-01</internalNodes>
          <leafValues>
            3.6936935782432556e-01 -2.9986962676048279e-02</leafValues></_>
        <_>
          <internalNodes>
            0 -1 171 2.2707828879356384e-01</internalNodes>
          <leafValues>
            -6.9301575422286987e-02 3.9195328950881958e-01</leafValues></_>
        <_>
          <internalNodes>
            0 -1 117 -2.7945247711613774e-04</internalNodes>
          <leafValues>
            -2.3600083589553833e-01 1.1912305653095245e-01</leafValues></_>
        <_>
          <internalNodes>
            0 -1 212 6.1435876414179802e-03</internalNodes>
          <leafValues>
            4.9964994192123413e-02 -5.3851801156997681e-01</leafValues></_>
        <_>
          <internalNodes>
            0 -1 249 -1.0582630056887865e-03</internalNodes>
          <leafValues>
            5.0767022371292114e-01 -5.1543753594160080e-02</leafValues></_>
        <_>
          <internalNodes>
            0 -1 480 1.3565961271524429e-03</internalNodes>
          <leafValues>
            6.7864939570426941e-02 -3.1374710798263550e-01</leafValues></_>
        <_>
          <internalNodes>
            0 -1 408 -5.0703946501016617e-02</internalNodes>
          <leafValues>
            3.6448949575424194e-01 -5.2938777953386307e-02</leafValues></_>
        <_>
          <internalNodes>
            0 -1 330 5.2366316318511963e-02</internalNodes>
          <leafValues>
            6.1149753630161285e-02 -3.5194623470306396e-01</leafValues></_>
        <_>
          <internalNodes>
            0 -1 62 3.5469777882099152e-02</internalNodes>
          <leafValues>
            6.4795747399330139e-02 -6.2880808115005493e-01</leafValues></_>
        <_>
          <internalNodes>
            0 -1 377 6.5680574625730515e-03</internalNodes>
          <leafValues>
            -8.9367814362049103e-02 2.8574120998382568e-01</leafValues></_>
        <_>
          <internalNodes>
            0 -1 385 -3.8609225302934647e-02</internalNodes>
          <leafValues>
            5.2258759737014771e-01 -5.9299483895301819e-02</leafValues></_>
        <_>
          <internalNodes>
            0 -1 106 -5.6323707103729248e-03</internalNodes>
          <leafValues>
            -6.0467225313186646e-01 4.1999757289886475e-02</leafValues></_>
        <_>
          <internalNodes>
            0 -1 586 3.0326399952173233e-02</internalNodes>
          <leafValues>
            -7.6682105660438538e-02 3.0425083637237549e-01</leafValues></_>
        <_>
          <internalNodes>
            0 -1 607 4.4908411800861359e-03</internalNodes>
          <leafValues>
            -1.1607383936643600e-01 2.6798802614212036e-01</leafValues></_>
        <_>
          <internalNodes>
            0 -1 686 2.8956399182789028e-04</internalNodes>
          <leafValues>
            5.8853954076766968e-02 -4.1384625434875488e-01</leafValues></_>
        <_>
          <internalNodes>
            0 -1 305 1.3603787010652013e-05</internalNodes>
          <leafValues>
            -1.6612438857555389e-01 1.5881924331188202e-01</leafValues></_>
        <_>
          <internalNodes>
            0 -1 211 -5.6026680395007133e-03</internalNodes>
          <leafValues>
            -4.1897672414779663e-01 6.1334989964962006e-02</leafValues></_>
        <_>
          <internalNodes>
            0 -1 636 -1.8677555490285158e-03</internalNodes>
          <leafValues>
            3.9917320013046265e-01 -6.4667358994483948e-02</leafValues></_>
        <_>
          <internalNodes>
            0 -1 317 5.0521571210992988e-06</internalNodes>
          <leafValues>
            -1.5799747407436371e-01 1.5482310950756073e-01</leafValues></_>
        <_>
          <internalNodes>
            0 -1 472 -1.9136928021907806e-02</internalNodes>
          <leafValues>
            -8.3737224340438843e-01 2.6257622987031937e-02</leafValues></_>
        <_>
          <internalNodes>
            0 -1 176 -1.2677785754203796e-01</internalNodes>
          <leafValues>
            -5.6462329626083374e-01 3.4426413476467133e-02</leafValues></_>
        <_>
          <internalNodes>
            0 -1 558 2.0434997975826263e-02</internalNodes>
          <leafValues>
            -3.6937143653631210e-02 7.5414401292800903e-01</leafValues></_>
        <_>
          <internalNodes>
            0 -1 462 -2.3829030396882445e-04</internalNodes>
          <leafValues>
            -4.1826909780502319e-01 6.6596038639545441e-02</leafValues></_>
        <_>
          <internalNodes>
            0 -1 148 -1.9035858567804098e-03</internalNodes>
          <leafValues>
            4.0317502617835999e-01 -6.2802106142044067e-02</leafValues></_>
        <_>
          <internalNodes>
            0 -1 75 1.1729777324944735e-03</internalNodes>
          <leafValues>
            6.6364720463752747e-02 -3.6387690901756287e-01</leafValues></_>
        <_>
          <internalNodes>
            0 -1 14 2.1130421664565802e-03</internalNodes>
          <leafValues>
            -9.2384338378906250e-02 2.5404638051986694e-01</leafValues></_>
        <_>
          <internalNodes>
            0 -1 43 -7.0496893022209406e-04</internalNodes>
          <leafValues>
            2.2466927766799927e-01 -1.0964451730251312e-01</leafValues></_>
        <_>
          <internalNodes>
            0 -1 146 -4.6525619109161198e-04</internalNodes>
          <leafValues>
            1.7171156406402588e-01 -1.4615775644779205e-01</leafValues></_>
        <_>
          <internalNodes>
            0 -1 681 1.6074310406111181e-04</internalNodes>
          <leafValues>
            7.4369408190250397e-02 -3.2440865039825439e-01</leafValues></_>
        <_>
          <internalNodes>
            0 -1 489 7.1663595736026764e-04</internalNodes>
          <leafValues>
            -1.1413159221410751e-01 2.0005565881729126e-01</leafValues></_>
        <_>
          <internalNodes>
            0 -1 207 -1.9542442169040442e-04</internalNodes>
          <leafValues>
            1.6441909968852997e-01 -1.3461020588874817e-01</leafValues></_>
        <_>
          <internalNodes>
            0 -1 536 4.6072332188487053e-03</internalNodes>
          <leafValues>
            4.0757026523351669e-02 -5.6329041719436646e-01</leafValues></_>
        <_>
          <internalNodes>
            0 -1 582 9.0822641504928470e-04</internalNodes>
          <leafValues>
            -1.0657283663749695e-01 2.3393613100051880e-01</leafValues></_>
        <_>
          <internalNodes>
            0 -1 78 2.2800929844379425e-02</internalNodes>
          <leafValues>
            -8.8294297456741333e-02 2.7313655614852905e-01</leafValues></_>
        <_>
          <internalNodes>
            0 -1 551 1.1224301852053031e-04</internalNodes>
          <leafValues>
            1.1362940818071365e-01 -2.0487354695796967e-01</leafValues></_>
        <_>
          <internalNodes>
            0 -1 342 5.4313078522682190e-02</internalNodes>
          <leafValues>
            -4.4342853128910065e-02 5.6423920392990112e-01</leafValues></_>
        <_>
          <internalNodes>
            0 -1 280 -1.4612963423132896e-03</internalNodes>
          <leafValues>
            2.6624271273612976e-01 -8.1678897142410278e-02</leafValues></_>
        <_>
          <internalNodes>
            0 -1 445 3.8899106439203024e-03</internalNodes>
          <leafValues>
            5.8331031352281570e-02 -4.2058402299880981e-01</leafValues></_>
        <_>
          <internalNodes>
            0 -1 390 -2.1771277533844113e-04</internalNodes>
          <leafValues>
            1.1768966168165207e-01 -1.9861604273319244e-01</leafValues></_>
        <_>
          <internalNodes>
            0 -1 289 1.9342061132192612e-02</internalNodes>
          <leafValues>
            -3.2856218516826630e-02 6.4871215820312500e-01</leafValues></_>
        <_>
          <internalNodes>
            0 -1 57 1.3107270933687687e-04</internalNodes>
          <leafValues>
            -1.3323913514614105e-01 1.8623802065849304e-01</leafValues></_>
        <_>
          <internalNodes>
            0 -1 415 2.3953830532263964e-04</internalNodes>
          <leafValues>
            9.8449610173702240e-02 -2.5518625974655151e-01</leafValues></_>
        <_>
          <internalNodes>
            0 -1 402 1.0862273629754782e-03</internalNodes>
          <leafValues>
            -1.0996090620756149e-01 2.0515397191047668e-01</leafValues></_>
        <_>
          <internalNodes>
            0 -1 514 -1.3972790911793709e-03</internalNodes>
          <leafValues>
            2.0404240489006042e-01 -1.2432605028152466e-01</leafValues></_>
        <_>
          <internalNodes>
            0 -1 460 8.4619866684079170e-03</internalNodes>
          <leafValues>
            -1.3499192893505096e-01 2.2422988712787628e-01</leafValues></_>
        <_>
          <internalNodes>
            0 -1 649 9.0111969038844109e-03</internalNodes>
          <leafValues>
            -8.7551258504390717e-02 3.0360183119773865e-01</leafValues></_>
        <_>
          <internalNodes>
            0 -1 172 -8.1248637288808823e-03</internalNodes>
          <leafValues>
            2.4860574305057526e-01 -9.7259260714054108e-02</leafValues></_>
        <_>
          <internalNodes>
            0 -1 170 -2.7076659724116325e-02</internalNodes>
          <leafValues>
            -6.8422174453735352e-01 3.8588188588619232e-02</leafValues></_>
        <_>
          <internalNodes>
            0 -1 410 -3.5757727921009064e-02</internalNodes>
          <leafValues>
            9.0903848409652710e-01 -3.4147139638662338e-02</leafValues></_>
        <_>
          <internalNodes>
            0 -1 457 -7.8415859024971724e-04</internalNodes>
          <leafValues>
            -4.2985495924949646e-01 6.3210219144821167e-02</leafValues></_>
        <_>
          <internalNodes>
            0 -1 19 -2.7454967494122684e-05</internalNodes>
          <leafValues>
            -1.9892553985118866e-01 1.0990406572818756e-01</leafValues></_>
        <_>
          <internalNodes>
            0 -1 470 2.9204664751887321e-03</internalNodes>
          <leafValues>
            -6.6926538944244385e-02 3.4389600157737732e-01</leafValues></_>
        <_>
          <internalNodes>
            0 -1 655 -5.7841338275466114e-05</internalNodes>
          <leafValues>
            -2.6121604442596436e-01 9.3635469675064087e-02</leafValues></_>
        <_>
          <internalNodes>
            0 -1 435 -8.7025534594431520e-04</internalNodes>
          <leafValues>
            2.0534956455230713e-01 -1.1778647452592850e-01</leafValues></_>
        <_>
          <internalNodes>
            0 -1 181 -7.8928368166089058e-03</internalNodes>
          <leafValues>
            2.1918240189552307e-01 -1.2896890938282013e-01</leafValues></_>
        <_>
          <internalNodes>
            0 -1 345 -4.0368758141994476e-02</internalNodes>
          <leafValues>
            -7.4055075645446777e-01 3.6305584013462067e-02</leafValues></_></weakClassifiers></_>
    <!-- stage 9 -->
    <_>
      <maxWeakCount>57</maxWeakCount>
      <stageThreshold>-8.0566257238388062e-01</stageThreshold>
      <weakClassifiers>
        <_>
          <internalNodes>
            0 -1 66 1.2124571949243546e-02</internalNodes>
          <leafValues>
            4.6376813203096390e-02 8.0000001192092896e-01</leafValues></_>
        <_>
          <internalNodes>
            0 -1 604 -1.8885651603341103e-02</internalNodes>
          <leafValues>
            2.9905384778976440e-01 -1.1547118425369263e-01</leafValues></_>
        <_>
          <internalNodes>
            0 -1 160 -5.2429147064685822e-02</internalNodes>
          <leafValues>
            3.9448747038841248e-01 -8.2754954695701599e-02</leafValues></_>
        <_>
          <internalNodes>
            0 -1 563 -2.7935681864619255e-03</internalNodes>
          <leafValues>
            3.8474205136299133e-01 -7.0708699524402618e-02</leafValues></_>
        <_>
          <internalNodes>
            0 -1 138 -3.5834956169128418e-01</internalNodes>
          <leafValues>
            4.6705117821693420e-01 -6.0398574918508530e-02</leafValues></_>
        <_>
          <internalNodes>
            0 -1 37 -1.9436471164226532e-02</internalNodes>
          <leafValues>
            3.0320149660110474e-01 -7.7615842223167419e-02</leafValues></_>
        <_>
          <internalNodes>
            0 -1 542 2.6397034525871277e-04</internalNodes>
          <leafValues>
            6.5876752138137817e-02 -3.4997355937957764e-01</leafValues></_>
        <_>
          <internalNodes>
            0 -1 154 1.5700181946158409e-02</internalNodes>
          <leafValues>
            9.4773456454277039e-02 -6.5968126058578491e-01</leafValues></_>
        <_>
          <internalNodes>
            0 -1 129 -7.8558683162555099e-04</internalNodes>
          <leafValues>
            3.2363286614418030e-01 -1.0909170657396317e-01</leafValues></_>
        <_>
          <internalNodes>
            0 -1 456 9.3599825049750507e-05</internalNodes>
          <leafValues>
            1.1924456804990768e-01 -1.8143194913864136e-01</leafValues></_>
        <_>
          <internalNodes>
            0 -1 412 -3.1876628054305911e-04</internalNodes>
          <leafValues>
            -2.1159893274307251e-01 1.1125514656305313e-01</leafValues></_>
        <_>
          <internalNodes>
            0 -1 455 1.8996693193912506e-02</internalNodes>
          <leafValues>
            -1.0001089423894882e-01 2.5625228881835938e-01</leafValues></_>
        <_>
          <internalNodes>
            0 -1 585 -3.5088296979665756e-02</internalNodes>
          <leafValues>
            2.8331914544105530e-01 -8.8201291859149933e-02</leafValues></_>
        <_>
          <internalNodes>
            0 -1 424 -3.0250005424022675e-02</internalNodes>
          <leafValues>
            2.5134402513504028e-01 -1.0490056872367859e-01</leafValues></_>
        <_>
          <internalNodes>
            0 -1 441 1.9327388145029545e-03</internalNodes>
          <leafValues>
            7.6717339456081390e-02 -2.9684323072433472e-01</leafValues></_>
        <_>
          <internalNodes>
            0 -1 85 -7.7873945236206055e-02</internalNodes>
          <leafValues>
            2.4325852096080780e-01 -9.1798506677150726e-02</leafValues></_>
        <_>
          <internalNodes>
            0 -1 337 7.3042197618633509e-04</internalNodes>
          <leafValues>
            1.1688908934593201e-01 -1.9446349143981934e-01</leafValues></_>
        <_>
          <internalNodes>
            0 -1 521 5.9608924202620983e-03</internalNodes>
          <leafValues>
            -3.8536511361598969e-02 6.9120371341705322e-01</leafValues></_>
        <_>
          <internalNodes>
            0 -1 237 3.2213054597377777e-02</internalNodes>
          <leafValues>
            -6.4614385366439819e-02 3.1750550866127014e-01</leafValues></_>
        <_>
          <internalNodes>
            0 -1 251 -1.7249736934900284e-02</internalNodes>
          <leafValues>
            2.3116055130958557e-01 -1.0729458183050156e-01</leafValues></_>
        <_>
          <internalNodes>
            0 -1 507 -6.7193897848483175e-05</internalNodes>
          <leafValues>
            1.1545740813016891e-01 -1.8764953315258026e-01</leafValues></_>
        <_>
          <internalNodes>
            0 -1 114 -1.0803602344822139e-04</internalNodes>
          <leafValues>
            -2.4546799063682556e-01 9.6643395721912384e-02</leafValues></_>
        <_>
          <internalNodes>
            0 -1 222 -3.6102063022553921e-03</internalNodes>
          <leafValues>
            2.8050065040588379e-01 -9.2744678258895874e-02</leafValues></_>
        <_>
          <internalNodes>
            0 -1 576 -4.4281923328526318e-04</internalNodes>
          <leafValues>
            2.3276165127754211e-01 -1.0822287201881409e-01</leafValues></_>
        <_>
          <internalNodes>
            0 -1 443 3.2333290437236428e-04</internalNodes>
          <leafValues>
            9.0413920581340790e-02 -2.9587721824645996e-01</leafValues></_>
        <_>
          <internalNodes>
            0 -1 301 -1.6398659348487854e-01</internalNodes>
          <leafValues>
            2.5286898016929626e-01 -9.6898756921291351e-02</leafValues></_>
        <_>
          <internalNodes>
            0 -1 186 2.2665122523903847e-03</internalNodes>
          <leafValues>
            -2.2073596715927124e-02 7.7048730850219727e-01</leafValues></_>
        <_>
          <internalNodes>
            0 -1 35 1.9268200267106295e-03</internalNodes>
          <leafValues>
            -8.8834643363952637e-02 2.6231247186660767e-01</leafValues></_>
        <_>
          <internalNodes>
            0 -1 12 1.6830262029543519e-04</internalNodes>
          <leafValues>
            6.4409144222736359e-02 -3.7868994474411011e-01</leafValues></_>
        <_>
          <internalNodes>
            0 -1 637 -2.0366562530398369e-03</internalNodes>
          <leafValues>
            2.1597847342491150e-01 -1.0329302400350571e-01</leafValues></_>
        <_>
          <internalNodes>
            0 -1 159 2.5659475475549698e-02</internalNodes>
          <leafValues>
            3.4455664455890656e-02 -6.3601857423782349e-01</leafValues></_>
        <_>
          <internalNodes>
            0 -1 98 4.6080322936177254e-03</internalNodes>
          <leafValues>
            -7.6401397585868835e-02 3.1484553217887878e-01</leafValues></_>
        <_>
          <internalNodes>
            0 -1 156 -7.5055751949548721e-05</internalNodes>
          <leafValues>
            -2.3209618031978607e-01 1.1267350614070892e-01</leafValues></_>
        <_>
          <internalNodes>
            0 -1 674 -1.3504138914868236e-03</internalNodes>
          <leafValues>
            4.0135633945465088e-01 -5.9081319719552994e-02</leafValues></_>
        <_>
          <internalNodes>
            0 -1 670 -1.1294051073491573e-03</internalNodes>
          <leafValues>
            -6.5915632247924805e-01 4.0660806000232697e-02</leafValues></_>
        <_>
          <internalNodes>
            0 -1 292 1.8823709338903427e-02</internalNodes>
          <leafValues>
            -7.3712453246116638e-02 3.8713756203651428e-01</leafValues></_>
        <_>
          <internalNodes>
            0 -1 90 1.8435862660408020e-01</internalNodes>
          <leafValues>
            -6.2629953026771545e-02 3.8637605309486389e-01</leafValues></_>
        <_>
          <internalNodes>
            0 -1 669 1.3225520960986614e-03</internalNodes>
          <leafValues>
            -1.0390716791152954e-01 2.4069929122924805e-01</leafValues></_>
        <_>
          <internalNodes>
            0 -1 573 -2.3526298173237592e-04</internalNodes>
          <leafValues>
            -2.2295978665351868e-01 9.9926084280014038e-02</leafValues></_>
        <_>
          <internalNodes>
            0 -1 560 1.6216291114687920e-03</internalNodes>
          <leafValues>
            -6.2077172100543976e-02 3.6674824357032776e-01</leafValues></_>
        <_>
          <internalNodes>
            0 -1 397 5.1369448192417622e-04</internalNodes>
          <leafValues>
            9.7216986119747162e-02 -2.4990104138851166e-01</leafValues></_>
        <_>
          <internalNodes>
            0 -1 82 2.6663197204470634e-03</internalNodes>
          <leafValues>
            -5.8074835687875748e-02 4.0340578556060791e-01</leafValues></_>
        <_>
          <internalNodes>
            0 -1 311 2.3404575884342194e-02</internalNodes>
          <leafValues>
            5.0087224692106247e-02 -4.9617516994476318e-01</leafValues></_>
        <_>
          <internalNodes>
            0 -1 434 4.9502803012728691e-03</internalNodes>
          <leafValues>
            -4.2485598474740982e-02 5.2008110284805298e-01</leafValues></_>
        <_>
          <internalNodes>
            0 -1 242 -9.9908150732517242e-03</internalNodes>
          <leafValues>
            3.0523106455802917e-01 -7.3331192135810852e-02</leafValues></_>
        <_>
          <internalNodes>
            0 -1 361 -2.0967769622802734e-01</internalNodes>
          <leafValues>
            6.9145792722702026e-01 -3.0563730746507645e-02</leafValues></_>
        <_>
          <internalNodes>
            0 -1 380 -2.4659611284732819e-02</internalNodes>
          <leafValues>
            5.9784436225891113e-01 -2.7893027290701866e-02</leafValues></_>
        <_>
          <internalNodes>
            0 -1 180 -4.1554989293217659e-03</internalNodes>
          <leafValues>
            3.0979490280151367e-01 -7.5161173939704895e-02</leafValues></_>
        <_>
          <internalNodes>
            0 -1 491 -1.3646639883518219e-02</internalNodes>
          <leafValues>
            2.0697765052318573e-01 -1.1240524798631668e-01</leafValues></_>
        <_>
          <internalNodes>
            0 -1 422 3.2769495155662298e-03</internalNodes>
          <leafValues>
            -1.2312147766351700e-01 2.1635109186172485e-01</leafValues></_>
        <_>
          <internalNodes>
            0 -1 656 2.5944376830011606e-03</internalNodes>
          <leafValues>
            -5.9101216495037079e-02 3.8204532861709595e-01</leafValues></_>
        <_>
          <internalNodes>
            0 -1 65 1.6582241281867027e-02</internalNodes>
          <leafValues>
            5.3197208791971207e-02 -5.0594139099121094e-01</leafValues></_>
        <_>
          <internalNodes>
            0 -1 152 -9.3022437067702413e-04</internalNodes>
          <leafValues>
            3.2701236009597778e-01 -7.4659228324890137e-02</leafValues></_>
        <_>
          <internalNodes>
            0 -1 264 -2.7342414250597358e-04</internalNodes>
          <leafValues>
            -2.9452827572822571e-01 9.0393327176570892e-02</leafValues></_>
        <_>
          <internalNodes>
            0 -1 615 1.8221698701381683e-02</internalNodes>
          <leafValues>
            -3.1234044581651688e-02 7.7944153547286987e-01</leafValues></_>
        <_>
          <internalNodes>
            0 -1 252 1.2748419307172298e-02</internalNodes>
          <leafValues>
            -1.4087150990962982e-01 2.0047828555107117e-01</leafValues></_>
        <_>
          <internalNodes>
            0 -1 76 -2.3474276065826416e-01</internalNodes>
          <leafValues>
            5.7241272926330566e-01 -4.6283692121505737e-02</leafValues></_></weakClassifiers></_>
    <!-- stage 10 -->
    <_>
      <maxWeakCount>39</maxWeakCount>
      <stageThreshold>-8.0483770370483398e-01</stageThreshold>
      <weakClassifiers>
        <_>
          <internalNodes>
            0 -1 15 4.2747020721435547e-02</internalNodes>
          <leafValues>
            1.7919670045375824e-01 -5.7364338636398315e-01</leafValues></_>
        <_>
          <internalNodes>
            0 -1 667 -1.5820451080799103e-03</internalNodes>
          <leafValues>
            5.0407624244689941e-01 -9.3756280839443207e-02</leafValues></_>
        <_>
          <internalNodes>
            0 -1 112 1.0910743474960327e-01</internalNodes>
          <leafValues>
            9.0472087264060974e-02 -4.2124399542808533e-01</leafValues></_>
        <_>
          <internalNodes>
            0 -1 246 2.6978694950230420e-04</internalNodes>
          <leafValues>
            1.3095028698444366e-01 -2.7834975719451904e-01</leafValues></_>
        <_>
          <internalNodes>
            0 -1 600 -6.3327461248263717e-04</internalNodes>
          <leafValues>
            5.9688752889633179e-01 -8.0841764807701111e-02</leafValues></_>
        <_>
          <internalNodes>
            0 -1 360 -8.2163134356960654e-04</internalNodes>
          <leafValues>
            3.7977123260498047e-01 -5.4543055593967438e-02</leafValues></_>
        <_>
          <internalNodes>
            0 -1 261 -1.4490680769085884e-04</internalNodes>
          <leafValues>
            -2.5309464335441589e-01 1.1219227313995361e-01</leafValues></_>
        <_>
          <internalNodes>
            0 -1 358 -5.3014344302937388e-05</internalNodes>
          <leafValues>
            2.5526523590087891e-01 -1.1414974182844162e-01</leafValues></_>
        <_>
          <internalNodes>
            0 -1 526 2.2911984706297517e-04</internalNodes>
          <leafValues>
            1.1871404945850372e-01 -2.4703726172447205e-01</leafValues></_>
        <_>
          <internalNodes>
            0 -1 677 -7.8845955431461334e-04</internalNodes>
          <leafValues>
            4.6947833895683289e-01 -5.7822868227958679e-02</leafValues></_>
        <_>
          <internalNodes>
            0 -1 350 -2.5820231530815363e-03</internalNodes>
          <leafValues>
            5.9350001811981201e-01 -4.0329944342374802e-02</leafValues></_>
        <_>
          <internalNodes>
            0 -1 459 7.9875299707055092e-04</internalNodes>
          <leafValues>
            1.1715964972972870e-01 -2.5547179579734802e-01</leafValues></_>
        <_>
          <internalNodes>
            0 -1 417 -8.2257014582864940e-05</internalNodes>
          <leafValues>
            -2.6180189847946167e-01 1.1488518118858337e-01</leafValues></_>
        <_>
          <internalNodes>
            0 -1 287 2.6568353641778231e-03</internalNodes>
          <leafValues>
            -3.9122354239225388e-02 6.4312028884887695e-01</leafValues></_>
        <_>
          <internalNodes>
            0 -1 618 6.7920031142421067e-05</internalNodes>
          <leafValues>
            -9.7409151494503021e-02 2.7707514166831970e-01</leafValues></_>
        <_>
          <internalNodes>
            0 -1 689 1.7033968470059335e-04</internalNodes>
          <leafValues>
            6.5361313521862030e-02 -4.0054467320442200e-01</leafValues></_>
        <_>
          <internalNodes>
            0 -1 202 -3.1276574730873108e-01</internalNodes>
          <leafValues>
            -7.6998913288116455e-01 4.0675982832908630e-02</leafValues></_>
        <_>
          <internalNodes>
            0 -1 601 7.0826697628945112e-04</internalNodes>
          <leafValues>
            1.4628686010837555e-01 -1.8615436553955078e-01</leafValues></_>
        <_>
          <internalNodes>
            0 -1 524 -2.2087864577770233e-02</internalNodes>
          <leafValues>
            5.0302094221115112e-01 -6.2003612518310547e-02</leafValues></_>
        <_>
          <internalNodes>
            0 -1 452 1.0679662227630615e-03</internalNodes>
          <leafValues>
            -6.7598551511764526e-02 4.2283254861831665e-01</leafValues></_>
        <_>
          <internalNodes>
            0 -1 461 1.0098116945300717e-05</internalNodes>
          <leafValues>
            -1.4673349261283875e-01 1.9799444079399109e-01</leafValues></_>
        <_>
          <internalNodes>
            0 -1 143 -2.7264673262834549e-02</internalNodes>
          <leafValues>
            -4.6609866619110107e-01 6.2933616340160370e-02</leafValues></_>
        <_>
          <internalNodes>
            0 -1 673 4.0330709889531136e-03</internalNodes>
          <leafValues>
            -7.0543669164180756e-02 4.3018984794616699e-01</leafValues></_>
        <_>
          <internalNodes>
            0 -1 275 -1.8938545836135745e-03</internalNodes>
          <leafValues>
            4.5504209399223328e-01 -5.1501542329788208e-02</leafValues></_>
        <_>
          <internalNodes>
            0 -1 359 -2.1503567695617676e-02</internalNodes>
          <leafValues>
            -3.8012379407882690e-01 8.0560959875583649e-02</leafValues></_>
        <_>
          <internalNodes>
            0 -1 608 -4.0751334745436907e-04</internalNodes>
          <leafValues>
            -3.1296542286872864e-01 7.7459432184696198e-02</leafValues></_>
        <_>
          <internalNodes>
            0 -1 187 1.2855478562414646e-03</internalNodes>
          <leafValues>
            -5.6100971996784210e-02 4.7569882869720459e-01</leafValues></_>
        <_>
          <internalNodes>
            0 -1 578 3.5641685826703906e-04</internalNodes>
          <leafValues>
            1.0374181717634201e-01 -2.8143936395645142e-01</leafValues></_>
        <_>
          <internalNodes>
            0 -1 602 1.2681384105235338e-03</internalNodes>
          <leafValues>
            -7.2688020765781403e-02 3.6344015598297119e-01</leafValues></_>
        <_>
          <internalNodes>
            0 -1 219 3.8880765438079834e-02</internalNodes>
          <leafValues>
            6.8988174200057983e-02 -3.8576611876487732e-01</leafValues></_>
        <_>
          <internalNodes>
            0 -1 370 -1.3860685285180807e-03</internalNodes>
          <leafValues>
            4.6460378170013428e-01 -6.1058655381202698e-02</leafValues></_>
        <_>
          <internalNodes>
            0 -1 290 -1.3546130619943142e-02</internalNodes>
          <leafValues>
            7.2829562425613403e-01 -3.6911115050315857e-02</leafValues></_>
        <_>
          <internalNodes>
            0 -1 209 -5.4989615455269814e-03</internalNodes>
          <leafValues>
            -1.8407049775123596e-01 1.4533528685569763e-01</leafValues></_>
        <_>
          <internalNodes>
            0 -1 527 3.1661647371947765e-03</internalNodes>
          <leafValues>
            -5.1945850253105164e-02 5.1869791746139526e-01</leafValues></_>
        <_>
          <internalNodes>
            0 -1 83 4.3731156736612320e-02</internalNodes>
          <leafValues>
            6.6713899374008179e-02 -4.4304281473159790e-01</leafValues></_>
        <_>
          <internalNodes>
            0 -1 395 -1.8282553646713495e-03</internalNodes>
          <leafValues>
            -3.4479349851608276e-01 7.4296139180660248e-02</leafValues></_>
        <_>
          <internalNodes>
            0 -1 399 5.9996680356562138e-03</internalNodes>
          <leafValues>
            -1.1884745955467224e-01 2.4803984165191650e-01</leafValues></_>
        <_>
          <internalNodes>
            0 -1 428 -1.7375538591295481e-03</internalNodes>
          <leafValues>
            3.2902920246124268e-01 -1.0882756114006042e-01</leafValues></_>
        <_>
          <internalNodes>
            0 -1 59 5.2296146750450134e-03</internalNodes>
          <leafValues>
            -3.6141641438007355e-02 6.3745707273483276e-01</leafValues></_></weakClassifiers></_>
    <!-- stage 11 -->
    <_>
      <maxWeakCount>83</maxWeakCount>
      <stageThreshold>-7.0615839958190918e-01</stageThreshold>
      <weakClassifiers>
        <_>
          <internalNodes>
            0 -1 67 2.1607495844364166e-02</internalNodes>
          <leafValues>
            5.1059730350971222e-02 7.5806450843811035e-01</leafValues></_>
        <_>
          <internalNodes>
            0 -1 161 -6.1917481943964958e-03</internalNodes>
          <leafValues>
            -5.6216847896575928e-01 3.6695711314678192e-02</leafValues></_>
        <_>
          <internalNodes>
            0 -1 161 -6.1407471075654030e-03</internalNodes>
          <leafValues>
            8.1173545122146606e-01 -1.8937352579087019e-03</leafValues></_>
        <_>
          <internalNodes>
            0 -1 161 -5.9859417378902435e-03</internalNodes>
          <leafValues>
            -1. 2.2776124533265829e-03</leafValues></_>
        <_>
          <internalNodes>
            0 -1 161 -5.9317750856280327e-03</internalNodes>
          <leafValues>
            8.6760163307189941e-01 -4.7869401169009507e-04</leafValues></_>
        <_>
          <internalNodes>
            0 -1 161 -5.8971242979168892e-03</internalNodes>
          <leafValues>
            -1. 5.7102937716990709e-04</leafValues></_>
        <_>
          <internalNodes>
            0 -1 161 -5.7080304250121117e-03</internalNodes>
          <leafValues>
            1. -9.5877272542566061e-04</leafValues></_>
        <_>
          <internalNodes>
            0 -1 161 -5.6487047113478184e-03</internalNodes>
          <leafValues>
            -1. 1.1440183734521270e-03</leafValues></_>
        <_>
          <internalNodes>
            0 -1 161 -5.3601595573127270e-03</internalNodes>
          <leafValues>
            9.7720009088516235e-01 -3.6749783903360367e-03</leafValues></_>
        <_>
          <internalNodes>
            0 -1 161 -5.3302017040550709e-03</internalNodes>
          <leafValues>
            -1. 1.7248913645744324e-03</leafValues></_>
        <_>
          <internalNodes>
            0 -1 161 -5.2356719970703125e-03</internalNodes>
          <leafValues>
            9.7850710153579712e-01 -1.4556023525074124e-03</leafValues></_>
        <_>
          <internalNodes>
            0 -1 161 -5.0046956166625023e-03</internalNodes>
          <leafValues>
            -9.8922216892242432e-01 1.8230272689834237e-03</leafValues></_>
        <_>
          <internalNodes>
            0 -1 161 -4.9550747498869896e-03</internalNodes>
          <leafValues>
            9.7975999116897583e-01 -9.7370782168582082e-04</leafValues></_>
        <_>
          <internalNodes>
            0 -1 161 -4.8896865919232368e-03</internalNodes>
          <leafValues>
            -9.8915731906890869e-01 1.1585983447730541e-03</leafValues></_>
        <_>
          <internalNodes>
            0 -1 161 -4.7645554877817631e-03</internalNodes>
          <leafValues>
            9.8069208860397339e-01 -1.9531245343387127e-03</leafValues></_>
        <_>
          <internalNodes>
            0 -1 161 -4.8399614170193672e-03</internalNodes>
          <leafValues>
            -9.8897325992584229e-01 -2.4835267176115394e-09</leafValues></_>
        <_>
          <internalNodes>
            0 -1 161 -4.8051504418253899e-03</internalNodes>
          <leafValues>
            9.8084425926208496e-01 -5.1437731671429270e-15</leafValues></_>
        <_>
          <internalNodes>
            0 -1 161 -4.8399614170193672e-03</internalNodes>
          <leafValues>
            -9.8879349231719971e-01 1.2198177589341935e-15</leafValues></_>
        <_>
          <internalNodes>
            0 -1 161 -4.8051504418253899e-03</internalNodes>
          <leafValues>
            9.8114353418350220e-01 -1.3991776419658257e-14</leafValues></_>
        <_>
          <internalNodes>
            0 -1 161 -4.8399614170193672e-03</internalNodes>
          <leafValues>
            -9.8862171173095703e-01 6.6016062313435132e-15</leafValues></_>
        <_>
          <internalNodes>
            0 -1 161 -4.8051504418253899e-03</internalNodes>
          <leafValues>
            9.8142087459564209e-01 6.8827237610430067e-15</leafValues></_>
        <_>
          <internalNodes>
            0 -1 163 -5.2788434550166130e-03</internalNodes>
          <leafValues>
            -5.7171815633773804e-01 6.7349630407989025e-03</leafValues></_>
        <_>
          <internalNodes>
            0 -1 162 -5.1568672060966492e-03</internalNodes>
          <leafValues>
            8.0823713541030884e-01 -3.7365951575338840e-03</leafValues></_>
        <_>
          <internalNodes>
            0 -1 197 -5.0979461520910263e-03</internalNodes>
          <leafValues>
            -9.9198567867279053e-01 2.6819510385394096e-03</leafValues></_>
        <_>
          <internalNodes>
            0 -1 197 -4.7735297121107578e-03</internalNodes>
          <leafValues>
            8.6251926422119141e-01 -2.9483891557902098e-03</leafValues></_>
        <_>
          <internalNodes>
            0 -1 197 -4.7471979632973671e-03</internalNodes>
          <leafValues>
            -9.8169678449630737e-01 7.1478582685813308e-04</leafValues></_>
        <_>
          <internalNodes>
            0 -1 197 -4.7068670392036438e-03</internalNodes>
          <leafValues>
            8.9829689264297485e-01 -5.2183627849444747e-04</leafValues></_>
        <_>
          <internalNodes>
            0 -1 132 -4.2703757062554359e-03</internalNodes>
          <leafValues>
            -6.2647575139999390e-01 7.2677456773817539e-03</leafValues></_>
        <_>
          <internalNodes>
            0 -1 131 -2.3123428691178560e-03</internalNodes>
          <leafValues>
            5.6502532958984375e-01 -3.7133134901523590e-02</leafValues></_>
        <_>
          <internalNodes>
            0 -1 196 -3.3809016458690166e-03</internalNodes>
          <leafValues>
            -5.6253373622894287e-01 1.1826185509562492e-03</leafValues></_>
        <_>
          <internalNodes>
            0 -1 77 -5.0148916244506836e-01</internalNodes>
          <leafValues>
            6.0448426008224487e-01 -3.2985232770442963e-02</leafValues></_>
        <_>
          <internalNodes>
            0 -1 101 -8.5940095596015453e-04</internalNodes>
          <leafValues>
            3.4708407521247864e-01 -7.5944803655147552e-02</leafValues></_>
        <_>
          <internalNodes>
            0 -1 234 -5.4591158404946327e-03</internalNodes>
          <leafValues>
            5.9694904088973999e-01 -1.5179496258497238e-02</leafValues></_>
        <_>
          <internalNodes>
            0 -1 108 -1.0471651330590248e-02</internalNodes>
          <leafValues>
            -8.1658911705017090e-01 -1.0623672977089882e-02</leafValues></_>
        <_>
          <internalNodes>
            0 -1 198 5.6565664708614349e-03</internalNodes>
          <leafValues>
            4.7110142186284065e-03 9.2582315206527710e-01</leafValues></_>
        <_>
          <internalNodes>
            0 -1 86 -3.6075902171432972e-03</internalNodes>
          <leafValues>
            3.0926737189292908e-01 -8.0424480140209198e-02</leafValues></_>
        <_>
          <internalNodes>
            0 -1 546 -8.8254652917385101e-02</internalNodes>
          <leafValues>
            3.6416327953338623e-01 -5.6866608560085297e-02</leafValues></_>
        <_>
          <internalNodes>
            0 -1 258 -3.4666827414184809e-03</internalNodes>
          <leafValues>
            7.3432075977325439e-01 -3.3549934625625610e-02</leafValues></_>
        <_>
          <internalNodes>
            0 -1 468 2.0545145869255066e-01</internalNodes>
          <leafValues>
            -6.7865565419197083e-02 2.8575149178504944e-01</leafValues></_>
        <_>
          <internalNodes>
            0 -1 351 7.4987754225730896e-02</internalNodes>
          <leafValues>
            -2.7887465432286263e-02 7.4277490377426147e-01</leafValues></_>
        <_>
          <internalNodes>
            0 -1 368 6.5522268414497375e-04</internalNodes>
          <leafValues>
            1.0894799232482910e-01 -2.8204783797264099e-01</leafValues></_>
        <_>
          <internalNodes>
            0 -1 569 4.8463027924299240e-03</internalNodes>
          <leafValues>
            -1.0442072898149490e-01 2.2606714069843292e-01</leafValues></_>
        <_>
          <internalNodes>
            0 -1 175 -3.1996986363083124e-03</internalNodes>
          <leafValues>
            3.1004956364631653e-01 -7.0894561707973480e-02</leafValues></_>
        <_>
          <internalNodes>
            0 -1 307 -3.5135570913553238e-02</internalNodes>
          <leafValues>
            -7.2068268060684204e-01 3.2855160534381866e-02</leafValues></_>
        <_>
          <internalNodes>
            0 -1 519 4.8338081687688828e-03</internalNodes>
          <leafValues>
            -3.5763729363679886e-02 6.7409855127334595e-01</leafValues></_>
        <_>
          <internalNodes>
            0 -1 495 4.8575484470347874e-06</internalNodes>
          <leafValues>
            -1.2590019404888153e-01 1.5008746087551117e-01</leafValues></_>
        <_>
          <internalNodes>
            0 -1 10 -3.5106402356177568e-03</internalNodes>
          <leafValues>
            1.8475066125392914e-01 -1.0924422740936279e-01</leafValues></_>
        <_>
          <internalNodes>
            0 -1 640 3.4116097958758473e-04</internalNodes>
          <leafValues>
            2.2842714563012123e-02 -6.2535220384597778e-01</leafValues></_>
        <_>
          <internalNodes>
            0 -1 120 1.2031096266582608e-03</internalNodes>
