<?xml version="1.0"?>
<opencv_storage>
<cascade>
  <stageType>BOOST</stageType>
  <featureType>HAAR</featureType>
  <height>32</height>
  <width>32</width>
  <stageParams>
    <boostType>GAB</boostType>
    <minHitRate>9.9500000476837158e-01</minHitRate>
    <maxFalseAlarm>5.0000000000000000e-01</maxFalseAlarm>
    <weightTrimRate>9.4999998807907104e-01</weightTrimRate>
    <maxDepth>1</maxDepth>
    <maxWeakCount>100</maxWeakCount></stageParams>
  <featureParams>
    <maxCatCount>0</maxCatCount>
    <featSize>1</featSize>
    <mode>BASIC</mode></featureParams>
  <stageNum>15</stageNum>
  <stages>
    <!-- stage 0 -->
    <_>
      <maxWeakCount>7</maxWeakCount>
      <stageThreshold>-1.9116094112396240e+00</stageThreshold>
      <weakClassifiers>
        <_>
          <internalNodes>
            0 -1 79 -1.6489610075950623e-02</internalNodes>
          <leafValues>
            3.6144576966762543e-02 -8.4438037872314453e-01</leafValues></_>
        <_>
          <internalNodes>
            0 -1 81 1.6452252864837646e-02</internalNodes>
          <leafValues>
            -5.5769085884094238e-01 4.0778383612632751e-01</leafValues></_>
        <_>
          <internalNodes>
            0 -1 94 -4.8058112151920795e-03</internalNodes>
          <leafValues>
            5.7256644964218140e-01 -3.4155529737472534e-01</leafValues></_>
        <_>
          <internalNodes>
            0 -1 88 9.4760523643344641e-04</internalNodes>
          <leafValues>
            -3.1584843993186951e-01 5.3701257705688477e-01</leafValues></_>
        <_>
          <internalNodes>
            0 -1 44 1.5337053686380386e-02</internalNodes>
          <leafValues>
            -1.8295498192310333e-01 8.1709372997283936e-01</leafValues></_>
        <_>
          <internalNodes>
            0 -1 91 1.1959791183471680e-02</internalNodes>
          <leafValues>
            -3.1146267056465149e-01 4.6638453006744385e-01</leafValues></_>
        <_>
          <internalNodes>
            0 -1 55 2.6889212429523468e-02</internalNodes>
          <leafValues>
            -2.1057768166065216e-01 7.5385844707489014e-01</leafValues></_></weakClassifiers></_>
    <!-- stage 1 -->
    <_>
      <maxWeakCount>6</maxWeakCount>
      <stageThreshold>-1.6242321729660034e+00</stageThreshold>
      <weakClassifiers>
        <_>
          <internalNodes>
            0 -1 70 9.9588967859745026e-03</internalNodes>
          <leafValues>
            -8.6309522390365601e-01 -5.1724139600992203e-02</leafValues></_>
        <_>
          <internalNodes>
            0 -1 73 -1.1629354208707809e-02</internalNodes>
          <leafValues>
            4.0998247265815735e-01 -5.5850923061370850e-01</leafValues></_>
        <_>
          <internalNodes>
            0 -1 1 1.2916902080178261e-02</internalNodes>
          <leafValues>
            2.4438638985157013e-01 -8.1366610527038574e-01</leafValues></_>
        <_>
          <internalNodes>
            0 -1 77 -2.5384755805134773e-02</internalNodes>
          <leafValues>
            6.0167503356933594e-01 -3.1485837697982788e-01</leafValues></_>
        <_>
          <internalNodes>
            0 -1 40 -2.1370079368352890e-02</internalNodes>
          <leafValues>
            5.6552833318710327e-01 -3.0527570843696594e-01</leafValues></_>
        <_>
          <internalNodes>
            0 -1 64 -4.2007081210613251e-03</internalNodes>
          <leafValues>
            -6.3825112581253052e-01 3.2037359476089478e-01</leafValues></_></weakClassifiers></_>
    <!-- stage 2 -->
    <_>
      <maxWeakCount>6</maxWeakCount>
      <stageThreshold>-1.5138202905654907e+00</stageThreshold>
      <weakClassifiers>
        <_>
          <internalNodes>
            0 -1 98 6.2854140996932983e-03</internalNodes>
          <leafValues>
            -8.4241247177124023e-01 -1.0416666418313980e-01</leafValues></_>
        <_>
          <internalNodes>
            0 -1 122 2.7115829288959503e-02</internalNodes>
          <leafValues>
            -4.8696863651275635e-01 3.7143942713737488e-01</leafValues></_>
        <_>
          <internalNodes>
            0 -1 16 4.0641833038534969e-05</internalNodes>
          <leafValues>
            1.6746419668197632e-01 -8.1950908899307251e-01</leafValues></_>
        <_>
          <internalNodes>
            0 -1 102 5.1597371697425842e-02</internalNodes>
          <leafValues>
            -2.7641469240188599e-01 6.0856860876083374e-01</leafValues></_>
        <_>
          <internalNodes>
            0 -1 135 1.8819596152752638e-03</internalNodes>
          <leafValues>
            3.1788074970245361e-01 -6.0707753896713257e-01</leafValues></_>
        <_>
          <internalNodes>
            0 -1 24 -4.5732222497463226e-02</internalNodes>
          <leafValues>
            7.0048618316650391e-01 -2.6480421423912048e-01</leafValues></_></weakClassifiers></_>
    <!-- stage 3 -->
    <_>
      <maxWeakCount>10</maxWeakCount>
      <stageThreshold>-2.1101412773132324e+00</stageThreshold>
      <weakClassifiers>
        <_>
          <internalNodes>
            0 -1 80 1.3359021395444870e-02</internalNodes>
          <leafValues>
            -8.2846373319625854e-01 4.7619048506021500e-02</leafValues></_>
        <_>
          <internalNodes>
            0 -1 13 -3.6384604754857719e-05</internalNodes>
          <leafValues>
            -8.6960291862487793e-01 -1.0758412629365921e-01</leafValues></_>
        <_>
          <internalNodes>
            0 -1 133 5.6556804338470101e-04</internalNodes>
          <leafValues>
            1.8518678843975067e-01 -6.3986909389495850e-01</leafValues></_>
        <_>
          <internalNodes>
            0 -1 0 1.6402093751821667e-04</internalNodes>
          <leafValues>
            1.6863533854484558e-01 -8.0454260110855103e-01</leafValues></_>
        <_>
          <internalNodes>
            0 -1 132 -1.0938360355794430e-04</internalNodes>
          <leafValues>
            -6.2750977277755737e-01 1.6494782269001007e-01</leafValues></_>
        <_>
          <internalNodes>
            0 -1 104 3.1192577444016933e-03</internalNodes>
          <leafValues>
            -2.1268565952777863e-01 6.2080460786819458e-01</leafValues></_>
        <_>
          <internalNodes>
            0 -1 72 1.0109050199389458e-03</internalNodes>
          <leafValues>
            2.4877811968326569e-01 -4.7066953778266907e-01</leafValues></_>
        <_>
          <internalNodes>
            0 -1 66 -8.1253424286842346e-03</internalNodes>
          <leafValues>
            5.3151911497116089e-01 -2.2545291483402252e-01</leafValues></_>
        <_>
          <internalNodes>
            0 -1 86 4.5265429653227329e-03</internalNodes>
          <leafValues>
            -2.2771775722503662e-01 6.4442843198776245e-01</leafValues></_>
        <_>
          <internalNodes>
            0 -1 61 2.0035365596413612e-03</internalNodes>
          <leafValues>
            2.6871839165687561e-01 -5.3272575139999390e-01</leafValues></_></weakClassifiers></_>
    <!-- stage 4 -->
    <_>
      <maxWeakCount>10</maxWeakCount>
      <stageThreshold>-1.6151604652404785e+00</stageThreshold>
      <weakClassifiers>
        <_>
          <internalNodes>
            0 -1 111 -1.4774678274989128e-02</internalNodes>
          <leafValues>
            -1.6393441706895828e-02 -8.2314205169677734e-01</leafValues></_>
        <_>
          <internalNodes>
            0 -1 25 3.3160530030727386e-02</internalNodes>
          <leafValues>
            -4.2614024877548218e-01 4.7410389780998230e-01</leafValues></_>
        <_>
          <internalNodes>
            0 -1 137 5.6306613259948790e-05</internalNodes>
          <leafValues>
            1.7904056608676910e-01 -6.2999427318572998e-01</leafValues></_>
        <_>
          <internalNodes>
            0 -1 90 7.0456210523843765e-03</internalNodes>
          <leafValues>
            -2.5620993971824646e-01 4.8280349373817444e-01</leafValues></_>
        <_>
          <internalNodes>
            0 -1 96 1.1967944912612438e-02</internalNodes>
          <leafValues>
            -1.8987658619880676e-01 6.0440355539321899e-01</leafValues></_>
        <_>
          <internalNodes>
            0 -1 49 1.5731949359178543e-02</internalNodes>
          <leafValues>
            -9.5924213528633118e-02 7.4163252115249634e-01</leafValues></_>
        <_>
          <internalNodes>
            0 -1 85 7.3407818563282490e-03</internalNodes>
          <leafValues>
            -2.2823801636695862e-01 4.9997559189796448e-01</leafValues></_>
        <_>
          <internalNodes>
            0 -1 53 -1.4203485101461411e-02</internalNodes>
          <leafValues>
            3.7043058872222900e-01 -3.0507671833038330e-01</leafValues></_>
        <_>
          <internalNodes>
            0 -1 106 -5.8461923617869616e-04</internalNodes>
          <leafValues>
            4.8025399446487427e-01 -2.3553581535816193e-01</leafValues></_>
        <_>
          <internalNodes>
            0 -1 139 2.2872762201586738e-05</internalNodes>
          <leafValues>
            1.9711925089359283e-01 -6.4857822656631470e-01</leafValues></_></weakClassifiers></_>
    <!-- stage 5 -->
    <_>
      <maxWeakCount>8</maxWeakCount>
      <stageThreshold>-1.5848324298858643e+00</stageThreshold>
      <weakClassifiers>
        <_>
          <internalNodes>
            0 -1 46 -1.0426267050206661e-02</internalNodes>
          <leafValues>
            7.5000000000000000e-01 -8.0144405364990234e-01</leafValues></_>
        <_>
          <internalNodes>
            0 -1 60 -1.0692958720028400e-02</internalNodes>
          <leafValues>
            3.6359176039695740e-01 -4.4285547733306885e-01</leafValues></_>
        <_>
          <internalNodes>
            0 -1 83 1.0103856038767844e-04</internalNodes>
          <leafValues>
            -3.2898628711700439e-01 3.1082490086555481e-01</leafValues></_>
        <_>
          <internalNodes>
            0 -1 134 -1.2051463127136230e-02</internalNodes>
          <leafValues>
            -8.2567715644836426e-01 1.3275367021560669e-01</leafValues></_>
        <_>
          <internalNodes>
            0 -1 23 -2.0422976376721635e-05</internalNodes>
          <leafValues>
            -5.4603791236877441e-01 2.1562086045742035e-01</leafValues></_>
        <_>
          <internalNodes>
            0 -1 75 3.1562289223074913e-03</internalNodes>
          <leafValues>
            -2.1449689567089081e-01 5.7293266057968140e-01</leafValues></_>
        <_>
          <internalNodes>
            0 -1 121 -5.1407970022410154e-04</internalNodes>
          <leafValues>
            4.6890103816986084e-01 -2.4119777977466583e-01</leafValues></_>
        <_>
          <internalNodes>
            0 -1 42 1.1454493505880237e-04</internalNodes>
          <leafValues>
            1.4733347296714783e-01 -9.0801995992660522e-01</leafValues></_></weakClassifiers></_>
    <!-- stage 6 -->
    <_>
      <maxWeakCount>9</maxWeakCount>
      <stageThreshold>-1.4541914463043213e+00</stageThreshold>
      <weakClassifiers>
        <_>
          <internalNodes>
            0 -1 11 -1.2833501212298870e-02</internalNodes>
          <leafValues>
            6.5217393636703491e-01 -8.0926430225372314e-01</leafValues></_>
        <_>
          <internalNodes>
            0 -1 17 2.2585224360227585e-02</internalNodes>
          <leafValues>
            -4.8678055405616760e-01 1.4710459113121033e-01</leafValues></_>
        <_>
          <internalNodes>
            0 -1 10 -3.4653749025892466e-05</internalNodes>
          <leafValues>
            -5.0476115942001343e-01 1.5713180601596832e-01</leafValues></_>
        <_>
          <internalNodes>
            0 -1 44 1.5528477728366852e-02</internalNodes>
          <leafValues>
            -1.7154669761657715e-01 6.4016985893249512e-01</leafValues></_>
        <_>
          <internalNodes>
            0 -1 27 -1.0461715981364250e-02</internalNodes>
          <leafValues>
            -7.4299407005310059e-01 1.4863085746765137e-01</leafValues></_>
        <_>
          <internalNodes>
            0 -1 47 4.5455442741513252e-03</internalNodes>
          <leafValues>
            2.3577968776226044e-01 -6.6750442981719971e-01</leafValues></_>
        <_>
          <internalNodes>
            0 -1 6 2.0307390950620174e-03</internalNodes>
          <leafValues>
            8.8891945779323578e-02 -7.9440480470657349e-01</leafValues></_>
        <_>
          <internalNodes>
            0 -1 56 6.6454663872718811e-02</internalNodes>
          <leafValues>
            -2.2270856797695160e-01 4.9842569231987000e-01</leafValues></_>
        <_>
          <internalNodes>
            0 -1 57 -3.4453719854354858e-02</internalNodes>
          <leafValues>
            5.2244049310684204e-01 -2.1217568218708038e-01</leafValues></_></weakClassifiers></_>
    <!-- stage 7 -->
    <_>
      <maxWeakCount>11</maxWeakCount>
      <stageThreshold>-1.6107590198516846e+00</stageThreshold>
      <weakClassifiers>
        <_>
          <internalNodes>
            0 -1 108 -1.5811156481504440e-02</internalNodes>
          <leafValues>
            -1.4285714924335480e-01 -8.1273406744003296e-01</leafValues></_>
        <_>
          <internalNodes>
            0 -1 97 4.5983079820871353e-02</internalNodes>
          <leafValues>
            -4.3810331821441650e-01 2.5447753071784973e-01</leafValues></_>
        <_>
          <internalNodes>
            0 -1 2 4.7930786386132240e-03</internalNodes>
          <leafValues>
            1.2694676220417023e-01 -7.6028591394424438e-01</leafValues></_>
        <_>
          <internalNodes>
            0 -1 129 3.4706772567005828e-05</internalNodes>
          <leafValues>
            1.3156665861606598e-01 -6.0244649648666382e-01</leafValues></_>
        <_>
          <internalNodes>
            0 -1 20 6.0023839978384785e-06</internalNodes>
          <leafValues>
            2.3991489410400391e-01 -3.8567623496055603e-01</leafValues></_>
        <_>
          <internalNodes>
            0 -1 76 -3.9884010329842567e-03</internalNodes>
          <leafValues>
            4.7864493727684021e-01 -1.8387588858604431e-01</leafValues></_>
        <_>
          <internalNodes>
            0 -1 52 -1.4059586101211607e-04</internalNodes>
          <leafValues>
            -4.4486865401268005e-01 2.1431550383567810e-01</leafValues></_>
        <_>
          <internalNodes>
            0 -1 67 -8.1364845391362906e-04</internalNodes>
          <leafValues>
            3.8394722342491150e-01 -2.5719410181045532e-01</leafValues></_>
        <_>
          <internalNodes>
            0 -1 115 -3.5469151043798774e-05</internalNodes>
          <leafValues>
            -5.8271080255508423e-01 1.7253892123699188e-01</leafValues></_>
        <_>
          <internalNodes>
            0 -1 99 1.6764090105425566e-05</internalNodes>
          <leafValues>
            -3.5518497228622437e-01 2.7219513058662415e-01</leafValues></_>
        <_>
          <internalNodes>
            0 -1 18 -2.4295381081174128e-05</internalNodes>
          <leafValues>
            2.9490607976913452e-01 -3.4231624007225037e-01</leafValues></_></weakClassifiers></_>
    <!-- stage 8 -->
    <_>
      <maxWeakCount>9</maxWeakCount>
      <stageThreshold>-1.6885619163513184e+00</stageThreshold>
      <weakClassifiers>
        <_>
          <internalNodes>
            0 -1 51 -1.5371818095445633e-02</internalNodes>
          <leafValues>
            3.0434781312942505e-01 -8.0199819803237915e-01</leafValues></_>
        <_>
          <internalNodes>
            0 -1 37 -1.1295596137642860e-02</internalNodes>
          <leafValues>
            2.3237384855747223e-01 -4.7015330195426941e-01</leafValues></_>
        <_>
          <internalNodes>
            0 -1 39 1.3411344587802887e-01</internalNodes>
          <leafValues>
            8.0597616732120514e-02 -8.4358340501785278e-01</leafValues></_>
        <_>
          <internalNodes>
            0 -1 8 1.8025193363428116e-02</internalNodes>
          <leafValues>
            1.2660795450210571e-01 -8.7259787321090698e-01</leafValues></_>
        <_>
          <internalNodes>
            0 -1 136 7.2304203058592975e-05</internalNodes>
          <leafValues>
            9.0557709336280823e-02 -7.0403748750686646e-01</leafValues></_>
        <_>
          <internalNodes>
            0 -1 118 -3.4227655851282179e-04</internalNodes>
          <leafValues>
            2.7897658944129944e-01 -3.4409111738204956e-01</leafValues></_>
        <_>
          <internalNodes>
            0 -1 107 7.3017715476453304e-03</internalNodes>
          <leafValues>
            -2.4428355693817139e-01 3.9894026517868042e-01</leafValues></_>
        <_>
          <internalNodes>
            0 -1 100 -4.5434916391968727e-03</internalNodes>
          <leafValues>
            5.3180307149887085e-01 -1.8380036950111389e-01</leafValues></_>
        <_>
          <internalNodes>
            0 -1 126 -7.7251228503882885e-05</internalNodes>
          <leafValues>
            -5.8522254228591919e-01 1.7417313158512115e-01</leafValues></_></weakClassifiers></_>
    <!-- stage 9 -->
    <_>
      <maxWeakCount>10</maxWeakCount>
      <stageThreshold>-1.5265018939971924e+00</stageThreshold>
      <weakClassifiers>
        <_>
          <internalNodes>
            0 -1 140 -4.3582180514931679e-03</internalNodes>
          <leafValues>
            3.6842104792594910e-01 -7.9909503459930420e-01</leafValues></_>
        <_>
          <internalNodes>
            0 -1 65 -1.6374614089727402e-02</internalNodes>
          <leafValues>
            1.2258183211088181e-01 -4.6136134862899780e-01</leafValues></_>
        <_>
          <internalNodes>
            0 -1 84 1.0866254568099976e-02</internalNodes>
          <leafValues>
            -1.7290851473808289e-01 6.6406923532485962e-01</leafValues></_>
        <_>
          <internalNodes>
            0 -1 131 -3.9297712646657601e-05</internalNodes>
          <leafValues>
            3.6895489692687988e-01 -2.4571640789508820e-01</leafValues></_>
        <_>
          <internalNodes>
            0 -1 112 8.8748754933476448e-04</internalNodes>
          <leafValues>
            1.7899346351623535e-01 -5.4219502210617065e-01</leafValues></_>
        <_>
          <internalNodes>
            0 -1 87 -7.4323895387351513e-04</internalNodes>
          <leafValues>
            4.1061025857925415e-01 -2.3467884957790375e-01</leafValues></_>
        <_>
          <internalNodes>
            0 -1 9 4.1001520003192127e-05</internalNodes>
          <leafValues>
            1.7021700739860535e-01 -6.5819960832595825e-01</leafValues></_>
        <_>
          <internalNodes>
            0 -1 43 6.8047523498535156e-02</internalNodes>
          <leafValues>
            -1.9658674299716949e-01 4.7099146246910095e-01</leafValues></_>
        <_>
          <internalNodes>
            0 -1 93 -7.9204345820471644e-04</internalNodes>
          <leafValues>
            3.2598400115966797e-01 -3.1398791074752808e-01</leafValues></_>
        <_>
          <internalNodes>
            0 -1 123 -8.0184335820376873e-04</internalNodes>
          <leafValues>
            -6.6292685270309448e-01 1.4780668914318085e-01</leafValues></_></weakClassifiers></_>
    <!-- stage 10 -->
    <_>
      <maxWeakCount>12</maxWeakCount>
      <stageThreshold>-1.4650840759277344e+00</stageThreshold>
      <weakClassifiers>
        <_>
          <internalNodes>
            0 -1 95 -1.7417218536138535e-02</internalNodes>
          <leafValues>
            3.0000001192092896e-01 -7.9891306161880493e-01</leafValues></_>
        <_>
          <internalNodes>
            0 -1 45 -5.4512009955942631e-04</internalNodes>
          <leafValues>
            -6.9106973707675934e-02 -5.4759401082992554e-01</leafValues></_>
        <_>
          <internalNodes>
            0 -1 68 -9.3147484585642815e-03</internalNodes>
          <leafValues>
            4.9574917554855347e-01 -1.6291792690753937e-01</leafValues></_>
        <_>
          <internalNodes>
            0 -1 138 1.0128589347004890e-03</internalNodes>
          <leafValues>
            1.1968085169792175e-01 -6.4876103401184082e-01</leafValues></_>
        <_>
          <internalNodes>
            0 -1 127 1.3535071047954261e-05</internalNodes>
          <leafValues>
            -2.6407939195632935e-01 2.8802514076232910e-01</leafValues></_>
        <_>
          <internalNodes>
            0 -1 117 -4.0068766102194786e-03</internalNodes>
          <leafValues>
            4.7118997573852539e-01 -1.5293756127357483e-01</leafValues></_>
        <_>
          <internalNodes>
            0 -1 71 4.0772778447717428e-04</internalNodes>
          <leafValues>
            -2.4472756683826447e-01 3.2146281003952026e-01</leafValues></_>
        <_>
          <internalNodes>
            0 -1 4 9.1632908151950687e-05</internalNodes>
          <leafValues>
            1.6423639655113220e-01 -5.3893619775772095e-01</leafValues></_>
        <_>
          <internalNodes>
            0 -1 3 -4.1449573473073542e-05</internalNodes>
          <leafValues>
            -5.4756408929824829e-01 1.3698662817478180e-01</leafValues></_>
        <_>
          <internalNodes>
            0 -1 82 4.1911397129297256e-03</internalNodes>
          <leafValues>
            -2.1094068884849548e-01 5.0522798299789429e-01</leafValues></_>
        <_>
          <internalNodes>
            0 -1 116 3.7258672819007188e-05</internalNodes>
          <leafValues>
            -2.8778612613677979e-01 2.8174915909767151e-01</leafValues></_>
        <_>
          <internalNodes>
            0 -1 48 -2.8191339224576950e-03</internalNodes>
          <leafValues>
            3.6584448814392090e-01 -2.5163525342941284e-01</leafValues></_></weakClassifiers></_>
    <!-- stage 11 -->
    <_>
      <maxWeakCount>10</maxWeakCount>
      <stageThreshold>-1.6089038848876953e+00</stageThreshold>
      <weakClassifiers>
        <_>
          <internalNodes>
            0 -1 29 -3.7417203187942505e-02</internalNodes>
          <leafValues>
            1. -7.9533213376998901e-01</leafValues></_>
        <_>
          <internalNodes>
            0 -1 114 -6.8261936306953430e-02</internalNodes>
          <leafValues>
            2.0571728050708771e-01 -4.2384943366050720e-01</leafValues></_>
        <_>
          <internalNodes>
            0 -1 74 1.5621636994183064e-03</internalNodes>
          <leafValues>
            1.3091279566287994e-01 -5.6105309724807739e-01</leafValues></_>
        <_>
          <internalNodes>
            0 -1 78 1.4561441494151950e-03</internalNodes>
          <leafValues>
            1.9752465188503265e-01 -4.2264530062675476e-01</leafValues></_>
        <_>
          <internalNodes>
            0 -1 59 1.0893998667597771e-02</internalNodes>
          <leafValues>
            -1.3523232936859131e-01 5.5135720968246460e-01</leafValues></_>
        <_>
          <internalNodes>
            0 -1 50 -4.2879125103354454e-03</internalNodes>
          <leafValues>
            -7.2406697273254395e-01 1.3433998823165894e-01</leafValues></_>
        <_>
          <internalNodes>
            0 -1 58 -2.4827104061841965e-03</internalNodes>
          <leafValues>
            3.4933137893676758e-01 -2.4054318666458130e-01</leafValues></_>
        <_>
          <internalNodes>
            0 -1 34 -3.1528685241937637e-02</internalNodes>
          <leafValues>
            3.7057104706764221e-01 -2.2015418112277985e-01</leafValues></_>
        <_>
          <internalNodes>
            0 -1 130 -1.4198234566720203e-05</internalNodes>
          <leafValues>
            2.9227086901664734e-01 -2.8602167963981628e-01</leafValues></_>
        <_>
          <internalNodes>
            0 -1 128 7.1009475504979491e-05</internalNodes>
          <leafValues>
            1.3154301047325134e-01 -7.1270793676376343e-01</leafValues></_></weakClassifiers></_>
    <!-- stage 12 -->
    <_>
      <maxWeakCount>13</maxWeakCount>
      <stageThreshold>-1.4939566850662231e+00</stageThreshold>
      <weakClassifiers>
        <_>
          <internalNodes>
            0 -1 19 -1.4082103967666626e-02</internalNodes>
          <leafValues>
            3.3333334326744080e-01 -8.0054396390914917e-01</leafValues></_>
        <_>
          <internalNodes>
            0 -1 105 4.6415990218520164e-03</internalNodes>
          <leafValues>
            -4.3508166074752808e-01 5.1918234676122665e-02</leafValues></_>
        <_>
          <internalNodes>
            0 -1 69 2.4452120065689087e-02</internalNodes>
          <leafValues>
            4.9211494624614716e-02 -1.</leafValues></_>
        <_>
          <internalNodes>
            0 -1 35 -1.0724141448736191e-01</internalNodes>
          <leafValues>
            -7.3132228851318359e-01 9.0599067509174347e-02</leafValues></_>
        <_>
          <internalNodes>
            0 -1 7 -4.2283069342374802e-03</internalNodes>
          <leafValues>
            -8.4995025396347046e-01 8.1226937472820282e-02</leafValues></_>
        <_>
          <internalNodes>
            0 -1 41 2.9585817173938267e-05</internalNodes>
          <leafValues>
            1.3349013030529022e-01 -4.2691317200660706e-01</leafValues></_>
        <_>
          <internalNodes>
            0 -1 31 -5.0922833906952292e-05</internalNodes>
          <leafValues>
            2.8133526444435120e-01 -2.6131781935691833e-01</leafValues></_>
        <_>
          <internalNodes>
            0 -1 36 -2.6074718683958054e-02</internalNodes>
          <leafValues>
            3.3387219905853271e-01 -2.0070695877075195e-01</leafValues></_>
        <_>
          <internalNodes>
            0 -1 54 1.2105104513466358e-02</internalNodes>
          <leafValues>
            -2.0570094883441925e-01 3.7497761845588684e-01</leafValues></_>
        <_>
          <internalNodes>
            0 -1 15 3.0489908531308174e-03</internalNodes>
          <leafValues>
            -2.9579323530197144e-01 2.3981100320816040e-01</leafValues></_>
        <_>
          <internalNodes>
            0 -1 26 3.3111136872321367e-03</internalNodes>
          <leafValues>
            1.3446672260761261e-01 -5.2034574747085571e-01</leafValues></_>
        <_>
          <internalNodes>
            0 -1 21 1.5071008820086718e-03</internalNodes>
          <leafValues>
            1.3505047559738159e-01 -5.0731480121612549e-01</leafValues></_>
        <_>
          <internalNodes>
            0 -1 120 7.6970696682110429e-04</internalNodes>
          <leafValues>
            -2.2026717662811279e-01 3.4706977009773254e-01</leafValues></_></weakClassifiers></_>
    <!-- stage 13 -->
    <_>
      <maxWeakCount>9</maxWeakCount>
      <stageThreshold>-1.4278030395507813e+00</stageThreshold>
      <weakClassifiers>
        <_>
          <internalNodes>
            0 -1 38 5.0554819405078888e-02</internalNodes>
          <leafValues>
            -7.9657965898513794e-01 6.9230771064758301e-01</leafValues></_>
        <_>
          <internalNodes>
            0 -1 62 5.5587857787031680e-05</internalNodes>
          <leafValues>
            -6.7898079752922058e-02 -5.9511613845825195e-01</leafValues></_>
        <_>
          <internalNodes>
            0 -1 92 -2.2485846420750022e-04</internalNodes>
          <leafValues>
            2.9415804147720337e-01 -2.5222086906433105e-01</leafValues></_>
        <_>
          <internalNodes>
            0 -1 33 -1.7807710682973266e-03</internalNodes>
          <leafValues>
            4.3210354447364807e-01 -1.7586515843868256e-01</leafValues></_>
        <_>
          <internalNodes>
            0 -1 110 2.6404154486954212e-03</internalNodes>
          <leafValues>
            1.1139378696680069e-01 -7.6613199710845947e-01</leafValues></_>
        <_>
          <internalNodes>
            0 -1 22 5.6186363508459181e-05</internalNodes>
          <leafValues>
            1.6565155982971191e-01 -4.9706965684890747e-01</leafValues></_>
        <_>
          <internalNodes>
            0 -1 32 -2.9736582655459642e-04</internalNodes>
          <leafValues>
            3.2875353097915649e-01 -2.4639238417148590e-01</leafValues></_>
        <_>
          <internalNodes>
            0 -1 5 -3.9780825376510620e-02</internalNodes>
          <leafValues>
            -8.3263480663299561e-01 9.0014554560184479e-02</leafValues></_>
        <_>
          <internalNodes>
            0 -1 119 1.4469234156422317e-04</internalNodes>
          <leafValues>
            -2.3280289769172668e-01 3.2606378197669983e-01</leafValues></_></weakClassifiers></_>
    <!-- stage 14 -->
    <_>
      <maxWeakCount>12</maxWeakCount>
      <stageThreshold>-1.5962259769439697e+00</stageThreshold>
      <weakClassifiers>
        <_>
          <internalNodes>
            0 -1 28 4.4932052493095398e-02</internalNodes>
          <leafValues>
            -8.0090498924255371e-01 4.7368422150611877e-01</leafValues></_>
        <_>
          <internalNodes>
            0 -1 12 1.3484631199389696e-04</internalNodes>
          <leafValues>
            -4.2950412631034851e-01 1.6637276113033295e-01</leafValues></_>
        <_>
          <internalNodes>
            0 -1 63 1.9320503342896700e-03</internalNodes>
          <leafValues>
            1.1061548441648483e-01 -7.1520996093750000e-01</leafValues></_>
        <_>
          <internalNodes>
            0 -1 14 1.1120457202196121e-03</internalNodes>
          <leafValues>
            2.0544160902500153e-01 -5.3033947944641113e-01</leafValues></_>
        <_>
          <internalNodes>
            0 -1 103 -1.1513385106809437e-04</internalNodes>
          <leafValues>
            3.1122255325317383e-01 -2.5772428512573242e-01</leafValues></_>
        <_>
          <internalNodes>
            0 -1 101 2.7841590344905853e-03</internalNodes>
          <leafValues>
            -1.7418813705444336e-01 4.3097117543220520e-01</leafValues></_>
        <_>
          <internalNodes>
            0 -1 30 -4.3942503631114960e-02</internalNodes>
          <leafValues>
            5.8068931102752686e-01 -1.5053185820579529e-01</leafValues></_>
        <_>
          <internalNodes>
            0 -1 125 -1.5927986241877079e-03</internalNodes>
          <leafValues>
            -9.6502745151519775e-01 1.0718389600515366e-01</leafValues></_>
        <_>
          <internalNodes>
            0 -1 124 5.7440383898210712e-06</internalNodes>
          <leafValues>
            1.2717421352863312e-01 -5.1311141252517700e-01</leafValues></_>
        <_>
          <internalNodes>
            0 -1 89 1.3496521569322795e-04</internalNodes>
          <leafValues>
            -1.8424752354621887e-01 4.7266113758087158e-01</leafValues></_>
        <_>
          <internalNodes>
            0 -1 109 -1.9062787760049105e-04</internalNodes>
          <leafValues>
            3.3086529374122620e-01 -2.7613279223442078e-01</leafValues></_>
        <_>
          <internalNodes>
            0 -1 113 -7.3763425461947918e-05</internalNodes>
          <leafValues>
            3.8013219833374023e-01 -2.2352696955204010e-01</leafValues></_></weakClassifiers></_></stages>
  <features>
    <_>
      <rects>
        <_>
          0 0 2 4 -1.</_>
        <_>
          0 0 1 2 2.</_>
        <_>
          1 2 1 2 2.</_></rects>
      <tilted>0</tilted></_>
    <_>
      <rects>
        <_>
          0 0 28 2 -1.</_>
        <_>
          14 0 14 2 2.</_></rects>
      <tilted>0</tilted></_>
    <_>
      <rects>
        <_>
          0 2 2 15 -1.</_>
        <_>
          0 7 2 5 3.</_></rects>
      <tilted>0</tilted></_>
    <_>
      <rects>
        <_>
          0 7 1 3 -1.</_>
        <_>
          0 8 1 1 3.</_></rects>
      <tilted>0</tilted></_>
    <_>
      <rects>
        <_>
          0 7 2 3 -1.</_>
        <_>
          0 8 2 1 3.</_></rects>
      <tilted>0</tilted></_>
    <_>
      <rects>
        <_>
          0 7 28 8 -1.</_>
        <_>
          0 7 14 4 2.</_>
        <_>
          14 11 14 4 2.</_></rects>
      <tilted>0</tilted></_>
    <_>
      <rects>
        <_>
          0 9 2 8 -1.</_>
        <_>
          0 13 2 4 2.</_></rects>
      <tilted>0</tilted></_>
    <_>
      <rects>
        <_>
          0 14 1 10 -1.</_>
        <_>
          0 19 1 5 2.</_></rects>
      <tilted>0</tilted></_>
    <_>
      <rects>
        <_>
          0 14 30 1 -1.</_>
        <_>
          15 14 15 1 2.</_></rects>
      <tilted>0</tilted></_>
    <_>
      <rects>
        <_>
          0 15 1 2 -1.</_>
        <_>
          0 16 1 1 2.</_></rects>
      <tilted>0</tilted></_>
    <_>
      <rects>
        <_>
          0 21 3 4 -1.</_>
        <_>
          1 21 1 4 3.</_></rects>
      <tilted>0</tilted></_>
    <_>
      <rects>
        <_>
          0 28 4 4 -1.</_>
        <_>
          0 30 4 2 2.</_></rects>
      <tilted>0</tilted></_>
    <_>
      <rects>
        <_>
          0 31 3 1 -1.</_>
        <_>
          1 31 1 1 3.</_></rects>
      <tilted>0</tilted></_>
    <_>
      <rects>
        <_>
          1 0 2 1 -1.</_>
        <_>
          2 0 1 1 2.</_></rects>
      <tilted>0</tilted></_>
    <_>
      <rects>
        <_>
          1 0 12 1 -1.</_>
        <_>
          5 0 4 1 3.</_></rects>
      <tilted>0</tilted></_>
    <_>
      <rects>
        <_>
          1 0 9 30 -1.</_>
        <_>
          1 10 9 10 3.</_></rects>
      <tilted>0</tilted></_>
    <_>
      <rects>
        <_>
          1 1 2 2 -1.</_>
        <_>
          1 1 1 1 2.</_>
        <_>
          2 2 1 1 2.</_></rects>
      <tilted>0</tilted></_>
    <_>
      <rects>
        <_>
          1 4 24 9 -1.</_>
        <_>
          1 7 24 3 3.</_></rects>
      <tilted>0</tilted></_>
    <_>
      <rects>
        <_>
          1 28 4 2 -1.</_>
        <_>
          1 29 4 1 2.</_></rects>
      <tilted>0</tilted></_>
    <_>
      <rects>
        <_>
          1 29 12 2 -1.</_>
        <_>
          1 30 12 1 2.</_></rects>
      <tilted>0</tilted></_>
    <_>
      <rects>
        <_>
          1 30 21 1 -1.</_>
        <_>
          8 30 7 1 3.</_></rects>
      <tilted>0</tilted></_>
    <_>
      <rects>
        <_>
          2 0 28 2 -1.</_>
        <_>
          2 0 14 1 2.</_>
        <_>
          16 1 14 1 2.</_></rects>
      <tilted>0</tilted></_>
    <_>
      <rects>
        <_>
          2 1 3 2 -1.</_>
        <_>
          3 1 1 2 3.</_></rects>
      <tilted>0</tilted></_>
    <_>
      <rects>
        <_>
          2 5 2 2 -1.</_>
        <_>
          2 5 1 1 2.</_>
        <_>
          3 6 1 1 2.</_></rects>
      <tilted>0</tilted></_>
    <_>
      <rects>
        <_>
          2 6 12 19 -1.</_>
        <_>
          6 6 4 19 3.</_></rects>
      <tilted>0</tilted></_>
    <_>
      <rects>
        <_>
          2 10 9 21 -1.</_>
        <_>
          5 10 3 21 3.</_></rects>
      <tilted>0</tilted></_>
    <_>
      <rects>
        <_>
          2 31 24 1 -1.</_>
        <_>
          14 31 12 1 2.</_></rects>
      <tilted>0</tilted></_>
    <_>
      <rects>
        <_>
          2 31 30 1 -1.</_>
        <_>
          17 31 15 1 2.</_></rects>
      <tilted>0</tilted></_>
    <_>
      <rects>
        <_>
          3 2 12 8 -1.</_>
        <_>
          3 2 6 4 2.</_>
        <_>
          9 6 6 4 2.</_></rects>
      <tilted>0</tilted></_>
    <_>
      <rects>
        <_>
          3 3 24 1 -1.</_>
        <_>
          11 3 8 1 3.</_></rects>
      <tilted>0</tilted></_>
    <_>
      <rects>
        <_>
          3 6 15 7 -1.</_>
        <_>
          8 6 5 7 3.</_></rects>
      <tilted>0</tilted></_>
    <_>
      <rects>
        <_>
          3 11 5 2 -1.</_>
        <_>
          3 12 5 1 2.</_></rects>
      <tilted>0</tilted></_>
    <_>
      <rects>
        <_>
          3 14 14 3 -1.</_>
        <_>
          3 15 14 1 3.</_></rects>
      <tilted>0</tilted></_>
    <_>
      <rects>
        <_>
          3 15 20 3 -1.</_>
        <_>
          3 16 20 1 3.</_></rects>
      <tilted>0</tilted></_>
    <_>
      <rects>
        <_>
          3 16 22 15 -1.</_>
        <_>
          3 21 22 5 3.</_></rects>
      <tilted>0</tilted></_>
    <_>
      <rects>
        <_>
          4 0 28 11 -1.</_>
        <_>
          18 0 14 11 2.</_></rects>
      <tilted>0</tilted></_>
    <_>
      <rects>
        <_>
          4 0 21 6 -1.</_>
        <_>
          4 3 21 3 2.</_></rects>
      <tilted>0</tilted></_>
    <_>
      <rects>
        <_>
          4 0 24 6 -1.</_>
        <_>
          4 2 24 2 3.</_></rects>
      <tilted>0</tilted></_>
    <_>
      <rects>
        <_>
          4 1 10 10 -1.</_>
        <_>
          4 1 5 5 2.</_>
        <_>
          9 6 5 5 2.</_></rects>
      <tilted>0</tilted></_>
    <_>
      <rects>
        <_>
          4 1 28 28 -1.</_>
        <_>
          4 1 14 14 2.</_>
        <_>
          18 15 14 14 2.</_></rects>
      <tilted>0</tilted></_>
    <_>
      <rects>
        <_>
          4 18 18 12 -1.</_>
        <_>
          4 22 18 4 3.</_></rects>
      <tilted>0</tilted></_>
    <_>
      <rects>
        <_>
          5 0 1 3 -1.</_>
        <_>
          5 1 1 1 3.</_></rects>
      <tilted>0</tilted></_>
    <_>
      <rects>
        <_>
          5 0 2 2 -1.</_>
        <_>
          5 0 1 1 2.</_>
        <_>
          6 1 1 1 2.</_></rects>
      <tilted>0</tilted></_>
    <_>
      <rects>
        <_>
          5 2 21 16 -1.</_>
        <_>
          12 2 7 16 3.</_></rects>
      <tilted>0</tilted></_>
    <_>
      <rects>
        <_>
          5 5 6 13 -1.</_>
        <_>
          7 5 2 13 3.</_></rects>
      <tilted>0</tilted></_>
    <_>
      <rects>
        <_>
          5 16 4 8 -1.</_>
        <_>
          5 20 4 4 2.</_></rects>
      <tilted>0</tilted></_>
    <_>
      <rects>
        <_>
          5 29 8 2 -1.</_>
        <_>
          5 30 8 1 2.</_></rects>
      <tilted>0</tilted></_>
    <_>
      <rects>
        <_>
          5 31 24 1 -1.</_>
        <_>
          17 31 12 1 2.</_></rects>
      <tilted>0</tilted></_>
    <_>
      <rects>
        <_>
          6 2 22 2 -1.</_>
        <_>
          6 3 22 1 2.</_></rects>
      <tilted>0</tilted></_>
    <_>
      <rects>
        <_>
          6 4 4 20 -1.</_>
        <_>
          8 4 2 20 2.</_></rects>
      <tilted>0</tilted></_>
    <_>
      <rects>
        <_>
          6 20 17 2 -1.</_>
        <_>
          6 21 17 1 2.</_></rects>
      <tilted>0</tilted></_>
    <_>
      <rects>
        <_>
          6 29 14 3 -1.</_>
        <_>
          6 30 14 1 3.</_></rects>
      <tilted>0</tilted></_>
    <_>
      <rects>
        <_>
          6 30 4 1 -1.</_>
        <_>
          8 30 2 1 2.</_></rects>
      <tilted>0</tilted></_>
    <_>
      <rects>
        <_>
          7 0 23 8 -1.</_>
        <_>
          7 4 23 4 2.</_></rects>
      <tilted>0</tilted></_>
    <_>
      <rects>
        <_>
          7 1 15 9 -1.</_>
        <_>
          7 4 15 3 3.</_></rects>
      <tilted>0</tilted></_>
    <_>
      <rects>
        <_>
          7 2 6 21 -1.</_>
        <_>
          10 2 3 21 2.</_></rects>
      <tilted>0</tilted></_>
    <_>
      <rects>
        <_>
          7 10 13 18 -1.</_>
        <_>
          7 16 13 6 3.</_></rects>
      <tilted>0</tilted></_>
    <_>
      <rects>
        <_>
          7 11 23 15 -1.</_>
        <_>
          7 16 23 5 3.</_></rects>
      <tilted>0</tilted></_>
    <_>
      <rects>
        <_>
          7 22 6 10 -1.</_>
        <_>
          9 22 2 10 3.</_></rects>
      <tilted>0</tilted></_>
    <_>
      <rects>
        <_>
          8 0 9 6 -1.</_>
        <_>
          8 3 9 3 2.</_></rects>
      <tilted>0</tilted></_>
    <_>
      <rects>
        <_>
          8 9 12 6 -1.</_>
        <_>
          8 11 12 2 3.</_></rects>
      <tilted>0</tilted></_>
    <_>
      <rects>
        <_>
          8 12 11 14 -1.</_>
        <_>
          8 19 11 7 2.</_></rects>
      <tilted>0</tilted></_>
    <_>
      <rects>
        <_>
          8 30 11 2 -1.</_>
        <_>
          8 31 11 1 2.</_></rects>
      <tilted>0</tilted></_>
    <_>
      <rects>
        <_>
          8 30 22 2 -1.</_>
        <_>
          8 30 11 1 2.</_>
        <_>
          19 31 11 1 2.</_></rects>
      <tilted>0</tilted></_>
    <_>
      <rects>
        <_>
          9 0 20 1 -1.</_>
        <_>
          19 0 10 1 2.</_></rects>
      <tilted>0</tilted></_>
    <_>
      <rects>
        <_>
          9 0 14 6 -1.</_>
        <_>
          9 3 14 3 2.</_></rects>
      <tilted>0</tilted></_>
    <_>
      <rects>
        <_>
          9 8 12 6 -1.</_>
        <_>
          9 10 12 2 3.</_></rects>
      <tilted>0</tilted></_>
    <_>
      <rects>
        <_>
          9 10 8 2 -1.</_>
        <_>
          9 11 8 1 2.</_></rects>
      <tilted>0</tilted></_>
    <_>
      <rects>
        <_>
          9 15 4 14 -1.</_>
        <_>
          9 15 2 7 2.</_>
        <_>
          11 22 2 7 2.</_></rects>
      <tilted>0</tilted></_>
    <_>
      <rects>
        <_>
          9 18 8 9 -1.</_>
        <_>
          9 21 8 3 3.</_></rects>
      <tilted>0</tilted></_>
    <_>
      <rects>
        <_>
          10 4 12 6 -1.</_>
        <_>
          10 6 12 2 3.</_></rects>
      <tilted>0</tilted></_>
    <_>
      <rects>
        <_>
          10 11 8 2 -1.</_>
        <_>
          10 11 4 1 2.</_>
        <_>
          14 12 4 1 2.</_></rects>
      <tilted>0</tilted></_>
    <_>
      <rects>
        <_>
          10 31 21 1 -1.</_>
        <_>
          17 31 7 1 3.</_></rects>
      <tilted>0</tilted></_>
    <_>
      <rects>
        <_>
          11 0 4 12 -1.</_>
        <_>
          11 4 4 4 3.</_></rects>
      <tilted>0</tilted></_>
    <_>
      <rects>
        <_>
          11 0 15 1 -1.</_>
        <_>
          16 0 5 1 3.</_></rects>
      <tilted>0</tilted></_>
    <_>
      <rects>
        <_>
          11 10 12 3 -1.</_>
        <_>
          11 11 12 1 3.</_></rects>
      <tilted>0</tilted></_>
    <_>
      <rects>
        <_>
          11 24 6 8 -1.</_>
        <_>
          11 24 3 4 2.</_>
        <_>
          14 28 3 4 2.</_></rects>
      <tilted>0</tilted></_>
    <_>
      <rects>
        <_>
          11 24 17 8 -1.</_>
        <_>
          11 28 17 4 2.</_></rects>
      <tilted>0</tilted></_>
    <_>
      <rects>
        <_>
          12 0 20 1 -1.</_>
        <_>
          22 0 10 1 2.</_></rects>
      <tilted>0</tilted></_>
    <_>
      <rects>
        <_>
          12 1 14 6 -1.</_>
        <_>
          12 3 14 2 3.</_></rects>
      <tilted>0</tilted></_>
    <_>
      <rects>
        <_>
          12 4 7 6 -1.</_>
        <_>
          12 6 7 2 3.</_></rects>
      <tilted>0</tilted></_>
    <_>
      <rects>
        <_>
          12 12 14 9 -1.</_>
        <_>
          12 15 14 3 3.</_></rects>
      <tilted>0</tilted></_>
    <_>
      <rects>
        <_>
          12 13 3 6 -1.</_>
        <_>
          12 15 3 2 3.</_></rects>
      <tilted>0</tilted></_>
    <_>
      <rects>
        <_>
          12 19 4 2 -1.</_>
        <_>
          12 19 2 1 2.</_>
        <_>
          14 20 2 1 2.</_></rects>
      <tilted>0</tilted></_>
    <_>
      <rects>
        <_>
          13 1 13 4 -1.</_>
        <_>
          13 3 13 2 2.</_></rects>
      <tilted>0</tilted></_>
    <_>
      <rects>
        <_>
          13 8 6 10 -1.</_>
        <_>
          15 8 2 10 3.</_></rects>
      <tilted>0</tilted></_>
    <_>
      <rects>
        <_>
          13 8 6 6 -1.</_>
        <_>
          13 10 6 2 3.</_></rects>
      <tilted>0</tilted></_>
    <_>
      <rects>
        <_>
          13 10 3 8 -1.</_>
        <_>
          14 10 1 8 3.</_></rects>
      <tilted>0</tilted></_>
    <_>
      <rects>
        <_>
          13 14 9 1 -1.</_>
        <_>
          16 14 3 1 3.</_></rects>
      <tilted>0</tilted></_>
    <_>
      <rects>
        <_>
          13 26 2 2 -1.</_>
        <_>
          13 26 1 1 2.</_>
        <_>
          14 27 1 1 2.</_></rects>
      <tilted>0</tilted></_>
    <_>
      <rects>
        <_>
          14 4 9 6 -1.</_>
        <_>
          14 6 9 2 3.</_></rects>
      <tilted>0</tilted></_>
    <_>
      <rects>
        <_>
          14 22 18 4 -1.</_>
        <_>
          23 22 9 4 2.</_></rects>
      <tilted>0</tilted></_>
    <_>
      <rects>
        <_>
          14 23 3 2 -1.</_>
        <_>
          14 24 3 1 2.</_></rects>
      <tilted>0</tilted></_>
    <_>
      <rects>
        <_>
          15 6 6 7 -1.</_>
        <_>
          17 6 2 7 3.</_></rects>
      <tilted>0</tilted></_>
    <_>
      <rects>
        <_>
          15 12 6 11 -1.</_>
        <_>
          17 12 2 11 3.</_></rects>
      <tilted>0</tilted></_>
    <_>
      <rects>
        <_>
          15 29 17 3 -1.</_>
        <_>
          15 30 17 1 3.</_></rects>
      <tilted>0</tilted></_>
    <_>
      <rects>
        <_>
          17 3 6 18 -1.</_>
        <_>
          19 3 2 18 3.</_></rects>
      <tilted>0</tilted></_>
    <_>
      <rects>
        <_>
          17 5 12 24 -1.</_>
        <_>
          21 5 4 24 3.</_></rects>
      <tilted>0</tilted></_>
    <_>
      <rects>
        <_>
          17 10 6 5 -1.</_>
        <_>
          19 10 2 5 3.</_></rects>
      <tilted>0</tilted></_>
    <_>
      <rects>
        <_>
          17 23 3 6 -1.</_>
        <_>
          18 23 1 6 3.</_></rects>
      <tilted>0</tilted></_>
    <_>
      <rects>
        <_>
          17 25 12 1 -1.</_>
        <_>
          21 25 4 1 3.</_></rects>
      <tilted>0</tilted></_>
    <_>
      <rects>
        <_>
          18 3 6 5 -1.</_>
        <_>
          20 3 2 5 3.</_></rects>
      <tilted>0</tilted></_>
    <_>
      <rects>
        <_>
          18 3 12 28 -1.</_>
        <_>
          22 3 4 28 3.</_></rects>
      <tilted>0</tilted></_>
    <_>
      <rects>
        <_>
          18 4 4 1 -1.</_>
        <_>
          20 4 2 1 2.</_></rects>
      <tilted>0</tilted></_>
    <_>
      <rects>
        <_>
          18 7 3 12 -1.</_>
        <_>
          19 7 1 12 3.</_></rects>
      <tilted>0</tilted></_>
    <_>
      <rects>
        <_>
          18 13 6 6 -1.</_>
        <_>
          18 15 6 2 3.</_></rects>
      <tilted>0</tilted></_>
    <_>
      <rects>
        <_>
          18 19 2 2 -1.</_>
        <_>
          18 20 2 1 2.</_></rects>
      <tilted>0</tilted></_>
    <_>
      <rects>
        <_>
          18 23 12 4 -1.</_>
        <_>
          22 23 4 4 3.</_></rects>
      <tilted>0</tilted></_>
    <_>
      <rects>
        <_>
          19 6 6 6 -1.</_>
        <_>
          21 6 2 6 3.</_></rects>
      <tilted>0</tilted></_>
    <_>
      <rects>
        <_>
          19 20 2 8 -1.</_>
        <_>
          19 20 1 4 2.</_>
        <_>
          20 24 1 4 2.</_></rects>
      <tilted>0</tilted></_>
    <_>
      <rects>
        <_>
          19 22 13 3 -1.</_>
        <_>
          19 23 13 1 3.</_></rects>
      <tilted>0</tilted></_>
    <_>
      <rects>
        <_>
          19 23 9 4 -1.</_>
        <_>
          22 23 3 4 3.</_></rects>
      <tilted>0</tilted></_>
    <_>
      <rects>
        <_>
          20 0 12 1 -1.</_>
        <_>
          24 0 4 1 3.</_></rects>
      <tilted>0</tilted></_>
    <_>
      <rects>
        <_>
          20 19 2 1 -1.</_>
        <_>
          21 19 1 1 2.</_></rects>
      <tilted>0</tilted></_>
    <_>
      <rects>
        <_>
          21 12 8 20 -1.</_>
        <_>
          21 22 8 10 2.</_></rects>
      <tilted>0</tilted></_>
    <_>
      <rects>
        <_>
          21 30 2 1 -1.</_>
        <_>
          22 30 1 1 2.</_></rects>
      <tilted>0</tilted></_>
    <_>
      <rects>
        <_>
          22 7 3 7 -1.</_>
        <_>
          23 7 1 7 3.</_></rects>
      <tilted>0</tilted></_>
    <_>
      <rects>
        <_>
          22 13 6 6 -1.</_>
        <_>
          22 13 3 3 2.</_>
        <_>
          25 16 3 3 2.</_></rects>
      <tilted>0</tilted></_>
    <_>
      <rects>
        <_>
          22 16 1 8 -1.</_>
        <_>
          22 20 1 4 2.</_></rects>
      <tilted>0</tilted></_>
    <_>
      <rects>
        <_>
          23 11 3 1 -1.</_>
        <_>
          24 11 1 1 3.</_></rects>
      <tilted>0</tilted></_>
    <_>
      <rects>
        <_>
          23 16 3 6 -1.</_>
        <_>
          24 16 1 6 3.</_></rects>
      <tilted>0</tilted></_>
    <_>
      <rects>
        <_>
          24 9 3 2 -1.</_>
        <_>
          25 9 1 2 3.</_></rects>
      <tilted>0</tilted></_>
    <_>
      <rects>
        <_>
          25 5 6 26 -1.</_>
        <_>
          28 5 3 26 2.</_></rects>
      <tilted>0</tilted></_>
    <_>
      <rects>
        <_>
          26 1 6 4 -1.</_>
        <_>
          28 1 2 4 3.</_></rects>
      <tilted>0</tilted></_>
    <_>
      <rects>
        <_>
          28 0 4 1 -1.</_>
        <_>
          30 0 2 1 2.</_></rects>
      <tilted>0</tilted></_>
    <_>
      <rects>
        <_>
          28 0 4 2 -1.</_>
        <_>
          30 0 2 2 2.</_></rects>
      <tilted>0</tilted></_>
    <_>
      <rects>
        <_>
          28 0 4 4 -1.</_>
        <_>
          28 0 2 2 2.</_>
        <_>
          30 2 2 2 2.</_></rects>
      <tilted>0</tilted></_>
    <_>
      <rects>
        <_>
          28 17 4 2 -1.</_>
        <_>
          28 17 2 1 2.</_>
        <_>
          30 18 2 1 2.</_></rects>
      <tilted>0</tilted></_>
    <_>
      <rects>
        <_>
          29 26 1 2 -1.</_>
        <_>
          29 27 1 1 2.</_></rects>
      <tilted>0</tilted></_>
    <_>
      <rects>
        <_>
          30 7 2 2 -1.</_>
        <_>
          30 7 1 1 2.</_>
        <_>
          31 8 1 1 2.</_></rects>
      <tilted>0</tilted></_>
    <_>
      <rects>
        <_>
          30 30 2 1 -1.</_>
        <_>
          31 30 1 1 2.</_></rects>
      <tilted>0</tilted></_>
    <_>
      <rects>
        <_>
          30 30 1 2 -1.</_>
        <_>
          30 31 1 1 2.</_></rects>
      <tilted>0</tilted></_>
    <_>
      <rects>
        <_>
          31 0 1 4 -1.</_>
        <_>
          31 2 1 2 2.</_></rects>
      <tilted>0</tilted></_>
    <_>
      <rects>
        <_>
          31 0 1 15 -1.</_>
        <_>
          31 5 1 5 3.</_></rects>
      <tilted>0</tilted></_>
    <_>
      <rects>
        <_>
          31 0 1 26 -1.</_>
        <_>
          31 13 1 13 2.</_></rects>
      <tilted>0</tilted></_>
    <_>
      <rects>
        <_>
          31 0 1 32 -1.</_>
        <_>
          31 16 1 16 2.</_></rects>
      <tilted>0</tilted></_>
    <_>
      <rects>
        <_>
          31 4 1 3 -1.</_>
        <_>
          31 5 1 1 3.</_></rects>
      <tilted>0</tilted></_>
    <_>
      <rects>
        <_>
          31 14 1 3 -1.</_>
        <_>
          31 15 1 1 3.</_></rects>
      <tilted>0</tilted></_>
    <_>
      <rects>
        <_>
          31 16 1 9 -1.</_>
        <_>
          31 19 1 3 3.</_></rects>
      <tilted>0</tilted></_>
    <_>
      <rects>
        <_>
          31 28 1 2 -1.</_>
        <_>
          31 29 1 1 2.</_></rects>
      <tilted>0</tilted></_>
    <_>
      <rects>
        <_>
          31 28 1 4 -1.</_>
        <_>
          31 30 1 2 2.</_></rects>
      <tilted>0</tilted></_></features></cascade>
</opencv_storage>
