<?xml version="1.0"?>
<opencv_storage>
<cascade>
  <stageType>BOOST</stageType>
  <featureType>HAAR</featureType>
  <height>34</height>
  <width>34</width>
  <stageParams>
    <boostType>GAB</boostType>
    <minHitRate>9.9500000476837158e-01</minHitRate>
    <maxFalseAlarm>5.0000000000000000e-01</maxFalseAlarm>
    <weightTrimRate>9.4999998807907104e-01</weightTrimRate>
    <maxDepth>1</maxDepth>
    <maxWeakCount>100</maxWeakCount></stageParams>
  <featureParams>
    <maxCatCount>0</maxCatCount>
    <featSize>1</featSize>
    <mode>BASIC</mode></featureParams>
  <stageNum>18</stageNum>
  <stages>
    <!-- stage 0 -->
    <_>
      <maxWeakCount>8</maxWeakCount>
      <stageThreshold>-1.6654800176620483e+00</stageThreshold>
      <weakClassifiers>
        <_>
          <internalNodes>
            0 -1 153 -1.4337070751935244e-03</internalNodes>
          <leafValues>
            6.6666668653488159e-01 -7.8119349479675293e-01</leafValues></_>
        <_>
          <internalNodes>
            0 -1 10 1.5774234198033810e-03</internalNodes>
          <leafValues>
            -4.7022420167922974e-01 7.3046392202377319e-01</leafValues></_>
        <_>
          <internalNodes>
            0 -1 122 -3.8525118725374341e-04</internalNodes>
          <leafValues>
            7.9764580726623535e-01 -2.7769851684570313e-01</leafValues></_>
        <_>
          <internalNodes>
            0 -1 178 5.3298834245651960e-04</internalNodes>
          <leafValues>
            -1.8914897739887238e-01 7.8104323148727417e-01</leafValues></_>
        <_>
          <internalNodes>
            0 -1 186 8.4456242620944977e-03</internalNodes>
          <leafValues>
            -2.3821061849594116e-01 7.5256150960922241e-01</leafValues></_>
        <_>
          <internalNodes>
            0 -1 98 -1.5964481281116605e-03</internalNodes>
          <leafValues>
            8.2880455255508423e-01 -2.1651116013526917e-01</leafValues></_>
        <_>
          <internalNodes>
            0 -1 26 2.1355336066335440e-03</internalNodes>
          <leafValues>
            -1.9959591329097748e-01 8.7103521823883057e-01</leafValues></_>
        <_>
          <internalNodes>
            0 -1 218 8.0020800232887268e-03</internalNodes>
          <leafValues>
            -2.4297118186950684e-01 7.0710289478302002e-01</leafValues></_></weakClassifiers></_>
    <!-- stage 1 -->
    <_>
      <maxWeakCount>10</maxWeakCount>
      <stageThreshold>-1.8147422075271606e+00</stageThreshold>
      <weakClassifiers>
        <_>
          <internalNodes>
            0 -1 154 -3.8334126584231853e-03</internalNodes>
          <leafValues>
            3.7209302186965942e-01 -7.5315314531326294e-01</leafValues></_>
        <_>
          <internalNodes>
            0 -1 203 4.9734977073967457e-04</internalNodes>
          <leafValues>
            -3.5400664806365967e-01 8.4135776758193970e-01</leafValues></_>
        <_>
          <internalNodes>
            0 -1 17 6.9012820720672607e-02</internalNodes>
          <leafValues>
            2.4795888364315033e-01 -6.1731034517288208e-01</leafValues></_>
        <_>
          <internalNodes>
            0 -1 124 4.4182769488543272e-04</internalNodes>
          <leafValues>
            -2.1546941995620728e-01 8.1072950363159180e-01</leafValues></_>
        <_>
          <internalNodes>
            0 -1 170 1.7851929878816009e-03</internalNodes>
          <leafValues>
            -1.0937756299972534e-01 9.2692708969116211e-01</leafValues></_>
        <_>
          <internalNodes>
            0 -1 259 3.6466127494350076e-04</internalNodes>
          <leafValues>
            2.5128564238548279e-01 -6.1379843950271606e-01</leafValues></_>
        <_>
          <internalNodes>
            0 -1 151 -1.8780883401632309e-03</internalNodes>
          <leafValues>
            6.7067915201187134e-01 -2.1411077678203583e-01</leafValues></_>
        <_>
          <internalNodes>
            0 -1 244 -2.3781170602887869e-03</internalNodes>
          <leafValues>
            -6.4223682880401611e-01 2.3076547682285309e-01</leafValues></_>
        <_>
          <internalNodes>
            0 -1 225 -6.2643416458740830e-04</internalNodes>
          <leafValues>
            5.3782254457473755e-01 -2.5484347343444824e-01</leafValues></_>
        <_>
          <internalNodes>
            0 -1 206 3.0142311006784439e-03</internalNodes>
          <leafValues>
            2.2147811949253082e-01 -6.2839096784591675e-01</leafValues></_></weakClassifiers></_>
    <!-- stage 2 -->
    <_>
      <maxWeakCount>8</maxWeakCount>
      <stageThreshold>-1.6584635972976685e+00</stageThreshold>
      <weakClassifiers>
        <_>
          <internalNodes>
            0 -1 187 5.3610402392223477e-04</internalNodes>
          <leafValues>
            -7.5381851196289063e-01 4.2168673872947693e-01</leafValues></_>
        <_>
          <internalNodes>
            0 -1 181 -1.1516239028424025e-03</internalNodes>
          <leafValues>
            7.5269240140914917e-01 -3.8450956344604492e-01</leafValues></_>
        <_>
          <internalNodes>
            0 -1 121 -3.6174512933939695e-04</internalNodes>
          <leafValues>
            7.4068820476531982e-01 -2.0636516809463501e-01</leafValues></_>
        <_>
          <internalNodes>
            0 -1 194 3.1869569793343544e-03</internalNodes>
          <leafValues>
            -1.6760614514350891e-01 7.8642982244491577e-01</leafValues></_>
        <_>
          <internalNodes>
            0 -1 141 3.7583166267722845e-03</internalNodes>
          <leafValues>
            -2.2110371291637421e-01 6.0570132732391357e-01</leafValues></_>
        <_>
          <internalNodes>
            0 -1 7 4.7995970817282796e-04</internalNodes>
          <leafValues>
            2.9124906659126282e-01 -4.8388680815696716e-01</leafValues></_>
        <_>
          <internalNodes>
            0 -1 220 -1.8893927335739136e-02</internalNodes>
          <leafValues>
            7.9883968830108643e-01 -1.8274982273578644e-01</leafValues></_>
        <_>
          <internalNodes>
            0 -1 82 -2.0135217346251011e-04</internalNodes>
          <leafValues>
            5.8387422561645508e-01 -2.0547719299793243e-01</leafValues></_></weakClassifiers></_>
    <!-- stage 3 -->
    <_>
      <maxWeakCount>7</maxWeakCount>
      <stageThreshold>-1.1539193391799927e+00</stageThreshold>
      <weakClassifiers>
        <_>
          <internalNodes>
            0 -1 161 2.4031857028603554e-03</internalNodes>
          <leafValues>
            -7.2251307964324951e-01 4.7999998927116394e-01</leafValues></_>
        <_>
          <internalNodes>
            0 -1 120 2.6672510430216789e-03</internalNodes>
          <leafValues>
            -3.2956346869468689e-01 4.7995495796203613e-01</leafValues></_>
        <_>
          <internalNodes>
            0 -1 15 -1.6618216037750244e-01</internalNodes>
          <leafValues>
            -8.6641961336135864e-01 1.1328306794166565e-01</leafValues></_>
        <_>
          <internalNodes>
            0 -1 67 3.1990833580493927e-02</internalNodes>
          <leafValues>
            2.3546458780765533e-01 -5.8066385984420776e-01</leafValues></_>
        <_>
          <internalNodes>
            0 -1 135 8.7994543719105422e-05</internalNodes>
          <leafValues>
            -2.6073578000068665e-01 5.2577841281890869e-01</leafValues></_>
        <_>
          <internalNodes>
            0 -1 172 -1.8993896665051579e-03</internalNodes>
          <leafValues>
            6.3261312246322632e-01 -1.4450733363628387e-01</leafValues></_>
        <_>
          <internalNodes>
            0 -1 59 9.4183906912803650e-03</internalNodes>
          <leafValues>
            1.4784115552902222e-01 -7.5545388460159302e-01</leafValues></_></weakClassifiers></_>
    <!-- stage 4 -->
    <_>
      <maxWeakCount>11</maxWeakCount>
      <stageThreshold>-1.5168576240539551e+00</stageThreshold>
      <weakClassifiers>
        <_>
          <internalNodes>
            0 -1 156 1.6089773271232843e-03</internalNodes>
          <leafValues>
            -7.1453440189361572e-01 3.6170211434364319e-01</leafValues></_>
        <_>
          <internalNodes>
            0 -1 104 -1.1579638521652669e-04</internalNodes>
          <leafValues>
            -5.6145292520523071e-01 4.1484285145998001e-02</leafValues></_>
        <_>
          <internalNodes>
            0 -1 83 5.5851901379355695e-06</internalNodes>
          <leafValues>
            -2.6837858557701111e-01 3.0997258424758911e-01</leafValues></_>
        <_>
          <internalNodes>
            0 -1 236 2.1974733681418002e-04</internalNodes>
          <leafValues>
            -1.9341489672660828e-01 5.0123584270477295e-01</leafValues></_>
        <_>
          <internalNodes>
            0 -1 155 -8.3693796768784523e-03</internalNodes>
          <leafValues>
            5.4457378387451172e-01 -1.4885623753070831e-01</leafValues></_>
        <_>
          <internalNodes>
            0 -1 4 -5.7170288637280464e-03</internalNodes>
          <leafValues>
            -6.1681282520294189e-01 1.9388830661773682e-01</leafValues></_>
        <_>
          <internalNodes>
            0 -1 245 3.9447445305995643e-04</internalNodes>
          <leafValues>
            1.9826552271842957e-01 -4.4125595688819885e-01</leafValues></_>
        <_>
          <internalNodes>
            0 -1 176 -1.4145601540803909e-02</internalNodes>
          <leafValues>
            5.3904265165328979e-01 -1.9260813295841217e-01</leafValues></_>
        <_>
          <internalNodes>
            0 -1 204 -5.9080616665596608e-06</internalNodes>
          <leafValues>
            3.5853916406631470e-01 -2.2524744272232056e-01</leafValues></_>
        <_>
          <internalNodes>
            0 -1 129 -1.1581737548112869e-02</internalNodes>
          <leafValues>
            3.2035192847251892e-01 -2.5192409753799438e-01</leafValues></_>
        <_>
          <internalNodes>
            0 -1 260 9.4383675605058670e-04</internalNodes>
          <leafValues>
            1.5394076704978943e-01 -5.3931862115859985e-01</leafValues></_></weakClassifiers></_>
    <!-- stage 5 -->
    <_>
      <maxWeakCount>10</maxWeakCount>
      <stageThreshold>-1.4429141283035278e+00</stageThreshold>
      <weakClassifiers>
        <_>
          <internalNodes>
            0 -1 77 9.1183960437774658e-02</internalNodes>
          <leafValues>
            -7.7042800188064575e-01 -7.1428574621677399e-02</leafValues></_>
        <_>
          <internalNodes>
            0 -1 168 1.9277883693575859e-02</internalNodes>
          <leafValues>
            -3.8293761014938354e-01 3.9922675490379333e-01</leafValues></_>
        <_>
          <internalNodes>
            0 -1 113 -6.0920440591871738e-04</internalNodes>
          <leafValues>
            -6.6090691089630127e-01 1.5693740546703339e-01</leafValues></_>
        <_>
          <internalNodes>
            0 -1 136 -1.1876202188432217e-04</internalNodes>
          <leafValues>
            -5.1049077510833740e-01 1.7836824059486389e-01</leafValues></_>
        <_>
          <internalNodes>
            0 -1 175 1.8801219994202256e-04</internalNodes>
          <leafValues>
            1.5510635077953339e-01 -6.7462778091430664e-01</leafValues></_>
        <_>
          <internalNodes>
            0 -1 175 -1.6516365576535463e-04</internalNodes>
          <leafValues>
            -6.5465730428695679e-01 1.7107981443405151e-01</leafValues></_>
        <_>
          <internalNodes>
            0 -1 231 -4.1863264050334692e-04</internalNodes>
          <leafValues>
            2.4624347686767578e-01 -3.9505591988563538e-01</leafValues></_>
        <_>
          <internalNodes>
            0 -1 227 1.8558301031589508e-02</internalNodes>
          <leafValues>
            -1.9136793911457062e-01 5.7581460475921631e-01</leafValues></_>
        <_>
          <internalNodes>
            0 -1 84 -5.3219972178339958e-03</internalNodes>
          <leafValues>
            5.0795596837997437e-01 -2.1579135954380035e-01</leafValues></_>
        <_>
          <internalNodes>
            0 -1 250 2.9364161309786141e-04</internalNodes>
          <leafValues>
            1.5445743501186371e-01 -6.2894421815872192e-01</leafValues></_></weakClassifiers></_>
    <!-- stage 6 -->
    <_>
      <maxWeakCount>14</maxWeakCount>
      <stageThreshold>-1.5184041261672974e+00</stageThreshold>
      <weakClassifiers>
        <_>
          <internalNodes>
            0 -1 140 1.6271993517875671e-02</internalNodes>
          <leafValues>
            -7.0956522226333618e-01 2.6086956262588501e-01</leafValues></_>
        <_>
          <internalNodes>
            0 -1 107 1.5325194597244263e-01</internalNodes>
          <leafValues>
            -3.3875638246536255e-01 2.9351645708084106e-01</leafValues></_>
        <_>
          <internalNodes>
            0 -1 64 -8.4108427166938782e-02</internalNodes>
          <leafValues>
            5.0828158855438232e-01 -2.3064205050468445e-01</leafValues></_>
        <_>
          <internalNodes>
            0 -1 34 -2.0096656226087362e-04</internalNodes>
          <leafValues>
            -5.1702994108200073e-01 1.6327309608459473e-01</leafValues></_>
        <_>
          <internalNodes>
            0 -1 195 -2.2745698515791446e-05</internalNodes>
          <leafValues>
            2.6547068357467651e-01 -3.0689117312431335e-01</leafValues></_>
        <_>
          <internalNodes>
            0 -1 159 -7.4815819971263409e-05</internalNodes>
          <leafValues>
            -5.4689812660217285e-01 1.1530312895774841e-01</leafValues></_>
        <_>
          <internalNodes>
            0 -1 160 2.1090419613756239e-04</internalNodes>
          <leafValues>
            1.7384007573127747e-01 -5.9044051170349121e-01</leafValues></_>
        <_>
          <internalNodes>
            0 -1 184 4.3677450157701969e-03</internalNodes>
          <leafValues>
            -2.2310873866081238e-01 3.9742222428321838e-01</leafValues></_>
        <_>
          <internalNodes>
            0 -1 246 -1.3296131510287523e-04</internalNodes>
          <leafValues>
            -6.2876063585281372e-01 1.3002668321132660e-01</leafValues></_>
        <_>
          <internalNodes>
            0 -1 143 2.4793907068669796e-03</internalNodes>
          <leafValues>
            -3.0198004841804504e-01 2.7771964669227600e-01</leafValues></_>
        <_>
          <internalNodes>
            0 -1 100 1.9357760902494192e-03</internalNodes>
          <leafValues>
            1.6685937345027924e-01 -4.9736389517784119e-01</leafValues></_>
        <_>
          <internalNodes>
            0 -1 40 2.0542725920677185e-02</internalNodes>
          <leafValues>
            -1.6772875189781189e-01 4.8356199264526367e-01</leafValues></_>
        <_>
          <internalNodes>
            0 -1 146 1.4142933301627636e-02</internalNodes>
          <leafValues>
            -1.7415879666805267e-01 4.1760465502738953e-01</leafValues></_>
        <_>
          <internalNodes>
            0 -1 152 -9.0126674622297287e-03</internalNodes>
          <leafValues>
            3.7155014276504517e-01 -2.2237096726894379e-01</leafValues></_></weakClassifiers></_>
    <!-- stage 7 -->
    <_>
      <maxWeakCount>18</maxWeakCount>
      <stageThreshold>-1.6468902826309204e+00</stageThreshold>
      <weakClassifiers>
        <_>
          <internalNodes>
            0 -1 97 -3.8086744025349617e-03</internalNodes>
          <leafValues>
            -1.6521738469600677e-01 -7.2617948055267334e-01</leafValues></_>
        <_>
          <internalNodes>
            0 -1 27 -1.6468767076730728e-02</internalNodes>
          <leafValues>
            2.0072388648986816e-01 -3.4690102934837341e-01</leafValues></_>
        <_>
          <internalNodes>
            0 -1 60 -1.3093567395117134e-04</internalNodes>
          <leafValues>
            -6.9051659107208252e-01 9.3906193971633911e-02</leafValues></_>
        <_>
          <internalNodes>
            0 -1 207 -2.2247845481615514e-04</internalNodes>
          <leafValues>
            -4.2717835307121277e-01 1.7076840996742249e-01</leafValues></_>
        <_>
          <internalNodes>
            0 -1 254 7.2632814408279955e-05</internalNodes>
          <leafValues>
            1.3715311884880066e-01 -4.3439406156539917e-01</leafValues></_>
        <_>
          <internalNodes>
            0 -1 14 1.4733817428350449e-02</internalNodes>
          <leafValues>
            -1.1533270031213760e-01 6.0887402296066284e-01</leafValues></_>
        <_>
          <internalNodes>
            0 -1 50 -5.2268542349338531e-02</internalNodes>
          <leafValues>
            3.8195836544036865e-01 -1.5573795139789581e-01</leafValues></_>
        <_>
          <internalNodes>
            0 -1 61 1.3106688857078552e-01</internalNodes>
          <leafValues>
            -2.0651267468929291e-01 3.3637237548828125e-01</leafValues></_>
        <_>
          <internalNodes>
            0 -1 53 7.1999034844338894e-05</internalNodes>
          <leafValues>
            1.7570094764232635e-01 -3.5367995500564575e-01</leafValues></_>
        <_>
          <internalNodes>
            0 -1 108 -2.0621679723262787e-03</internalNodes>
          <leafValues>
            3.6013355851173401e-01 -1.7206473648548126e-01</leafValues></_>
        <_>
          <internalNodes>
            0 -1 131 -3.0462804716080427e-04</internalNodes>
          <leafValues>
            -4.1824352741241455e-01 1.4023146033287048e-01</leafValues></_>
        <_>
          <internalNodes>
            0 -1 251 3.6039051337866113e-05</internalNodes>
          <leafValues>
            1.4624491333961487e-01 -4.3678557872772217e-01</leafValues></_>
        <_>
          <internalNodes>
            0 -1 81 -2.6195678859949112e-02</internalNodes>
          <leafValues>
            3.8277801871299744e-01 -1.7717711627483368e-01</leafValues></_>
        <_>
          <internalNodes>
            0 -1 249 -1.0412193834781647e-02</internalNodes>
          <leafValues>
            4.0487226843833923e-01 -1.6256888210773468e-01</leafValues></_>
        <_>
          <internalNodes>
            0 -1 157 -2.1454012021422386e-03</internalNodes>
          <leafValues>
            -5.4464977979660034e-01 1.1627490818500519e-01</leafValues></_>
        <_>
          <internalNodes>
            0 -1 115 1.3665378792211413e-03</internalNodes>
          <leafValues>
            1.5198475122451782e-01 -4.0491700172424316e-01</leafValues></_>
        <_>
          <internalNodes>
            0 -1 22 5.7072043418884277e-03</internalNodes>
          <leafValues>
            -1.7615813016891479e-01 4.1121411323547363e-01</leafValues></_>
        <_>
          <internalNodes>
            0 -1 199 1.1820597137557343e-05</internalNodes>
          <leafValues>
            -3.1706163287162781e-01 2.2056935727596283e-01</leafValues></_></weakClassifiers></_>
    <!-- stage 8 -->
    <_>
      <maxWeakCount>18</maxWeakCount>
      <stageThreshold>-1.3207111358642578e+00</stageThreshold>
      <weakClassifiers>
        <_>
          <internalNodes>
            0 -1 114 -1.4065837487578392e-02</internalNodes>
          <leafValues>
            1. -6.8776369094848633e-01</leafValues></_>
        <_>
          <internalNodes>
            0 -1 230 2.6134304702281952e-02</internalNodes>
          <leafValues>
            -2.6148641109466553e-01 3.4153157472610474e-01</leafValues></_>
        <_>
          <internalNodes>
            0 -1 205 -1.4325973461382091e-04</internalNodes>
          <leafValues>
            1.9673746824264526e-01 -3.0373036861419678e-01</leafValues></_>
        <_>
          <internalNodes>
            0 -1 109 -9.1707557439804077e-02</internalNodes>
          <leafValues>
            -8.3162164688110352e-01 6.8706586956977844e-02</leafValues></_>
        <_>
          <internalNodes>
            0 -1 46 -7.6811914332211018e-03</internalNodes>
          <leafValues>
            3.0914413928985596e-01 -2.2356320917606354e-01</leafValues></_>
        <_>
          <internalNodes>
            0 -1 137 -1.4325922820717096e-03</internalNodes>
          <leafValues>
            -4.3854960799217224e-01 1.3889080286026001e-01</leafValues></_>
        <_>
          <internalNodes>
            0 -1 185 2.0182421430945396e-03</internalNodes>
          <leafValues>
            -1.1707752943038940e-01 4.9864017963409424e-01</leafValues></_>
        <_>
          <internalNodes>
            0 -1 191 -3.3587816869840026e-04</internalNodes>
          <leafValues>
            -4.6800088882446289e-01 1.1906842142343521e-01</leafValues></_>
        <_>
          <internalNodes>
            0 -1 56 6.3252583146095276e-02</internalNodes>
          <leafValues>
            1.2158042937517166e-01 -5.9600496292114258e-01</leafValues></_>
        <_>
          <internalNodes>
            0 -1 255 -2.3449992295354605e-04</internalNodes>
          <leafValues>
            -3.4539937973022461e-01 1.8850001692771912e-01</leafValues></_>
        <_>
          <internalNodes>
            0 -1 210 1.7210675403475761e-02</internalNodes>
          <leafValues>
            -1.9200403988361359e-01 3.4916096925735474e-01</leafValues></_>
        <_>
          <internalNodes>
            0 -1 215 -8.8640395551919937e-03</internalNodes>
          <leafValues>
            4.1279587149620056e-01 -1.6986472904682159e-01</leafValues></_>
        <_>
          <internalNodes>
            0 -1 130 -7.9632429406046867e-03</internalNodes>
          <leafValues>
            -5.1427388191223145e-01 1.3190399110317230e-01</leafValues></_>
        <_>
          <internalNodes>
            0 -1 90 -2.8274429496377707e-04</internalNodes>
          <leafValues>
            3.9983817934989929e-01 -1.6433361172676086e-01</leafValues></_>
        <_>
          <internalNodes>
            0 -1 234 -1.3382654637098312e-02</internalNodes>
          <leafValues>
            4.5674499869346619e-01 -1.3213309645652771e-01</leafValues></_>
        <_>
          <internalNodes>
            0 -1 241 -1.3689848128706217e-03</internalNodes>
          <leafValues>
            -5.8435320854187012e-01 1.1302696168422699e-01</leafValues></_>
        <_>
          <internalNodes>
            0 -1 16 -2.5193226337432861e-01</internalNodes>
          <leafValues>
            -9.7504508495330811e-01 4.5860711485147476e-02</leafValues></_>
        <_>
          <internalNodes>
            0 -1 68 -6.6573644289746881e-05</internalNodes>
          <leafValues>
            2.4667795002460480e-01 -2.3833371698856354e-01</leafValues></_></weakClassifiers></_>
    <!-- stage 9 -->
    <_>
      <maxWeakCount>16</maxWeakCount>
      <stageThreshold>-1.4701645374298096e+00</stageThreshold>
      <weakClassifiers>
        <_>
          <internalNodes>
            0 -1 38 -1.5966497361660004e-02</internalNodes>
          <leafValues>
            4.2857143282890320e-01 -6.9191491603851318e-01</leafValues></_>
        <_>
          <internalNodes>
            0 -1 235 2.4151583784259856e-04</internalNodes>
          <leafValues>
            -3.5015527158975601e-02 -5.4906749725341797e-01</leafValues></_>
        <_>
          <internalNodes>
            0 -1 171 -2.9200289398431778e-02</internalNodes>
          <leafValues>
            4.0657639503479004e-01 -1.4857232570648193e-01</leafValues></_>
        <_>
          <internalNodes>
            0 -1 192 8.0791739746928215e-03</internalNodes>
          <leafValues>
            -8.0989278852939606e-02 5.9054732322692871e-01</leafValues></_>
        <_>
          <internalNodes>
            0 -1 36 2.9288321733474731e-02</internalNodes>
          <leafValues>
            -1.3053390383720398e-01 4.0253305435180664e-01</leafValues></_>
        <_>
          <internalNodes>
            0 -1 139 -2.5556259788572788e-04</internalNodes>
          <leafValues>
            -6.8451273441314697e-01 1.2447447329759598e-01</leafValues></_>
        <_>
          <internalNodes>
            0 -1 174 1.1258044978603721e-03</internalNodes>
          <leafValues>
            -2.4881224334239960e-01 2.0228077471256256e-01</leafValues></_>
        <_>
          <internalNodes>
            0 -1 102 -1.0309131175745279e-04</internalNodes>
          <leafValues>
            -4.1481950879096985e-01 1.4574511349201202e-01</leafValues></_>
        <_>
          <internalNodes>
            0 -1 72 -5.7693931739777327e-04</internalNodes>
          <leafValues>
            4.1924026608467102e-01 -1.4507837593555450e-01</leafValues></_>
        <_>
          <internalNodes>
            0 -1 3 2.7255337685346603e-02</internalNodes>
          <leafValues>
            1.0884239524602890e-01 -5.5016762018203735e-01</leafValues></_>
        <_>
          <internalNodes>
            0 -1 75 -7.1529052220284939e-03</internalNodes>
          <leafValues>
            6.6468870639801025e-01 -1.0746069252490997e-01</leafValues></_>
        <_>
          <internalNodes>
            0 -1 93 -3.1196544878184795e-03</internalNodes>
          <leafValues>
            -4.5915523171424866e-01 1.4699536561965942e-01</leafValues></_>
        <_>
          <internalNodes>
            0 -1 164 -6.0367859899997711e-02</internalNodes>
          <leafValues>
            3.4094506502151489e-01 -1.6685850918292999e-01</leafValues></_>
        <_>
          <internalNodes>
            0 -1 76 -1.7238050699234009e-02</internalNodes>
          <leafValues>
            2.6169690489768982e-01 -2.3225274682044983e-01</leafValues></_>
        <_>
          <internalNodes>
            0 -1 65 -1.2393407523632050e-02</internalNodes>
          <leafValues>
            3.9616015553474426e-01 -1.5699206292629242e-01</leafValues></_>
        <_>
          <internalNodes>
            0 -1 238 9.8061173048336059e-05</internalNodes>
          <leafValues>
            1.4914873242378235e-01 -4.0489348769187927e-01</leafValues></_></weakClassifiers></_>
    <!-- stage 10 -->
    <_>
      <maxWeakCount>17</maxWeakCount>
      <stageThreshold>-1.3498071432113647e+00</stageThreshold>
      <weakClassifiers>
        <_>
          <internalNodes>
            0 -1 24 8.2050245255231857e-03</internalNodes>
          <leafValues>
            -7.1223020553588867e-01 -1.4285714924335480e-01</leafValues></_>
        <_>
          <internalNodes>
            0 -1 51 -1.4323839545249939e-01</internalNodes>
          <leafValues>
            1.7182648181915283e-01 -3.3650884032249451e-01</leafValues></_>
        <_>
          <internalNodes>
            0 -1 228 -1.0535547517065424e-05</internalNodes>
          <leafValues>
            2.1474206447601318e-01 -2.4466590583324432e-01</leafValues></_>
        <_>
          <internalNodes>
            0 -1 177 -8.4729045629501343e-02</internalNodes>
          <leafValues>
            -7.5509464740753174e-01 6.9629095494747162e-02</leafValues></_>
        <_>
          <internalNodes>
            0 -1 116 3.7530239205807447e-04</internalNodes>
          <leafValues>
            1.2206554412841797e-01 -4.8888635635375977e-01</leafValues></_>
        <_>
          <internalNodes>
            0 -1 118 5.7747797109186649e-03</internalNodes>
          <leafValues>
            -1.7263412475585938e-01 3.3648127317428589e-01</leafValues></_>
        <_>
          <internalNodes>
            0 -1 73 1.7678823322057724e-02</internalNodes>
          <leafValues>
            -1.1204282939434052e-01 5.6626719236373901e-01</leafValues></_>
        <_>
          <internalNodes>
            0 -1 66 -7.7549936249852180e-03</internalNodes>
          <leafValues>
            4.4688856601715088e-01 -1.2815953791141510e-01</leafValues></_>
        <_>
          <internalNodes>
            0 -1 126 1.6740409773774445e-04</internalNodes>
          <leafValues>
            9.6768610179424286e-02 -6.1273682117462158e-01</leafValues></_>
        <_>
          <internalNodes>
            0 -1 42 8.2943048328161240e-03</internalNodes>
          <leafValues>
            -2.1798463165760040e-01 2.6856520771980286e-01</leafValues></_>
        <_>
          <internalNodes>
            0 -1 13 -3.1007492914795876e-02</internalNodes>
          <leafValues>
            -6.3194990158081055e-01 9.5799729228019714e-02</leafValues></_>
        <_>
          <internalNodes>
            0 -1 134 -5.9042330831289291e-03</internalNodes>
          <leafValues>
            4.3143871426582336e-01 -1.5487204492092133e-01</leafValues></_>
        <_>
          <internalNodes>
            0 -1 47 1.2080197036266327e-01</internalNodes>
          <leafValues>
            -2.0223668217658997e-01 4.2215976119041443e-01</leafValues></_>
        <_>
          <internalNodes>
            0 -1 167 -1.8124622874893248e-04</internalNodes>
          <leafValues>
            2.8160160779953003e-01 -1.9925706088542938e-01</leafValues></_>
        <_>
          <internalNodes>
            0 -1 119 7.8254997730255127e-02</internalNodes>
          <leafValues>
            -1.0014015436172485e-01 5.6942921876907349e-01</leafValues></_>
        <_>
          <internalNodes>
            0 -1 216 -9.5010080258361995e-05</internalNodes>
          <leafValues>
            -2.9837957024574280e-01 1.9756309688091278e-01</leafValues></_>
        <_>
          <internalNodes>
            0 -1 222 -6.5940888598561287e-03</internalNodes>
          <leafValues>
            3.7508821487426758e-01 -1.9943636655807495e-01</leafValues></_></weakClassifiers></_>
    <!-- stage 11 -->
    <_>
      <maxWeakCount>16</maxWeakCount>
      <stageThreshold>-1.2287564277648926e+00</stageThreshold>
      <weakClassifiers>
        <_>
          <internalNodes>
            0 -1 166 1.6863986849784851e-02</internalNodes>
          <leafValues>
            -7.4844074249267578e-01 -3.5897436738014221e-01</leafValues></_>
        <_>
          <internalNodes>
            0 -1 149 -9.2180082574486732e-03</internalNodes>
          <leafValues>
            2.0304688811302185e-01 -3.0048051476478577e-01</leafValues></_>
        <_>
          <internalNodes>
            0 -1 219 1.0296519845724106e-02</internalNodes>
          <leafValues>
            -1.6017265617847443e-01 3.2739129662513733e-01</leafValues></_>
        <_>
          <internalNodes>
            0 -1 125 -5.1398114010225981e-05</internalNodes>
          <leafValues>
            -2.9772880673408508e-01 1.7469324171543121e-01</leafValues></_>
        <_>
          <internalNodes>
            0 -1 12 -1.0405494272708893e-01</internalNodes>
          <leafValues>
            3.6753699183464050e-01 -1.5317882597446442e-01</leafValues></_>
        <_>
          <internalNodes>
            0 -1 110 -8.1774836871773005e-05</internalNodes>
          <leafValues>
            -4.3851783871650696e-01 1.6340343654155731e-01</leafValues></_>
        <_>
          <internalNodes>
            0 -1 29 -8.8891405612230301e-03</internalNodes>
          <leafValues>
            -1. 4.5395683497190475e-02</leafValues></_>
        <_>
          <internalNodes>
            0 -1 25 -3.4862100146710873e-03</internalNodes>
          <leafValues>
            4.2825117707252502e-01 -1.3630896806716919e-01</leafValues></_>
        <_>
          <internalNodes>
            0 -1 112 3.7863665056647733e-05</internalNodes>
          <leafValues>
            1.5606893599033356e-01 -3.4864267706871033e-01</leafValues></_>
        <_>
          <internalNodes>
            0 -1 88 3.5260999575257301e-03</internalNodes>
          <leafValues>
            5.9998258948326111e-02 -8.5652399063110352e-01</leafValues></_>
        <_>
          <internalNodes>
            0 -1 208 -1.2380082625895739e-03</internalNodes>
          <leafValues>
            4.4419804215431213e-01 -1.3352894783020020e-01</leafValues></_>
        <_>
          <internalNodes>
            0 -1 6 1.0803267359733582e-03</internalNodes>
          <leafValues>
            -1.5840426087379456e-01 3.2240700721740723e-01</leafValues></_>
        <_>
          <internalNodes>
            0 -1 33 6.8487031967379153e-05</internalNodes>
          <leafValues>
            1.7013494670391083e-01 -3.9627763628959656e-01</leafValues></_>
        <_>
          <internalNodes>
            0 -1 168 1.9582526758313179e-02</internalNodes>
          <leafValues>
            -1.8107487261295319e-01 3.3144217729568481e-01</leafValues></_>
        <_>
          <internalNodes>
            0 -1 193 2.0552431233227253e-03</internalNodes>
          <leafValues>
            -9.5300845801830292e-02 6.4030849933624268e-01</leafValues></_>
        <_>
          <internalNodes>
            0 -1 237 2.0439055515453219e-04</internalNodes>
          <leafValues>
            2.1772988140583038e-01 -2.5814154744148254e-01</leafValues></_></weakClassifiers></_>
    <!-- stage 12 -->
    <_>
      <maxWeakCount>19</maxWeakCount>
      <stageThreshold>-1.4745888710021973e+00</stageThreshold>
      <weakClassifiers>
        <_>
          <internalNodes>
            0 -1 163 -1.9653733819723129e-02</internalNodes>
          <leafValues>
            6.0000002384185791e-01 -6.9387757778167725e-01</leafValues></_>
        <_>
          <internalNodes>
            0 -1 242 -4.4770867680199444e-04</internalNodes>
          <leafValues>
            -5.9454786777496338e-01 -3.3268269151449203e-02</leafValues></_>
        <_>
          <internalNodes>
            0 -1 9 1.8097813153872266e-05</internalNodes>
          <leafValues>
            -2.8261262178421021e-01 1.8916727602481842e-01</leafValues></_>
        <_>
          <internalNodes>
            0 -1 117 1.6940727364271879e-03</internalNodes>
          <leafValues>
            -9.3038246035575867e-02 4.1137459874153137e-01</leafValues></_>
        <_>
          <internalNodes>
            0 -1 138 3.5968140582554042e-04</internalNodes>
          <leafValues>
            1.1266595870256424e-01 -4.0922915935516357e-01</leafValues></_>
        <_>
          <internalNodes>
            0 -1 198 1.1095402296632528e-03</internalNodes>
          <leafValues>
            -1.6233851015567780e-01 3.4341338276863098e-01</leafValues></_>
        <_>
          <internalNodes>
            0 -1 62 -4.0971118141897023e-04</internalNodes>
          <leafValues>
            -9.0764963626861572e-01 6.9812707602977753e-02</leafValues></_>
        <_>
          <internalNodes>
            0 -1 256 2.5752855435712263e-05</internalNodes>
          <leafValues>
            1.1701340228319168e-01 -3.7311640381813049e-01</leafValues></_>
        <_>
          <internalNodes>
            0 -1 96 2.3028911091387272e-03</internalNodes>
          <leafValues>
            -7.2283297777175903e-02 6.5539562702178955e-01</leafValues></_>
        <_>
          <internalNodes>
            0 -1 31 1.6478900215588510e-04</internalNodes>
          <leafValues>
            1.0410872846841812e-01 -5.6943565607070923e-01</leafValues></_>
        <_>
          <internalNodes>
            0 -1 201 1.7614700482226908e-05</internalNodes>
          <leafValues>
            -2.6618036627769470e-01 1.8609078228473663e-01</leafValues></_>
        <_>
          <internalNodes>
            0 -1 28 1.8181692808866501e-02</internalNodes>
          <leafValues>
            -1.2010467797517776e-01 4.4146424531936646e-01</leafValues></_>
        <_>
          <internalNodes>
            0 -1 127 -4.2407802538946271e-04</internalNodes>
          <leafValues>
            2.2836638987064362e-01 -2.1381384134292603e-01</leafValues></_>
        <_>
          <internalNodes>
            0 -1 48 -5.0626419484615326e-02</internalNodes>
          <leafValues>
            -5.7005101442337036e-01 8.0694623291492462e-02</leafValues></_>
        <_>
          <internalNodes>
            0 -1 95 -1.2121853796998039e-04</internalNodes>
          <leafValues>
            -3.6686322093009949e-01 1.3229851424694061e-01</leafValues></_>
        <_>
          <internalNodes>
            0 -1 94 1.5488320961594582e-02</internalNodes>
          <leafValues>
            -1.1978897452354431e-01 6.0414797067642212e-01</leafValues></_>
        <_>
          <internalNodes>
            0 -1 214 -1.1820354302471969e-05</internalNodes>
          <leafValues>
            2.7313497662544250e-01 -2.1292388439178467e-01</leafValues></_>
        <_>
          <internalNodes>
            0 -1 197 -1.6226021398324519e-04</internalNodes>
          <leafValues>
            -5.8922463655471802e-01 9.3739755451679230e-02</leafValues></_>
        <_>
          <internalNodes>
            0 -1 182 -6.8289474584162235e-03</internalNodes>
          <leafValues>
            2.9279232025146484e-01 -2.0547801256179810e-01</leafValues></_></weakClassifiers></_>
    <!-- stage 13 -->
    <_>
      <maxWeakCount>17</maxWeakCount>
      <stageThreshold>-1.3967564105987549e+00</stageThreshold>
      <weakClassifiers>
        <_>
          <internalNodes>
            0 -1 30 -1.5234515070915222e-02</internalNodes>
          <leafValues>
            6.2500000000000000e-01 -6.8983048200607300e-01</leafValues></_>
        <_>
          <internalNodes>
            0 -1 2 -1.6438202559947968e-01</internalNodes>
          <leafValues>
            -7.2737771272659302e-01 -7.3519445955753326e-02</leafValues></_>
        <_>
          <internalNodes>
            0 -1 45 -4.7815227881073952e-03</internalNodes>
          <leafValues>
            -7.5334537029266357e-01 4.9037396907806396e-02</leafValues></_>
        <_>
          <internalNodes>
            0 -1 258 -4.3459760490804911e-04</internalNodes>
          <leafValues>
            4.0432432293891907e-01 -1.0760304331779480e-01</leafValues></_>
        <_>
          <internalNodes>
            0 -1 49 -3.5121268592774868e-03</internalNodes>
          <leafValues>
            3.0344507098197937e-01 -1.7159116268157959e-01</leafValues></_>
        <_>
          <internalNodes>
            0 -1 142 -3.0713407322764397e-03</internalNodes>
          <leafValues>
            -5.1202619075775146e-01 1.1406922340393066e-01</leafValues></_>
        <_>
          <internalNodes>
            0 -1 162 -1.3101429212838411e-03</internalNodes>
          <leafValues>
            -4.9822852015495300e-01 8.1467546522617340e-02</leafValues></_>
        <_>
          <internalNodes>
            0 -1 169 8.7755946442484856e-03</internalNodes>
          <leafValues>
            -1.3420405983924866e-01 3.5299244523048401e-01</leafValues></_>
        <_>
          <internalNodes>
            0 -1 63 2.8207646682858467e-03</internalNodes>
          <leafValues>
            8.1215709447860718e-02 -6.8551516532897949e-01</leafValues></_>
        <_>
          <internalNodes>
            0 -1 74 -9.0218540281057358e-03</internalNodes>
          <leafValues>
            3.2085287570953369e-01 -1.7541572451591492e-01</leafValues></_>
        <_>
          <internalNodes>
            0 -1 128 1.1983242075075395e-05</internalNodes>
          <leafValues>
            -2.5699955224990845e-01 2.3597539961338043e-01</leafValues></_>
        <_>
          <internalNodes>
            0 -1 252 1.1565855238586664e-03</internalNodes>
          <leafValues>
            -1.4840768277645111e-01 3.4098887443542480e-01</leafValues></_>
        <_>
          <internalNodes>
            0 -1 233 -4.9446651246398687e-04</internalNodes>
          <leafValues>
            -4.8745661973953247e-01 1.0831104964017868e-01</leafValues></_>
        <_>
          <internalNodes>
            0 -1 44 4.1340766474604607e-03</internalNodes>
          <leafValues>
            4.6039123088121414e-02 -9.1204351186752319e-01</leafValues></_>
        <_>
          <internalNodes>
            0 -1 80 2.9814297333359718e-02</internalNodes>
          <leafValues>
            -1.0527983307838440e-01 5.2078384160995483e-01</leafValues></_>
        <_>
          <internalNodes>
            0 -1 32 7.8890402801334858e-04</internalNodes>
          <leafValues>
            1.4012904465198517e-01 -3.4347552061080933e-01</leafValues></_>
        <_>
          <internalNodes>
            0 -1 180 3.1835377216339111e-02</internalNodes>
          <leafValues>
            -1.5417441725730896e-01 3.3840367197990417e-01</leafValues></_></weakClassifiers></_>
    <!-- stage 14 -->
    <_>
      <maxWeakCount>19</maxWeakCount>
      <stageThreshold>-1.3902572393417358e+00</stageThreshold>
      <weakClassifiers>
        <_>
          <internalNodes>
            0 -1 202 -1.4074260834604502e-03</internalNodes>
          <leafValues>
            5.7142859697341919e-01 -6.8697124719619751e-01</leafValues></_>
        <_>
          <internalNodes>
            0 -1 89 -9.8821800202131271e-04</internalNodes>
          <leafValues>
            2.8407284617424011e-01 -2.5186020135879517e-01</leafValues></_>
        <_>
          <internalNodes>
            0 -1 43 5.2127535454928875e-03</internalNodes>
          <leafValues>
            -1.8468680977821350e-01 2.5994971394538879e-01</leafValues></_>
        <_>
          <internalNodes>
            0 -1 173 4.7409581020474434e-04</internalNodes>
          <leafValues>
            9.3011528253555298e-02 -6.2919896841049194e-01</leafValues></_>
        <_>
          <internalNodes>
            0 -1 226 1.4840237781754695e-05</internalNodes>
          <leafValues>
            -2.0027387142181396e-01 2.6295545697212219e-01</leafValues></_>
        <_>
          <internalNodes>
            0 -1 21 -3.6177899688482285e-02</internalNodes>
          <leafValues>
            2.8336307406425476e-01 -1.7987766861915588e-01</leafValues></_>
        <_>
          <internalNodes>
            0 -1 99 -5.0737056881189346e-03</internalNodes>
          <leafValues>
            -3.2016804814338684e-01 1.3463410735130310e-01</leafValues></_>
        <_>
          <internalNodes>
            0 -1 183 -9.0852528810501099e-03</internalNodes>
          <leafValues>
            4.0334111452102661e-01 -1.0914634913206100e-01</leafValues></_>
        <_>
          <internalNodes>
            0 -1 101 -4.6694777905941010e-02</internalNodes>
          <leafValues>
            3.9223107695579529e-01 -1.6728629171848297e-01</leafValues></_>
        <_>
          <internalNodes>
            0 -1 79 5.3559788502752781e-03</internalNodes>
          <leafValues>
            -8.6537033319473267e-02 5.6833231449127197e-01</leafValues></_>
        <_>
          <internalNodes>
            0 -1 0 1.2386118760332465e-04</internalNodes>
          <leafValues>
            9.0522587299346924e-02 -5.3607583045959473e-01</leafValues></_>
        <_>
          <internalNodes>
            0 -1 55 2.0389020210132003e-04</internalNodes>
          <leafValues>
            -1.2380558252334595e-01 3.3107247948646545e-01</leafValues></_>
        <_>
          <internalNodes>
            0 -1 41 -1.8742005340754986e-03</internalNodes>
          <leafValues>
            -4.9177876114845276e-01 8.6673051118850708e-02</leafValues></_>
        <_>
          <internalNodes>
            0 -1 19 -4.1264064610004425e-02</internalNodes>
          <leafValues>
            3.4095010161399841e-01 -1.5512004494667053e-01</leafValues></_>
        <_>
          <internalNodes>
            0 -1 91 3.3133868128061295e-03</internalNodes>
          <leafValues>
            6.4661070704460144e-02 -7.1212470531463623e-01</leafValues></_>
        <_>
          <internalNodes>
            0 -1 232 9.6937008202075958e-03</internalNodes>
          <leafValues>
            -1.3312588632106781e-01 3.9696362614631653e-01</leafValues></_>
        <_>
          <internalNodes>
            0 -1 71 3.0008054454810917e-04</internalNodes>
          <leafValues>
            1.5068224072456360e-01 -3.5638213157653809e-01</leafValues></_>
        <_>
          <internalNodes>
            0 -1 239 1.4147113688522950e-05</internalNodes>
          <leafValues>
            -2.0564644038677216e-01 2.5898620486259460e-01</leafValues></_>
        <_>
          <internalNodes>
            0 -1 20 7.5678515713661909e-04</internalNodes>
          <leafValues>
            -1.1873241513967514e-01 4.4818022847175598e-01</leafValues></_></weakClassifiers></_>
    <!-- stage 15 -->
    <_>
      <maxWeakCount>17</maxWeakCount>
      <stageThreshold>-1.3058344125747681e+00</stageThreshold>
      <weakClassifiers>
        <_>
          <internalNodes>
            0 -1 211 -1.8127191811800003e-02</internalNodes>
          <leafValues>
            5.6521737575531006e-01 -6.9650471210479736e-01</leafValues></_>
        <_>
          <internalNodes>
            0 -1 1 -2.6023571845144033e-03</internalNodes>
          <leafValues>
            -4.6163174510002136e-01 -1.4235460199415684e-02</leafValues></_>
        <_>
          <internalNodes>
            0 -1 189 6.1639491468667984e-04</internalNodes>
          <leafValues>
            8.5264042019844055e-02 -5.2342385053634644e-01</leafValues></_>
        <_>
          <internalNodes>
            0 -1 23 -6.7379958927631378e-03</internalNodes>
          <leafValues>
            -9.1001558303833008e-01 6.7261472344398499e-02</leafValues></_>
        <_>
          <internalNodes>
            0 -1 196 -7.9441107809543610e-03</internalNodes>
          <leafValues>
            -8.3753013610839844e-01 6.3329793512821198e-02</leafValues></_>
        <_>
          <internalNodes>
            0 -1 223 4.4748585787601769e-04</internalNodes>
          <leafValues>
            -1.6308708488941193e-01 3.5520467162132263e-01</leafValues></_>
        <_>
          <internalNodes>
            0 -1 257 -6.2471779529005289e-05</internalNodes>
          <leafValues>
            -3.8877889513969421e-01 1.3569958508014679e-01</leafValues></_>
        <_>
          <internalNodes>
            0 -1 224 2.8426395147107542e-04</internalNodes>
          <leafValues>
            6.3545405864715576e-02 -7.4787974357604980e-01</leafValues></_>
        <_>
          <internalNodes>
            0 -1 212 -3.7843530299142003e-04</internalNodes>
          <leafValues>
            3.8842144608497620e-01 -1.4893706142902374e-01</leafValues></_>
        <_>
          <internalNodes>
            0 -1 217 -9.9894466984551400e-05</internalNodes>
          <leafValues>
            2.3015068471431732e-01 -2.3519876599311829e-01</leafValues></_>
        <_>
          <internalNodes>
            0 -1 148 -5.2591655403375626e-03</internalNodes>
          <leafValues>
            2.8459212183952332e-01 -1.7298953235149384e-01</leafValues></_>
        <_>
          <internalNodes>
            0 -1 70 -7.7903084456920624e-04</internalNodes>
          <leafValues>
            3.4833261370658875e-01 -1.6038128733634949e-01</leafValues></_>
        <_>
          <internalNodes>
            0 -1 240 -8.7198626715689898e-05</internalNodes>
          <leafValues>
            -4.2912194132804871e-01 1.3044224679470062e-01</leafValues></_>
        <_>
          <internalNodes>
            0 -1 86 2.0002022385597229e-02</internalNodes>
          <leafValues>
            1.6411475837230682e-01 -2.9357179999351501e-01</leafValues></_>
        <_>
          <internalNodes>
            0 -1 132 -9.0218913101125509e-05</internalNodes>
          <leafValues>
            -5.3840255737304688e-01 9.3317337334156036e-02</leafValues></_>
        <_>
          <internalNodes>
            0 -1 87 -8.2438706886023283e-04</internalNodes>
          <leafValues>
            5.5783212184906006e-01 -9.6884541213512421e-02</leafValues></_>
        <_>
          <internalNodes>
            0 -1 243 -2.8905901126563549e-04</internalNodes>
          <leafValues>
            -3.3856973052024841e-01 1.6734614968299866e-01</leafValues></_></weakClassifiers></_>
    <!-- stage 16 -->
    <_>
      <maxWeakCount>20</maxWeakCount>
      <stageThreshold>-1.4684458971023560e+00</stageThreshold>
      <weakClassifiers>
        <_>
          <internalNodes>
            0 -1 145 -5.6744549423456192e-02</internalNodes>
          <leafValues>
            8.1818181276321411e-01 -6.8607592582702637e-01</leafValues></_>
        <_>
          <internalNodes>
            0 -1 150 -2.8321381658315659e-02</internalNodes>
          <leafValues>
            -9.4154858589172363e-01 -8.9190296828746796e-02</leafValues></_>
        <_>
          <internalNodes>
            0 -1 105 -6.9327682256698608e-02</internalNodes>
          <leafValues>
            -6.2144398689270020e-01 9.9206693470478058e-02</leafValues></_>
        <_>
          <internalNodes>
            0 -1 8 1.0646298527717590e-02</internalNodes>
          <leafValues>
            -2.1775272488594055e-01 2.2362436354160309e-01</leafValues></_>
        <_>
          <internalNodes>
            0 -1 133 3.3616768196225166e-03</internalNodes>
          <leafValues>
            -1.2722311913967133e-01 3.8664141297340393e-01</leafValues></_>
        <_>
          <internalNodes>
            0 -1 221 -8.1369662657380104e-03</internalNodes>
          <leafValues>
            5.6688916683197021e-01 -8.4558799862861633e-02</leafValues></_>
        <_>
          <internalNodes>
            0 -1 158 -1.4120030755293556e-05</internalNodes>
          <leafValues>
            1.8327641487121582e-01 -2.6152315735816956e-01</leafValues></_>
        <_>
          <internalNodes>
            0 -1 85 -6.9252923130989075e-03</internalNodes>
          <leafValues>
            5.2905410528182983e-01 -8.7675191462039948e-02</leafValues></_>
        <_>
          <internalNodes>
            0 -1 247 1.8235723255202174e-03</internalNodes>
          <leafValues>
            -1.0386411100625992e-01 4.5889157056808472e-01</leafValues></_>
        <_>
          <internalNodes>
            0 -1 39 2.4431889876723289e-02</internalNodes>
          <leafValues>
            -9.5646150410175323e-02 5.4137217998504639e-01</leafValues></_>
        <_>
          <internalNodes>
            0 -1 144 2.1034274250268936e-02</internalNodes>
          <leafValues>
            -1.4835344254970551e-01 3.1191825866699219e-01</leafValues></_>
        <_>
          <internalNodes>
            0 -1 58 7.1898564696311951e-02</internalNodes>
          <leafValues>
            1.0801008343696594e-01 -6.3433068990707397e-01</leafValues></_>
        <_>
          <internalNodes>
            0 -1 190 3.3334217732772231e-05</internalNodes>
          <leafValues>
            -2.1328388154506683e-01 2.7059471607208252e-01</leafValues></_>
        <_>
          <internalNodes>
            0 -1 229 1.3913051225244999e-04</internalNodes>
          <leafValues>
            1.5005661547183990e-01 -3.6941912770271301e-01</leafValues></_>
        <_>
          <internalNodes>
            0 -1 11 -4.8024114221334457e-03</internalNodes>
          <leafValues>
            -4.6063363552093506e-01 9.7727894783020020e-02</leafValues></_>
        <_>
          <internalNodes>
            0 -1 111 -9.2723164707422256e-03</internalNodes>
          <leafValues>
            -4.9652269482612610e-01 1.1277201026678085e-01</leafValues></_>
        <_>
          <internalNodes>
            0 -1 213 -3.6563506000675261e-05</internalNodes>
          <leafValues>
            -3.5379239916801453e-01 1.3341338932514191e-01</leafValues></_>
        <_>
          <internalNodes>
            0 -1 78 7.4810325168073177e-04</internalNodes>
          <leafValues>
            -7.4857331812381744e-02 7.1207547187805176e-01</leafValues></_>
        <_>
          <internalNodes>
            0 -1 52 -6.6488124430179596e-02</internalNodes>
          <leafValues>
            2.6993197202682495e-01 -1.9257448613643646e-01</leafValues></_>
        <_>
          <internalNodes>
            0 -1 123 -1.3836354017257690e-02</internalNodes>
          <leafValues>
            4.3239051103591919e-01 -1.2682072818279266e-01</leafValues></_></weakClassifiers></_>
    <!-- stage 17 -->
    <_>
      <maxWeakCount>19</maxWeakCount>
      <stageThreshold>-1.4278699159622192e+00</stageThreshold>
      <weakClassifiers>
        <_>
          <internalNodes>
            0 -1 35 -4.1340209543704987e-02</internalNodes>
          <leafValues>
            1. -6.8491995334625244e-01</leafValues></_>
        <_>
          <internalNodes>
            0 -1 261 2.0110454410314560e-02</internalNodes>
          <leafValues>
            -2.2194188833236694e-01 5.4423558712005615e-01</leafValues></_>
        <_>
          <internalNodes>
            0 -1 5 -1.0189605504274368e-01</internalNodes>
          <leafValues>
            -8.5461783409118652e-01 6.0590401291847229e-02</leafValues></_>
        <_>
          <internalNodes>
            0 -1 179 -1.2831771746277809e-03</internalNodes>
          <leafValues>
            3.0930376052856445e-01 -1.7051921784877777e-01</leafValues></_>
        <_>
          <internalNodes>
            0 -1 253 -1.0987082532665227e-05</internalNodes>
          <leafValues>
            2.1652966737747192e-01 -2.0586265623569489e-01</leafValues></_>
        <_>
          <internalNodes>
            0 -1 248 -3.6130720400251448e-04</internalNodes>
          <leafValues>
            -5.2420860528945923e-01 9.9209882318973541e-02</leafValues></_>
        <_>
          <internalNodes>
            0 -1 200 -7.2652194648981094e-04</internalNodes>
          <leafValues>
            3.4017479419708252e-01 -1.5187983214855194e-01</leafValues></_>
        <_>
          <internalNodes>
            0 -1 69 2.7970189228653908e-02</internalNodes>
          <leafValues>
            1.4575111865997314e-01 -3.6966857314109802e-01</leafValues></_>
        <_>
          <internalNodes>
            0 -1 165 -8.2702178042382002e-04</internalNodes>
          <leafValues>
            -6.4764308929443359e-01 7.7864244580268860e-02</leafValues></_>
        <_>
          <internalNodes>
            0 -1 188 -5.1002213731408119e-03</internalNodes>
          <leafValues>
            3.0054032802581787e-01 -1.6894732415676117e-01</leafValues></_>
        <_>
          <internalNodes>
            0 -1 209 -5.3697293624281883e-03</internalNodes>
          <leafValues>
            -4.3434780836105347e-01 1.4641891419887543e-01</leafValues></_>
        <_>
          <internalNodes>
            0 -1 106 -5.6728310883045197e-02</internalNodes>
          <leafValues>
            7.3707067966461182e-01 -7.8364878892898560e-02</leafValues></_>
        <_>
          <internalNodes>
            0 -1 18 1.3279693666845560e-03</internalNodes>
          <leafValues>
            -1.4219981431961060e-01 3.5924556851387024e-01</leafValues></_>
        <_>
          <internalNodes>
            0 -1 92 5.3254094382282346e-05</internalNodes>
          <leafValues>
            1.5217424929141998e-01 -3.6690652370452881e-01</leafValues></_>
        <_>
          <internalNodes>
            0 -1 37 -2.1753922104835510e-02</internalNodes>
          <leafValues>
            5.0881659984588623e-01 -1.0099768638610840e-01</leafValues></_>
        <_>
          <internalNodes>
            0 -1 147 3.7030000239610672e-02</internalNodes>
          <leafValues>
            -2.0074021816253662e-01 3.3778640627861023e-01</leafValues></_>
        <_>
          <internalNodes>
            0 -1 57 -6.6854292526841164e-04</internalNodes>
          <leafValues>
            6.9953662157058716e-01 -8.3996430039405823e-02</leafValues></_>
        <_>
          <internalNodes>
            0 -1 103 -9.4161507149692625e-05</internalNodes>
          <leafValues>
            2.7694052457809448e-01 -1.9087931513786316e-01</leafValues></_>
        <_>
          <internalNodes>
            0 -1 54 -6.2780864536762238e-03</internalNodes>
          <leafValues>
            -4.7452712059020996e-01 1.3674494624137878e-01</leafValues></_></weakClassifiers></_></stages>
  <features>
    <_>
      <rects>
        <_>
          0 0 2 1 -1.</_>
        <_>
          1 0 1 1 2.</_></rects>
      <tilted>0</tilted></_>
    <_>
      <rects>
        <_>
          0 0 24 1 -1.</_>
        <_>
          12 0 12 1 2.</_></rects>
      <tilted>0</tilted></_>
    <_>
      <rects>
        <_>
          0 0 32 12 -1.</_>
        <_>
          16 0 16 12 2.</_></rects>
      <tilted>0</tilted></_>
    <_>
      <rects>
        <_>
          0 0 34 3 -1.</_>
        <_>
          17 0 17 3 2.</_></rects>
      <tilted>0</tilted></_>
    <_>
      <rects>
        <_>
          0 1 1 24 -1.</_>
        <_>
          0 13 1 12 2.</_></rects>
      <tilted>0</tilted></_>
    <_>
      <rects>
        <_>
          0 1 34 16 -1.</_>
        <_>
          0 1 17 8 2.</_>
        <_>
          17 9 17 8 2.</_></rects>
      <tilted>0</tilted></_>
    <_>
      <rects>
        <_>
          0 2 3 24 -1.</_>
        <_>
          1 2 1 24 3.</_></rects>
      <tilted>0</tilted></_>
    <_>
      <rects>
        <_>
          0 3 2 12 -1.</_>
        <_>
          0 7 2 4 3.</_></rects>
      <tilted>0</tilted></_>
    <_>
      <rects>
        <_>
          0 3 25 6 -1.</_>
        <_>
          0 6 25 3 2.</_></rects>
      <tilted>0</tilted></_>
    <_>
      <rects>
        <_>
          0 5 2 7 -1.</_>
        <_>
          1 5 1 7 2.</_></rects>
      <tilted>0</tilted></_>
    <_>
      <rects>
        <_>
          0 5 3 28 -1.</_>
        <_>
          1 5 1 28 3.</_></rects>
      <tilted>0</tilted></_>
    <_>
      <rects>
        <_>
          0 6 1 22 -1.</_>
        <_>
          0 17 1 11 2.</_></rects>
      <tilted>0</tilted></_>
    <_>
      <rects>
        <_>
          0 7 24 27 -1.</_>
        <_>
          8 7 8 27 3.</_></rects>
      <tilted>0</tilted></_>
    <_>
      <rects>
        <_>
          0 7 34 6 -1.</_>
        <_>
          0 10 34 3 2.</_></rects>
      <tilted>0</tilted></_>
    <_>
      <rects>
        <_>
          0 8 6 19 -1.</_>
        <_>
          2 8 2 19 3.</_></rects>
      <tilted>0</tilted></_>
    <_>
      <rects>
        <_>
          0 8 34 26 -1.</_>
        <_>
          0 8 17 13 2.</_>
        <_>
          17 21 17 13 2.</_></rects>
      <tilted>0</tilted></_>
    <_>
      <rects>
        <_>
          0 10 30 16 -1.</_>
        <_>
          15 10 15 16 2.</_></rects>
      <tilted>0</tilted></_>
    <_>
      <rects>
        <_>
          0 12 16 22 -1.</_>
        <_>
          0 23 16 11 2.</_></rects>
      <tilted>0</tilted></_>
    <_>
      <rects>
        <_>
          0 14 8 2 -1.</_>
        <_>
          0 15 8 1 2.</_></rects>
      <tilted>0</tilted></_>
    <_>
      <rects>
        <_>
          0 16 25 18 -1.</_>
        <_>
          0 22 25 6 3.</_></rects>
      <tilted>0</tilted></_>
    <_>
      <rects>
        <_>
          0 20 1 6 -1.</_>
        <_>
          0 22 1 2 3.</_></rects>
      <tilted>0</tilted></_>
    <_>
      <rects>
        <_>
          0 20 20 11 -1.</_>
        <_>
          10 20 10 11 2.</_></rects>
      <tilted>0</tilted></_>
    <_>
      <rects>
        <_>
          0 22 8 8 -1.</_>
        <_>
          0 22 4 4 2.</_>
        <_>
          4 26 4 4 2.</_></rects>
      <tilted>0</tilted></_>
    <_>
      <rects>
        <_>
          0 25 23 2 -1.</_>
        <_>
          0 26 23 1 2.</_></rects>
      <tilted>0</tilted></_>
    <_>
      <rects>
        <_>
          0 26 8 6 -1.</_>
        <_>
          0 26 4 3 2.</_>
        <_>
          4 29 4 3 2.</_></rects>
      <tilted>0</tilted></_>
    <_>
      <rects>
        <_>
          0 27 6 6 -1.</_>
        <_>
          0 27 3 3 2.</_>
        <_>
          3 30 3 3 2.</_></rects>
      <tilted>0</tilted></_>
    <_>
      <rects>
        <_>
          0 27 12 1 -1.</_>
        <_>
          4 27 4 1 3.</_></rects>
      <tilted>0</tilted></_>
    <_>
      <rects>
        <_>
          0 28 23 6 -1.</_>
        <_>
          0 31 23 3 2.</_></rects>
      <tilted>0</tilted></_>
    <_>
      <rects>
        <_>
          0 29 30 2 -1.</_>
        <_>
          10 29 10 2 3.</_></rects>
      <tilted>0</tilted></_>
    <_>
      <rects>
        <_>
          0 29 24 2 -1.</_>
        <_>
          0 30 24 1 2.</_></rects>
      <tilted>0</tilted></_>
    <_>
      <rects>
        <_>
          0 30 17 2 -1.</_>
        <_>
          0 31 17 1 2.</_></rects>
      <tilted>0</tilted></_>
    <_>
      <rects>
        <_>
          0 32 1 2 -1.</_>
        <_>
          0 33 1 1 2.</_></rects>
      <tilted>0</tilted></_>
    <_>
      <rects>
        <_>
          1 1 2 12 -1.</_>
        <_>
          1 5 2 4 3.</_></rects>
      <tilted>0</tilted></_>
    <_>
      <rects>
        <_>
          1 1 4 3 -1.</_>
        <_>
          1 2 4 1 3.</_></rects>
      <tilted>0</tilted></_>
    <_>
      <rects>
        <_>
          1 5 4 2 -1.</_>
        <_>
          1 6 4 1 2.</_></rects>
      <tilted>0</tilted></_>
    <_>
      <rects>
        <_>
          1 5 15 3 -1.</_>
        <_>
          6 5 5 3 3.</_></rects>
      <tilted>0</tilted></_>
    <_>
      <rects>
        <_>
          1 9 7 15 -1.</_>
        <_>
          1 14 7 5 3.</_></rects>
      <tilted>0</tilted></_>
    <_>
      <rects>
        <_>
          1 13 32 6 -1.</_>
        <_>
          1 15 32 2 3.</_></rects>
      <tilted>0</tilted></_>
    <_>
      <rects>
        <_>
          1 14 8 4 -1.</_>
        <_>
          1 16 8 2 2.</_></rects>
      <tilted>0</tilted></_>
    <_>
      <rects>
        <_>
          1 15 13 9 -1.</_>
        <_>
          1 18 13 3 3.</_></rects>
      <tilted>0</tilted></_>
    <_>
      <rects>
        <_>
          1 18 10 16 -1.</_>
        <_>
          1 18 5 8 2.</_>
        <_>
          6 26 5 8 2.</_></rects>
      <tilted>0</tilted></_>
    <_>
      <rects>
        <_>
          1 20 17 2 -1.</_>
        <_>
          1 21 17 1 2.</_></rects>
      <tilted>0</tilted></_>
    <_>
      <rects>
        <_>
          1 22 13 12 -1.</_>
        <_>
          1 26 13 4 3.</_></rects>
      <tilted>0</tilted></_>
    <_>
      <rects>
        <_>
          1 26 14 8 -1.</_>
        <_>
          1 26 7 4 2.</_>
        <_>
          8 30 7 4 2.</_></rects>
      <tilted>0</tilted></_>
    <_>
      <rects>
        <_>
          1 26 16 3 -1.</_>
        <_>
          1 27 16 1 3.</_></rects>
      <tilted>0</tilted></_>
    <_>
      <rects>
        <_>
          1 32 32 2 -1.</_>
        <_>
          1 32 16 1 2.</_>
        <_>
          17 33 16 1 2.</_></rects>
      <tilted>0</tilted></_>
    <_>
      <rects>
        <_>
          2 9 16 9 -1.</_>
        <_>
          2 12 16 3 3.</_></rects>
      <tilted>0</tilted></_>
    <_>
      <rects>
        <_>
          2 10 24 18 -1.</_>
        <_>
          2 16 24 6 3.</_></rects>
      <tilted>0</tilted></_>
    <_>
      <rects>
        <_>
          2 11 26 14 -1.</_>
        <_>
          2 11 13 7 2.</_>
        <_>
          15 18 13 7 2.</_></rects>
      <tilted>0</tilted></_>
    <_>
      <rects>
        <_>
          2 12 18 1 -1.</_>
        <_>
          11 12 9 1 2.</_></rects>
      <tilted>0</tilted></_>
    <_>
      <rects>
        <_>
          2 12 17 21 -1.</_>
        <_>
          2 19 17 7 3.</_></rects>
      <tilted>0</tilted></_>
    <_>
      <rects>
        <_>
          2 14 30 20 -1.</_>
        <_>
          2 24 30 10 2.</_></rects>
      <tilted>0</tilted></_>
    <_>
      <rects>
        <_>
          2 15 18 18 -1.</_>
        <_>
          2 24 18 9 2.</_></rects>
      <tilted>0</tilted></_>
    <_>
      <rects>
        <_>
          2 17 1 6 -1.</_>
        <_>
          2 19 1 2 3.</_></rects>
      <tilted>0</tilted></_>
    <_>
      <rects>
        <_>
          2 19 17 4 -1.</_>
        <_>
          2 21 17 2 2.</_></rects>
      <tilted>0</tilted></_>
    <_>
      <rects>
        <_>
          2 27 4 2 -1.</_>
        <_>
          2 27 2 1 2.</_>
        <_>
          4 28 2 1 2.</_></rects>
      <tilted>0</tilted></_>
    <_>
      <rects>
        <_>
          2 28 32 6 -1.</_>
        <_>
          18 28 16 6 2.</_></rects>
      <tilted>0</tilted></_>
    <_>
      <rects>
        <_>
          2 30 1 2 -1.</_>
        <_>
          2 31 1 1 2.</_></rects>
      <tilted>0</tilted></_>
    <_>
      <rects>
        <_>
          3 0 26 14 -1.</_>
        <_>
          3 0 13 7 2.</_>
        <_>
          16 7 13 7 2.</_></rects>
      <tilted>0</tilted></_>
    <_>
      <rects>
        <_>
          3 0 30 1 -1.</_>
        <_>
          18 0 15 1 2.</_></rects>
      <tilted>0</tilted></_>
    <_>
      <rects>
        <_>
          3 5 2 1 -1.</_>
        <_>
          4 5 1 1 2.</_></rects>
      <tilted>0</tilted></_>
    <_>
      <rects>
        <_>
          3 5 20 27 -1.</_>
        <_>
          3 14 20 9 3.</_></rects>
      <tilted>0</tilted></_>
    <_>
      <rects>
        <_>
          3 7 3 1 -1.</_>
        <_>
          4 7 1 1 3.</_></rects>
      <tilted>0</tilted></_>
    <_>
      <rects>
        <_>
          3 8 6 3 -1.</_>
        <_>
          5 8 2 3 3.</_></rects>
      <tilted>0</tilted></_>
    <_>
      <rects>
        <_>
          3 11 26 21 -1.</_>
        <_>
          3 18 26 7 3.</_></rects>
      <tilted>0</tilted></_>
    <_>
      <rects>
        <_>
          3 12 30 12 -1.</_>
        <_>
          3 16 30 4 3.</_></rects>
      <tilted>0</tilted></_>
    <_>
      <rects>
        <_>
          3 13 12 3 -1.</_>
        <_>
          7 13 4 3 3.</_></rects>
      <tilted>0</tilted></_>
    <_>
      <rects>
        <_>
          3 13 24 16 -1.</_>
        <_>
          3 13 12 8 2.</_>
        <_>
          15 21 12 8 2.</_></rects>
      <tilted>0</tilted></_>
    <_>
      <rects>
        <_>
          3 14 22 3 -1.</_>
        <_>
          3 15 22 1 3.</_></rects>
      <tilted>0</tilted></_>
    <_>
      <rects>
        <_>
          3 16 26 18 -1.</_>
        <_>
          3 16 13 9 2.</_>
        <_>
          16 25 13 9 2.</_></rects>
      <tilted>0</tilted></_>
    <_>
      <rects>
        <_>
          3 26 2 6 -1.</_>
        <_>
          3 28 2 2 3.</_></rects>
      <tilted>0</tilted></_>
    <_>
      <rects>
        <_>
          3 27 4 6 -1.</_>
        <_>
          3 30 4 3 2.</_></rects>
      <tilted>0</tilted></_>
    <_>
      <rects>
        <_>
          3 30 6 1 -1.</_>
        <_>
          5 30 2 1 3.</_></rects>
      <tilted>0</tilted></_>
    <_>
      <rects>
        <_>
          4 3 9 13 -1.</_>
        <_>
          7 3 3 13 3.</_></rects>
      <tilted>0</tilted></_>
    <_>
      <rects>
        <_>
          4 5 12 10 -1.</_>
        <_>
          8 5 4 10 3.</_></rects>
      <tilted>0</tilted></_>
    <_>
      <rects>
        <_>
          4 5 15 1 -1.</_>
        <_>
          9 5 5 1 3.</_></rects>
      <tilted>0</tilted></_>
    <_>
      <rects>
        <_>
          4 7 28 12 -1.</_>
        <_>
          4 11 28 4 3.</_></rects>
      <tilted>0</tilted></_>
    <_>
      <rects>
        <_>
          4 11 23 15 -1.</_>
        <_>
          4 16 23 5 3.</_></rects>
      <tilted>0</tilted></_>
    <_>
      <rects>
        <_>
          4 13 1 3 -1.</_>
        <_>
          4 14 1 1 3.</_></rects>
      <tilted>0</tilted></_>
    <_>
      <rects>
        <_>
          4 13 9 2 -1.</_>
        <_>
          7 13 3 2 3.</_></rects>
      <tilted>0</tilted></_>
    <_>
      <rects>
        <_>
          4 15 26 6 -1.</_>
        <_>
          4 17 26 2 3.</_></rects>
      <tilted>0</tilted></_>
    <_>
      <rects>
        <_>
          4 16 12 18 -1.</_>
        <_>
          10 16 6 18 2.</_></rects>
      <tilted>0</tilted></_>
    <_>
      <rects>
        <_>
          4 28 2 4 -1.</_>
        <_>
          4 28 1 2 2.</_>
        <_>
          5 30 1 2 2.</_></rects>
      <tilted>0</tilted></_>
    <_>
      <rects>
        <_>
          4 31 2 2 -1.</_>
        <_>
          4 31 1 1 2.</_>
        <_>
          5 32 1 1 2.</_></rects>
      <tilted>0</tilted></_>
    <_>
      <rects>
        <_>
          5 0 19 6 -1.</_>
        <_>
          5 2 19 2 3.</_></rects>
      <tilted>0</tilted></_>
    <_>
      <rects>
        <_>
          5 4 14 1 -1.</_>
        <_>
          12 4 7 1 2.</_></rects>
      <tilted>0</tilted></_>
    <_>
      <rects>
        <_>
          5 8 24 24 -1.</_>
        <_>
          5 8 12 12 2.</_>
        <_>
          17 20 12 12 2.</_></rects>
      <tilted>0</tilted></_>
    <_>
      <rects>
        <_>
          5 26 3 3 -1.</_>
        <_>
          5 27 3 1 3.</_></rects>
      <tilted>0</tilted></_>
    <_>
      <rects>
        <_>
          5 26 28 2 -1.</_>
        <_>
          5 26 14 1 2.</_>
        <_>
          19 27 14 1 2.</_></rects>
      <tilted>0</tilted></_>
    <_>
      <rects>
        <_>
          5 29 4 4 -1.</_>
        <_>
          5 29 2 2 2.</_>
        <_>
          7 31 2 2 2.</_></rects>
      <tilted>0</tilted></_>
    <_>
      <rects>
        <_>
          5 32 3 2 -1.</_>
        <_>
          6 32 1 2 3.</_></rects>
      <tilted>0</tilted></_>
    <_>
      <rects>
        <_>
          5 32 22 2 -1.</_>
        <_>
          5 32 11 1 2.</_>
        <_>
          16 33 11 1 2.</_></rects>
      <tilted>0</tilted></_>
    <_>
      <rects>
        <_>
          6 0 3 2 -1.</_>
        <_>
          7 0 1 2 3.</_></rects>
      <tilted>0</tilted></_>
    <_>
      <rects>
        <_>
          6 1 1 20 -1.</_>
        <_>
          6 11 1 10 2.</_></rects>
      <tilted>0</tilted></_>
    <_>
      <rects>
        <_>
          6 3 12 8 -1.</_>
        <_>
          6 3 6 4 2.</_>
        <_>
          12 7 6 4 2.</_></rects>
      <tilted>0</tilted></_>
    <_>
      <rects>
        <_>
          6 5 2 4 -1.</_>
        <_>
          7 5 1 4 2.</_></rects>
      <tilted>0</tilted></_>
    <_>
      <rects>
        <_>
          6 13 6 1 -1.</_>
        <_>
          9 13 3 1 2.</_></rects>
      <tilted>0</tilted></_>
    <_>
      <rects>
        <_>
          6 13 10 3 -1.</_>
        <_>
          6 14 10 1 3.</_></rects>
      <tilted>0</tilted></_>
    <_>
      <rects>
        <_>
          6 13 14 3 -1.</_>
        <_>
          6 14 14 1 3.</_></rects>
      <tilted>0</tilted></_>
    <_>
      <rects>
        <_>
          6 19 10 9 -1.</_>
        <_>
          11 19 5 9 2.</_></rects>
      <tilted>0</tilted></_>
    <_>
      <rects>
        <_>
          6 20 9 6 -1.</_>
        <_>
          6 23 9 3 2.</_></rects>
      <tilted>0</tilted></_>
    <_>
      <rects>
        <_>
          6 20 11 14 -1.</_>
        <_>
          6 27 11 7 2.</_></rects>
      <tilted>0</tilted></_>
    <_>
      <rects>
        <_>
          6 23 1 2 -1.</_>
        <_>
          6 24 1 1 2.</_></rects>
      <tilted>0</tilted></_>
    <_>
      <rects>
        <_>
          6 26 5 6 -1.</_>
        <_>
          6 28 5 2 3.</_></rects>
      <tilted>0</tilted></_>
    <_>
      <rects>
        <_>
          7 0 6 1 -1.</_>
        <_>
          10 0 3 1 2.</_></rects>
      <tilted>0</tilted></_>
    <_>
      <rects>
        <_>
          7 5 22 20 -1.</_>
        <_>
          7 5 11 10 2.</_>
        <_>
          18 15 11 10 2.</_></rects>
      <tilted>0</tilted></_>
    <_>
      <rects>
        <_>
          7 7 8 24 -1.</_>
        <_>
          11 7 4 24 2.</_></rects>
      <tilted>0</tilted></_>
    <_>
      <rects>
        <_>
          7 7 16 27 -1.</_>
        <_>
          7 16 16 9 3.</_></rects>
      <tilted>0</tilted></_>
    <_>
      <rects>
        <_>
          7 9 6 7 -1.</_>
        <_>
          9 9 2 7 3.</_></rects>
      <tilted>0</tilted></_>
    <_>
      <rects>
        <_>
          7 9 26 20 -1.</_>
        <_>
          7 9 13 10 2.</_>
        <_>
          20 19 13 10 2.</_></rects>
      <tilted>0</tilted></_>
    <_>
      <rects>
        <_>
          7 22 2 1 -1.</_>
        <_>
          8 22 1 1 2.</_></rects>
      <tilted>0</tilted></_>
    <_>
      <rects>
        <_>
          7 22 10 6 -1.</_>
        <_>
          7 25 10 3 2.</_></rects>
      <tilted>0</tilted></_>
    <_>
      <rects>
        <_>
          7 32 2 1 -1.</_>
        <_>
          8 32 1 1 2.</_></rects>
      <tilted>0</tilted></_>
    <_>
      <rects>
        <_>
          8 0 3 7 -1.</_>
        <_>
          9 0 1 7 3.</_></rects>
      <tilted>0</tilted></_>
    <_>
      <rects>
        <_>
          8 2 2 25 -1.</_>
        <_>
          9 2 1 25 2.</_></rects>
      <tilted>0</tilted></_>
    <_>
      <rects>
        <_>
          8 22 9 6 -1.</_>
        <_>
          8 25 9 3 2.</_></rects>
      <tilted>0</tilted></_>
    <_>
      <rects>
        <_>
          9 0 3 7 -1.</_>
        <_>
          10 0 1 7 3.</_></rects>
      <tilted>0</tilted></_>
    <_>
      <rects>
        <_>
          9 2 20 3 -1.</_>
        <_>
          9 3 20 1 3.</_></rects>
      <tilted>0</tilted></_>
    <_>
      <rects>
        <_>
          9 6 16 6 -1.</_>
        <_>
          9 8 16 2 3.</_></rects>
      <tilted>0</tilted></_>
    <_>
      <rects>
        <_>
          9 8 19 12 -1.</_>
        <_>
          9 12 19 4 3.</_></rects>
      <tilted>0</tilted></_>
    <_>
      <rects>
        <_>
          9 10 14 3 -1.</_>
        <_>
          9 11 14 1 3.</_></rects>
      <tilted>0</tilted></_>
    <_>
      <rects>
        <_>
          9 12 4 2 -1.</_>
        <_>
          9 12 2 1 2.</_>
        <_>
          11 13 2 1 2.</_></rects>
      <tilted>0</tilted></_>
    <_>
      <rects>
        <_>
          9 12 6 2 -1.</_>
        <_>
          9 12 3 1 2.</_>
        <_>
          12 13 3 1 2.</_></rects>
      <tilted>0</tilted></_>
    <_>
      <rects>
        <_>
          9 12 14 9 -1.</_>
        <_>
          9 15 14 3 3.</_></rects>
      <tilted>0</tilted></_>
    <_>
      <rects>
        <_>
          9 14 4 2 -1.</_>
        <_>
          9 14 2 1 2.</_>
        <_>
          11 15 2 1 2.</_></rects>
      <tilted>0</tilted></_>
    <_>
      <rects>
        <_>
          9 22 6 1 -1.</_>
        <_>
          11 22 2 1 3.</_></rects>
      <tilted>0</tilted></_>
    <_>
      <rects>
        <_>
          9 25 1 2 -1.</_>
        <_>
          9 26 1 1 2.</_></rects>
      <tilted>0</tilted></_>
    <_>
      <rects>
        <_>
          9 26 10 6 -1.</_>
        <_>
          9 26 5 3 2.</_>
        <_>
          14 29 5 3 2.</_></rects>
      <tilted>0</tilted></_>
    <_>
      <rects>
        <_>
          10 7 3 1 -1.</_>
        <_>
          11 7 1 1 3.</_></rects>
      <tilted>0</tilted></_>
    <_>
      <rects>
        <_>
          10 8 21 9 -1.</_>
        <_>
          10 11 21 3 3.</_></rects>
      <tilted>0</tilted></_>
    <_>
      <rects>
        <_>
          10 21 16 8 -1.</_>
        <_>
          10 21 8 4 2.</_>
        <_>
          18 25 8 4 2.</_></rects>
      <tilted>0</tilted></_>
    <_>
      <rects>
        <_>
          10 23 2 7 -1.</_>
        <_>
          11 23 1 7 2.</_></rects>
      <tilted>0</tilted></_>
    <_>
      <rects>
        <_>
          11 0 3 1 -1.</_>
        <_>
          12 0 1 1 3.</_></rects>
      <tilted>0</tilted></_>
    <_>
      <rects>
        <_>
          11 0 8 6 -1.</_>
        <_>
          11 2 8 2 3.</_></rects>
      <tilted>0</tilted></_>
    <_>
      <rects>
        <_>
          11 7 1 27 -1.</_>
        <_>
          11 16 1 9 3.</_></rects>
      <tilted>0</tilted></_>
    <_>
      <rects>
        <_>
          11 11 2 2 -1.</_>
        <_>
          11 11 1 1 2.</_>
        <_>
          12 12 1 1 2.</_></rects>
      <tilted>0</tilted></_>
    <_>
      <rects>
        <_>
          11 20 2 3 -1.</_>
        <_>
          11 21 2 1 3.</_></rects>
      <tilted>0</tilted></_>
    <_>
      <rects>
        <_>
          11 21 2 6 -1.</_>
        <_>
          11 24 2 3 2.</_></rects>
      <tilted>0</tilted></_>
    <_>
      <rects>
        <_>
          11 24 1 6 -1.</_>
        <_>
          11 27 1 3 2.</_></rects>
      <tilted>0</tilted></_>
    <_>
      <rects>
        <_>
          11 32 3 1 -1.</_>
        <_>
          12 32 1 1 3.</_></rects>
      <tilted>0</tilted></_>
    <_>
      <rects>
        <_>
          12 0 12 4 -1.</_>
        <_>
          12 2 12 2 2.</_></rects>
      <tilted>0</tilted></_>
    <_>
      <rects>
        <_>
          12 12 2 9 -1.</_>
        <_>
          12 15 2 3 3.</_></rects>
      <tilted>0</tilted></_>
    <_>
      <rects>
        <_>
          12 17 10 4 -1.</_>
        <_>
          12 17 5 2 2.</_>
        <_>
          17 19 5 2 2.</_></rects>
      <tilted>0</tilted></_>
    <_>
      <rects>
        <_>
          13 4 20 4 -1.</_>
        <_>
          13 6 20 2 2.</_></rects>
      <tilted>0</tilted></_>
    <_>
      <rects>
        <_>
          13 5 18 8 -1.</_>
        <_>
          19 5 6 8 3.</_></rects>
      <tilted>0</tilted></_>
    <_>
      <rects>
        <_>
          13 6 9 15 -1.</_>
        <_>
          16 6 3 15 3.</_></rects>
      <tilted>0</tilted></_>
    <_>
      <rects>
        <_>
          13 9 15 8 -1.</_>
        <_>
          18 9 5 8 3.</_></rects>
      <tilted>0</tilted></_>
    <_>
      <rects>
        <_>
          13 10 20 12 -1.</_>
        <_>
          13 14 20 4 3.</_></rects>
      <tilted>0</tilted></_>
    <_>
      <rects>
        <_>
          13 11 18 2 -1.</_>
        <_>
          19 11 6 2 3.</_></rects>
      <tilted>0</tilted></_>
    <_>
      <rects>
        <_>
          13 11 15 6 -1.</_>
        <_>
          13 13 15 2 3.</_></rects>
      <tilted>0</tilted></_>
    <_>
      <rects>
        <_>
          13 12 3 18 -1.</_>
        <_>
          13 18 3 6 3.</_></rects>
      <tilted>0</tilted></_>
    <_>
      <rects>
        <_>
          13 12 11 3 -1.</_>
        <_>
          13 13 11 1 3.</_></rects>
      <tilted>0</tilted></_>
    <_>
      <rects>
        <_>
          14 10 12 15 -1.</_>
        <_>
          18 10 4 15 3.</_></rects>
      <tilted>0</tilted></_>
    <_>
      <rects>
        <_>
          14 11 6 3 -1.</_>
        <_>
          14 12 6 1 3.</_></rects>
      <tilted>0</tilted></_>
    <_>
      <rects>
        <_>
          14 11 13 3 -1.</_>
        <_>
          14 12 13 1 3.</_></rects>
      <tilted>0</tilted></_>
    <_>
      <rects>
        <_>
          14 13 15 6 -1.</_>
        <_>
          14 15 15 2 3.</_></rects>
      <tilted>0</tilted></_>
    <_>
      <rects>
        <_>
          14 14 2 3 -1.</_>
        <_>
          14 15 2 1 3.</_></rects>
      <tilted>0</tilted></_>
    <_>
      <rects>
        <_>
          14 23 2 6 -1.</_>
        <_>
          14 26 2 3 2.</_></rects>
      <tilted>0</tilted></_>
    <_>
      <rects>
        <_>
          14 29 1 4 -1.</_>
        <_>
          14 31 1 2 2.</_></rects>
      <tilted>0</tilted></_>
    <_>
      <rects>
        <_>
          14 32 3 1 -1.</_>
        <_>
          15 32 1 1 3.</_></rects>
      <tilted>0</tilted></_>
    <_>
      <rects>
        <_>
          14 32 3 2 -1.</_>
        <_>
          15 32 1 2 3.</_></rects>
      <tilted>0</tilted></_>
    <_>
      <rects>
        <_>
          15 14 4 3 -1.</_>
        <_>
          15 15 4 1 3.</_></rects>
      <tilted>0</tilted></_>
    <_>
      <rects>
        <_>
          15 22 2 4 -1.</_>
        <_>
          15 24 2 2 2.</_></rects>
      <tilted>0</tilted></_>
    <_>
      <rects>
        <_>
          16 0 8 4 -1.</_>
        <_>
          16 2 8 2 2.</_></rects>
      <tilted>0</tilted></_>
    <_>
      <rects>
        <_>
          16 0 13 30 -1.</_>
        <_>
          16 15 13 15 2.</_></rects>
      <tilted>0</tilted></_>
    <_>
      <rects>
        <_>
          16 1 2 8 -1.</_>
        <_>
          16 1 1 4 2.</_>
        <_>
          17 5 1 4 2.</_></rects>
      <tilted>0</tilted></_>
    <_>
      <rects>
        <_>
          16 3 13 9 -1.</_>
        <_>
          16 6 13 3 3.</_></rects>
      <tilted>0</tilted></_>
    <_>
      <rects>
        <_>
          16 8 6 2 -1.</_>
        <_>
          18 8 2 2 3.</_></rects>
      <tilted>0</tilted></_>
    <_>
      <rects>
        <_>
          16 9 6 12 -1.</_>
        <_>
          16 13 6 4 3.</_></rects>
      <tilted>0</tilted></_>
    <_>
      <rects>
        <_>
          16 11 15 3 -1.</_>
        <_>
          21 11 5 3 3.</_></rects>
      <tilted>0</tilted></_>
    <_>
      <rects>
        <_>
          16 12 4 3 -1.</_>
        <_>
          16 13 4 1 3.</_></rects>
      <tilted>0</tilted></_>
    <_>
      <rects>
        <_>
          16 14 18 8 -1.</_>
        <_>
          22 14 6 8 3.</_></rects>
      <tilted>0</tilted></_>
    <_>
      <rects>
        <_>
          16 14 11 3 -1.</_>
        <_>
          16 15 11 1 3.</_></rects>
      <tilted>0</tilted></_>
    <_>
      <rects>
        <_>
          16 22 1 4 -1.</_>
        <_>
          16 24 1 2 2.</_></rects>
      <tilted>0</tilted></_>
    <_>
      <rects>
        <_>
          16 28 11 6 -1.</_>
        <_>
          16 30 11 2 3.</_></rects>
      <tilted>0</tilted></_>
    <_>
      <rects>
        <_>
          17 0 3 1 -1.</_>
        <_>
          18 0 1 1 3.</_></rects>
      <tilted>0</tilted></_>
    <_>
      <rects>
        <_>
          17 2 16 8 -1.</_>
        <_>
          17 2 8 4 2.</_>
        <_>
          25 6 8 4 2.</_></rects>
      <tilted>0</tilted></_>
    <_>
      <rects>
        <_>
          17 3 8 24 -1.</_>
        <_>
          17 11 8 8 3.</_></rects>
      <tilted>0</tilted></_>
    <_>
      <rects>
        <_>
          17 6 4 3 -1.</_>
        <_>
          17 7 4 1 3.</_></rects>
      <tilted>0</tilted></_>
    <_>
      <rects>
        <_>
          17 9 4 8 -1.</_>
        <_>
          19 9 2 8 2.</_></rects>
      <tilted>0</tilted></_>
    <_>
      <rects>
        <_>
          17 9 13 12 -1.</_>
        <_>
          17 13 13 4 3.</_></rects>
      <tilted>0</tilted></_>
    <_>
      <rects>
        <_>
          17 10 4 4 -1.</_>
        <_>
          17 10 2 2 2.</_>
        <_>
          19 12 2 2 2.</_></rects>
      <tilted>0</tilted></_>
    <_>
      <rects>
        <_>
          17 11 12 9 -1.</_>
        <_>
          21 11 4 9 3.</_></rects>
      <tilted>0</tilted></_>
    <_>
      <rects>
        <_>
          17 12 2 18 -1.</_>
        <_>
          17 18 2 6 3.</_></rects>
      <tilted>0</tilted></_>
    <_>
      <rects>
        <_>
          17 12 16 1 -1.</_>
        <_>
          25 12 8 1 2.</_></rects>
      <tilted>0</tilted></_>
    <_>
      <rects>
        <_>
          17 31 16 2 -1.</_>
        <_>
          17 31 8 1 2.</_>
        <_>
          25 32 8 1 2.</_></rects>
      <tilted>0</tilted></_>
    <_>
      <rects>
        <_>
          18 7 2 15 -1.</_>
        <_>
          18 12 2 5 3.</_></rects>
      <tilted>0</tilted></_>
    <_>
      <rects>
        <_>
          18 11 4 2 -1.</_>
        <_>
          18 11 2 1 2.</_>
        <_>
          20 12 2 1 2.</_></rects>
      <tilted>0</tilted></_>
    <_>
      <rects>
        <_>
          18 13 16 4 -1.</_>
        <_>
          18 13 8 2 2.</_>
        <_>
          26 15 8 2 2.</_></rects>
      <tilted>0</tilted></_>
    <_>
      <rects>
        <_>
          18 18 2 6 -1.</_>
        <_>
          19 18 1 6 2.</_></rects>
      <tilted>0</tilted></_>
    <_>
      <rects>
        <_>
          18 25 2 2 -1.</_>
        <_>
          18 25 1 1 2.</_>
        <_>
          19 26 1 1 2.</_></rects>
      <tilted>0</tilted></_>
    <_>
      <rects>
        <_>
          18 27 2 6 -1.</_>
        <_>
          19 27 1 6 2.</_></rects>
      <tilted>0</tilted></_>
    <_>
      <rects>
        <_>
          19 9 6 9 -1.</_>
        <_>
          21 9 2 9 3.</_></rects>
      <tilted>0</tilted></_>
    <_>
      <rects>
        <_>
          19 11 2 7 -1.</_>
        <_>
          20 11 1 7 2.</_></rects>
      <tilted>0</tilted></_>
    <_>
      <rects>
        <_>
          19 13 15 3 -1.</_>
        <_>
          19 14 15 1 3.</_></rects>
      <tilted>0</tilted></_>
    <_>
      <rects>
        <_>
          19 32 13 2 -1.</_>
        <_>
          19 33 13 1 2.</_></rects>
      <tilted>0</tilted></_>
    <_>
      <rects>
        <_>
          20 0 14 1 -1.</_>
        <_>
          27 0 7 1 2.</_></rects>
      <tilted>0</tilted></_>
    <_>
      <rects>
        <_>
          20 1 3 1 -1.</_>
        <_>
          21 1 1 1 3.</_></rects>
      <tilted>0</tilted></_>
    <_>
      <rects>
        <_>
          20 11 12 3 -1.</_>
        <_>
          20 12 12 1 3.</_></rects>
      <tilted>0</tilted></_>
    <_>
      <rects>
        <_>
          20 13 1 2 -1.</_>
        <_>
          20 14 1 1 2.</_></rects>
      <tilted>0</tilted></_>
    <_>
      <rects>
        <_>
          20 23 4 6 -1.</_>
        <_>
          20 25 4 2 3.</_></rects>
      <tilted>0</tilted></_>
    <_>
      <rects>
        <_>
          20 26 6 4 -1.</_>
        <_>
          23 26 3 4 2.</_></rects>
      <tilted>0</tilted></_>
    <_>
      <rects>
        <_>
          21 0 1 2 -1.</_>
        <_>
          21 1 1 1 2.</_></rects>
      <tilted>0</tilted></_>
    <_>
      <rects>
        <_>
          21 11 1 3 -1.</_>
        <_>
          21 12 1 1 3.</_></rects>
      <tilted>0</tilted></_>
    <_>
      <rects>
        <_>
          21 18 1 3 -1.</_>
        <_>
          21 19 1 1 3.</_></rects>
      <tilted>0</tilted></_>
    <_>
      <rects>
        <_>
          21 22 1 10 -1.</_>
        <_>
          21 27 1 5 2.</_></rects>
      <tilted>0</tilted></_>
    <_>
      <rects>
        <_>
          21 27 6 6 -1.</_>
        <_>
          21 30 6 3 2.</_></rects>
      <tilted>0</tilted></_>
    <_>
      <rects>
        <_>
          21 28 4 1 -1.</_>
        <_>
          23 28 2 1 2.</_></rects>
      <tilted>0</tilted></_>
    <_>
      <rects>
        <_>
          21 32 12 2 -1.</_>
        <_>
          21 32 6 1 2.</_>
        <_>
          27 33 6 1 2.</_></rects>
      <tilted>0</tilted></_>
    <_>
      <rects>
        <_>
          22 3 1 18 -1.</_>
        <_>
          22 9 1 6 3.</_></rects>
      <tilted>0</tilted></_>
    <_>
      <rects>
        <_>
          22 7 12 23 -1.</_>
        <_>
          26 7 4 23 3.</_></rects>
      <tilted>0</tilted></_>
    <_>
      <rects>
        <_>
          22 29 8 3 -1.</_>
        <_>
          26 29 4 3 2.</_></rects>
      <tilted>0</tilted></_>
    <_>
      <rects>
        <_>
          23 13 4 2 -1.</_>
        <_>
          23 13 2 1 2.</_>
        <_>
          25 14 2 1 2.</_></rects>
      <tilted>0</tilted></_>
    <_>
      <rects>
        <_>
          23 33 2 1 -1.</_>
        <_>
          24 33 1 1 2.</_></rects>
      <tilted>0</tilted></_>
    <_>
      <rects>
        <_>
          24 5 2 1 -1.</_>
        <_>
          25 5 1 1 2.</_></rects>
      <tilted>0</tilted></_>
    <_>
      <rects>
        <_>
          24 7 9 16 -1.</_>
        <_>
          27 7 3 16 3.</_></rects>
      <tilted>0</tilted></_>
    <_>
      <rects>
        <_>
          24 15 2 9 -1.</_>
        <_>
          25 15 1 9 2.</_></rects>
      <tilted>0</tilted></_>
    <_>
      <rects>
        <_>
          25 5 4 6 -1.</_>
        <_>
          27 5 2 6 2.</_></rects>
      <tilted>0</tilted></_>
    <_>
      <rects>
        <_>
          25 5 9 15 -1.</_>
        <_>
          28 5 3 15 3.</_></rects>
      <tilted>0</tilted></_>
    <_>
      <rects>
        <_>
          25 7 9 21 -1.</_>
        <_>
          28 7 3 21 3.</_></rects>
      <tilted>0</tilted></_>
    <_>
      <rects>
        <_>
          25 12 9 22 -1.</_>
        <_>
          28 12 3 22 3.</_></rects>
      <tilted>0</tilted></_>
    <_>
      <rects>
        <_>
          25 13 3 9 -1.</_>
        <_>
          25 16 3 3 3.</_></rects>
      <tilted>0</tilted></_>
    <_>
      <rects>
        <_>
          25 17 9 12 -1.</_>
        <_>
          28 17 3 12 3.</_></rects>
      <tilted>0</tilted></_>
    <_>
      <rects>
        <_>
          26 0 1 6 -1.</_>
        <_>
          26 2 1 2 3.</_></rects>
      <tilted>0</tilted></_>
    <_>
      <rects>
        <_>
          26 1 3 1 -1.</_>
        <_>
          27 1 1 1 3.</_></rects>
      <tilted>0</tilted></_>
    <_>
      <rects>
        <_>
          26 2 3 23 -1.</_>
        <_>
          27 2 1 23 3.</_></rects>
      <tilted>0</tilted></_>
    <_>
      <rects>
        <_>
          26 2 2 2 -1.</_>
        <_>
          26 3 2 1 2.</_></rects>
      <tilted>0</tilted></_>
    <_>
      <rects>
        <_>
          26 5 8 20 -1.</_>
        <_>
          26 5 4 10 2.</_>
        <_>
          30 15 4 10 2.</_></rects>
      <tilted>0</tilted></_>
    <_>
      <rects>
        <_>
          26 7 2 1 -1.</_>
        <_>
          27 7 1 1 2.</_></rects>
      <tilted>0</tilted></_>
    <_>
      <rects>
        <_>
          26 17 3 2 -1.</_>
        <_>
          27 17 1 2 3.</_></rects>
      <tilted>0</tilted></_>
    <_>
      <rects>
        <_>
          26 17 8 14 -1.</_>
        <_>
          30 17 4 14 2.</_></rects>
      <tilted>0</tilted></_>
    <_>
      <rects>
        <_>
          26 18 2 16 -1.</_>
        <_>
          26 26 2 8 2.</_></rects>
      <tilted>0</tilted></_>
    <_>
      <rects>
        <_>
          26 22 8 12 -1.</_>
        <_>
          26 22 4 6 2.</_>
        <_>
          30 28 4 6 2.</_></rects>
      <tilted>0</tilted></_>
    <_>
      <rects>
        <_>
          27 1 3 8 -1.</_>
        <_>
          28 1 1 8 3.</_></rects>
      <tilted>0</tilted></_>
    <_>
      <rects>
        <_>
          27 12 3 14 -1.</_>
        <_>
          27 19 3 7 2.</_></rects>
      <tilted>0</tilted></_>
    <_>
      <rects>
        <_>
          27 22 1 4 -1.</_>
        <_>
          27 24 1 2 2.</_></rects>
      <tilted>0</tilted></_>
    <_>
      <rects>
        <_>
          27 31 4 2 -1.</_>
        <_>
          27 31 2 1 2.</_>
        <_>
          29 32 2 1 2.</_></rects>
      <tilted>0</tilted></_>
    <_>
      <rects>
        <_>
          28 10 1 9 -1.</_>
        <_>
          28 13 1 3 3.</_></rects>
      <tilted>0</tilted></_>
    <_>
      <rects>
        <_>
          28 23 2 3 -1.</_>
        <_>
          28 24 2 1 3.</_></rects>
      <tilted>0</tilted></_>
    <_>
      <rects>
        <_>
          28 24 3 1 -1.</_>
        <_>
          29 24 1 1 3.</_></rects>
      <tilted>0</tilted></_>
    <_>
      <rects>
        <_>
          28 25 1 2 -1.</_>
        <_>
          28 26 1 1 2.</_></rects>
      <tilted>0</tilted></_>
    <_>
      <rects>
        <_>
          29 0 4 4 -1.</_>
        <_>
          31 0 2 4 2.</_></rects>
      <tilted>0</tilted></_>
    <_>
      <rects>
        <_>
          29 23 1 4 -1.</_>
        <_>
          29 25 1 2 2.</_></rects>
      <tilted>0</tilted></_>
    <_>
      <rects>
        <_>
          30 0 2 32 -1.</_>
        <_>
          30 0 1 16 2.</_>
        <_>
          31 16 1 16 2.</_></rects>
      <tilted>0</tilted></_>
    <_>
      <rects>
        <_>
          30 1 2 16 -1.</_>
        <_>
          30 9 2 8 2.</_></rects>
      <tilted>0</tilted></_>
    <_>
      <rects>
        <_>
          30 11 1 22 -1.</_>
        <_>
          30 22 1 11 2.</_></rects>
      <tilted>0</tilted></_>
    <_>
      <rects>
        <_>
          30 12 1 2 -1.</_>
        <_>
          30 13 1 1 2.</_></rects>
      <tilted>0</tilted></_>
    <_>
      <rects>
        <_>
          30 14 3 16 -1.</_>
        <_>
          31 14 1 16 3.</_></rects>
      <tilted>0</tilted></_>
    <_>
      <rects>
        <_>
          30 22 2 2 -1.</_>
        <_>
          30 23 2 1 2.</_></rects>
      <tilted>0</tilted></_>
    <_>
      <rects>
        <_>
          30 24 4 10 -1.</_>
        <_>
          30 29 4 5 2.</_></rects>
      <tilted>0</tilted></_>
    <_>
      <rects>
        <_>
          31 1 2 3 -1.</_>
        <_>
          31 2 2 1 3.</_></rects>
      <tilted>0</tilted></_>
    <_>
      <rects>
        <_>
          31 2 1 3 -1.</_>
        <_>
          31 3 1 1 3.</_></rects>
      <tilted>0</tilted></_>
    <_>
      <rects>
        <_>
          31 8 3 21 -1.</_>
        <_>
          32 8 1 21 3.</_></rects>
      <tilted>0</tilted></_>
    <_>
      <rects>
        <_>
          31 30 2 2 -1.</_>
        <_>
          31 30 1 1 2.</_>
        <_>
          32 31 1 1 2.</_></rects>
      <tilted>0</tilted></_>
    <_>
      <rects>
        <_>
          32 0 1 3 -1.</_>
        <_>
          32 1 1 1 3.</_></rects>
      <tilted>0</tilted></_>
    <_>
      <rects>
        <_>
          32 0 2 26 -1.</_>
        <_>
          32 0 1 13 2.</_>
        <_>
          33 13 1 13 2.</_></rects>
      <tilted>0</tilted></_>
    <_>
      <rects>
        <_>
          32 3 2 3 -1.</_>
        <_>
          32 4 2 1 3.</_></rects>
      <tilted>0</tilted></_>
    <_>
      <rects>
        <_>
          32 8 1 3 -1.</_>
        <_>
          32 9 1 1 3.</_></rects>
      <tilted>0</tilted></_>
    <_>
      <rects>
        <_>
          32 24 1 6 -1.</_>
        <_>
          32 26 1 2 3.</_></rects>
      <tilted>0</tilted></_>
    <_>
      <rects>
        <_>
          33 0 1 6 -1.</_>
        <_>
          33 3 1 3 2.</_></rects>
      <tilted>0</tilted></_>
    <_>
      <rects>
        <_>
          33 0 1 12 -1.</_>
        <_>
          33 4 1 4 3.</_></rects>
      <tilted>0</tilted></_>
    <_>
      <rects>
        <_>
          33 7 1 24 -1.</_>
        <_>
          33 15 1 8 3.</_></rects>
      <tilted>0</tilted></_></features></cascade>
</opencv_storage>
