<?xml version="1.0"?>
<opencv_storage>
<stage6>
  <maxWeakCount>14</maxWeakCount>
  <stageThreshold>-1.5614528656005859e+00</stageThreshold>
  <weakClassifiers>
    <_>
      <internalNodes>
        0 -1 132021 1.5809002518653870e-01</internalNodes>
      <leafValues>
        -7.6458752155303955e-01 -2.1782177686691284e-01</leafValues></_>
    <_>
      <internalNodes>
        0 -1 79360 -9.0096056461334229e-02</internalNodes>
      <leafValues>
        3.6096286773681641e-01 -3.5910168290138245e-01</leafValues></_>
    <_>
      <internalNodes>
        0 -1 69679 6.5096160396933556e-03</internalNodes>
      <leafValues>
        -2.3964861035346985e-01 3.5441601276397705e-01</leafValues></_>
    <_>
      <internalNodes>
        0 -1 3 1.5967935905791819e-04</internalNodes>
      <leafValues>
        1.5086601674556732e-01 -6.0682290792465210e-01</leafValues></_>
    <_>
      <internalNodes>
        0 -1 141438 2.2296858951449394e-03</internalNodes>
      <leafValues>
        1.9821967184543610e-01 -5.2705025672912598e-01</leafValues></_>
    <_>
      <internalNodes>
        0 -1 29394 5.6941295042634010e-03</internalNodes>
      <leafValues>
        -1.9791869819164276e-01 4.1060385107994080e-01</leafValues></_>
    <_>
      <internalNodes>
        0 -1 196149 -2.7120969025418162e-04</internalNodes>
      <leafValues>
        -6.7218399047851563e-01 1.4129808545112610e-01</leafValues></_>
    <_>
      <internalNodes>
        0 -1 365421 -3.5837729228660464e-04</internalNodes>
      <leafValues>
        -7.8199684619903564e-01 7.6474167406558990e-02</leafValues></_>
    <_>
      <internalNodes>
        0 -1 233613 -1.4817293733358383e-02</internalNodes>
      <leafValues>
        3.2506075501441956e-01 -2.1398030221462250e-01</leafValues></_>
    <_>
      <internalNodes>
        0 -1 9953 -2.3530166596174240e-02</internalNodes>
      <leafValues>
        -6.3970738649368286e-01 1.1311516165733337e-01</leafValues></_>
    <_>
      <internalNodes>
        0 -1 347621 -2.0022959506604820e-04</internalNodes>
      <leafValues>
        -5.4167425632476807e-01 1.2590083479881287e-01</leafValues></_>
    <_>
      <internalNodes>
        0 -1 57216 -4.3757278472185135e-03</internalNodes>
      <leafValues>
        3.7289679050445557e-01 -1.9888512790203094e-01</leafValues></_>
    <_>
      <internalNodes>
        0 -1 14436 -5.6046284735202789e-02</internalNodes>
      <leafValues>
        3.5448214411735535e-01 -2.2998709976673126e-01</leafValues></_>
    <_>
      <internalNodes>
        0 -1 411308 -5.6967977434396744e-04</internalNodes>
      <leafValues>
        -6.0835748910903931e-01 1.2867672741413116e-01</leafValues></_></weakClassifiers></stage6>
</opencv_storage>
