<?xml version="1.0"?>
<opencv_storage>
<stage18>
  <maxWeakCount>21</maxWeakCount>
  <stageThreshold>-1.4785934686660767e+00</stageThreshold>
  <weakClassifiers>
    <_>
      <internalNodes>
        0 -1 271175 2.1601091325283051e-01</internalNodes>
      <leafValues>
        -6.8465429544448853e-01 8.0000001192092896e-01</leafValues></_>
    <_>
      <internalNodes>
        0 -1 338259 -2.9567215824499726e-04</internalNodes>
      <leafValues>
        -7.1328812837600708e-01 -7.3368363082408905e-02</leafValues></_>
    <_>
      <internalNodes>
        0 -1 503647 -1.6913180006667972e-03</internalNodes>
      <leafValues>
        1.6182766854763031e-01 -2.5093156099319458e-01</leafValues></_>
    <_>
      <internalNodes>
        0 -1 366705 7.2404961101710796e-03</internalNodes>
      <leafValues>
        -8.8810443878173828e-02 4.4952476024627686e-01</leafValues></_>
    <_>
      <internalNodes>
        0 -1 59181 -8.2001071423292160e-03</internalNodes>
      <leafValues>
        -7.1879756450653076e-01 9.3063667416572571e-02</leafValues></_>
    <_>
      <internalNodes>
        0 -1 116788 -8.4352714475244284e-04</internalNodes>
      <leafValues>
        3.6668169498443604e-01 -1.4792804419994354e-01</leafValues></_>
    <_>
      <internalNodes>
        0 -1 418654 -1.5926056075841188e-03</internalNodes>
      <leafValues>
        3.7285715341567993e-01 -1.3719308376312256e-01</leafValues></_>
    <_>
      <internalNodes>
        0 -1 177733 -8.3293300122022629e-03</internalNodes>
      <leafValues>
        4.9792474508285522e-01 -1.1259046941995621e-01</leafValues></_>
    <_>
      <internalNodes>
        0 -1 477172 -2.5093578733503819e-04</internalNodes>
      <leafValues>
        -4.0206965804100037e-01 1.3540215790271759e-01</leafValues></_>
    <_>
      <internalNodes>
        0 -1 454541 2.3662513121962547e-03</internalNodes>
      <leafValues>
        -9.9022001028060913e-02 4.4780510663986206e-01</leafValues></_>
    <_>
      <internalNodes>
        0 -1 484622 -1.5427726320922375e-03</internalNodes>
      <leafValues>
        6.2065255641937256e-01 -7.7594764530658722e-02</leafValues></_>
    <_>
      <internalNodes>
        0 -1 151711 3.8904961198568344e-02</internalNodes>
      <leafValues>
        -8.1840306520462036e-02 5.8515799045562744e-01</leafValues></_>
    <_>
      <internalNodes>
        0 -1 491349 1.2000175047433004e-05</internalNodes>
      <leafValues>
        -1.7032755911350250e-01 2.9608076810836792e-01</leafValues></_>
    <_>
      <internalNodes>
        0 -1 345130 -2.1682621445506811e-04</internalNodes>
      <leafValues>
        -3.4579664468765259e-01 1.3528774678707123e-01</leafValues></_>
    <_>
      <internalNodes>
        0 -1 363982 -1.5293713659048080e-02</internalNodes>
      <leafValues>
        2.9318609833717346e-01 -1.5491768717765808e-01</leafValues></_>
    <_>
      <internalNodes>
        0 -1 287108 -1.1388899292796850e-04</internalNodes>
      <leafValues>
        -3.3492401242256165e-01 1.4755825698375702e-01</leafValues></_>
    <_>
      <internalNodes>
        0 -1 110227 3.3299135975539684e-03</internalNodes>
      <leafValues>
        -1.2687367200851440e-01 4.2733627557754517e-01</leafValues></_>
    <_>
      <internalNodes>
        0 -1 252235 7.5016664341092110e-03</internalNodes>
      <leafValues>
        8.6757786571979523e-02 -6.6376864910125732e-01</leafValues></_>
    <_>
      <internalNodes>
        0 -1 403610 9.4896424561738968e-03</internalNodes>
      <leafValues>
        -8.1576518714427948e-02 6.6317552328109741e-01</leafValues></_>
    <_>
      <internalNodes>
        0 -1 484979 9.4303087098523974e-04</internalNodes>
      <leafValues>
        -1.5689131617546082e-01 3.1174081563949585e-01</leafValues></_>
    <_>
      <internalNodes>
        0 -1 294516 -3.6396366340341046e-05</internalNodes>
      <leafValues>
        2.2450444102287292e-01 -2.0827969908714294e-01</leafValues></_></weakClassifiers></stage18>
</opencv_storage>
