<?xml version="1.0"?>
<opencv_storage>
<stage4>
  <maxWeakCount>42</maxWeakCount>
  <stageThreshold>-9.2305380105972290e-01</stageThreshold>
  <weakClassifiers>
    <_>
      <internalNodes>
        0 -1 528883 6.7650508135557175e-03</internalNodes>
      <leafValues>
        -1.7421603202819824e-02 4.8117154836654663e-01</leafValues></_>
    <_>
      <internalNodes>
        0 -1 24597 -7.6316773891448975e-02</internalNodes>
      <leafValues>
        3.1656774878501892e-01 -1.3034911453723907e-01</leafValues></_>
    <_>
      <internalNodes>
        0 -1 537249 -9.9868702818639576e-05</internalNodes>
      <leafValues>
        1.6300980746746063e-01 -3.1397759914398193e-01</leafValues></_>
    <_>
      <internalNodes>
        0 -1 156011 -6.2459353357553482e-03</internalNodes>
      <leafValues>
        3.2331618666648865e-01 -1.1854515969753265e-01</leafValues></_>
    <_>
      <internalNodes>
        0 -1 120685 6.8897632881999016e-03</internalNodes>
      <leafValues>
        -1.6824498772621155e-01 2.7392163872718811e-01</leafValues></_>
    <_>
      <internalNodes>
        0 -1 580026 -7.7372631058096886e-03</internalNodes>
      <leafValues>
        4.2196640372276306e-01 -2.2535132244229317e-02</leafValues></_>
    <_>
      <internalNodes>
        0 -1 307012 1.7118331044912338e-02</internalNodes>
      <leafValues>
        -1.5211085975170135e-01 2.4991972744464874e-01</leafValues></_>
    <_>
      <internalNodes>
        0 -1 340952 -7.2376644238829613e-03</internalNodes>
      <leafValues>
        3.7678572535514832e-01 -1.1059437692165375e-01</leafValues></_>
    <_>
      <internalNodes>
        0 -1 118647 3.6681419610977173e-01</internalNodes>
      <leafValues>
        -7.5790278613567352e-02 5.1909130811691284e-01</leafValues></_>
    <_>
      <internalNodes>
        0 -1 364871 -3.3761166036128998e-02</internalNodes>
      <leafValues>
        2.5971651077270508e-01 -1.4605316519737244e-01</leafValues></_>
    <_>
      <internalNodes>
        0 -1 415990 -6.8854913115501404e-03</internalNodes>
      <leafValues>
        3.3472269773483276e-01 -1.0211341083049774e-01</leafValues></_>
    <_>
      <internalNodes>
        0 -1 176886 5.2445372566580772e-03</internalNodes>
      <leafValues>
        7.0514395833015442e-02 -7.1544396877288818e-01</leafValues></_>
    <_>
      <internalNodes>
        0 -1 538637 3.4826858900487423e-03</internalNodes>
      <leafValues>
        -1.2407898902893066e-01 3.6288669705390930e-01</leafValues></_>
    <_>
      <internalNodes>
        0 -1 19168 2.1450765430927277e-02</internalNodes>
      <leafValues>
        -6.6525213420391083e-02 4.6081641316413879e-01</leafValues></_>
    <_>
      <internalNodes>
        0 -1 63410 -2.7544537186622620e-01</internalNodes>
      <leafValues>
        5.7124847173690796e-01 -6.2326040118932724e-02</leafValues></_>
    <_>
      <internalNodes>
        0 -1 28820 1.0643690824508667e-01</internalNodes>
      <leafValues>
        -1.0857946425676346e-01 3.1998670101165771e-01</leafValues></_>
    <_>
      <internalNodes>
        0 -1 537381 -1.0660949919838458e-04</internalNodes>
      <leafValues>
        -2.7030527591705322e-01 1.4260475337505341e-01</leafValues></_>
    <_>
      <internalNodes>
        0 -1 60020 -3.6203376948833466e-03</internalNodes>
      <leafValues>
        3.1533625721931458e-01 -1.2602801620960236e-01</leafValues></_>
    <_>
      <internalNodes>
        0 -1 260000 -6.2313033267855644e-03</internalNodes>
      <leafValues>
        3.2138398289680481e-01 -9.7987771034240723e-02</leafValues></_>
    <_>
      <internalNodes>
        0 -1 37629 2.1140120225027204e-04</internalNodes>
      <leafValues>
        1.0152035951614380e-01 -3.6242619156837463e-01</leafValues></_>
    <_>
      <internalNodes>
        0 -1 73029 -2.9774229042232037e-03</internalNodes>
      <leafValues>
        3.9006161689758301e-01 -1.0516039282083511e-01</leafValues></_>
    <_>
      <internalNodes>
        0 -1 539440 1.5500879846513271e-02</internalNodes>
      <leafValues>
        -8.4183633327484131e-02 3.9141002297401428e-01</leafValues></_>
    <_>
      <internalNodes>
        0 -1 553710 2.4685552343726158e-03</internalNodes>
      <leafValues>
        8.9253701269626617e-02 -4.7805637121200562e-01</leafValues></_>
    <_>
      <internalNodes>
        0 -1 504582 -4.8827991122379899e-05</internalNodes>
      <leafValues>
        1.5425492823123932e-01 -2.1829627454280853e-01</leafValues></_>
    <_>
      <internalNodes>
        0 -1 491976 1.7730612307786942e-02</internalNodes>
      <leafValues>
        -7.6236300170421600e-02 3.8364988565444946e-01</leafValues></_>
    <_>
      <internalNodes>
        0 -1 2303 1.6226517618633807e-04</internalNodes>
      <leafValues>
        1.0458230227231979e-01 -3.4066694974899292e-01</leafValues></_>
    <_>
      <internalNodes>
        0 -1 8393 -2.5222364347428083e-03</internalNodes>
      <leafValues>
        3.7219172716140747e-01 -8.9232809841632843e-02</leafValues></_>
    <_>
      <internalNodes>
        0 -1 497694 1.6685642767697573e-03</internalNodes>
      <leafValues>
        -1.0581258684396744e-01 3.2221156358718872e-01</leafValues></_>
    <_>
      <internalNodes>
        0 -1 520209 -1.7738596070557833e-03</internalNodes>
      <leafValues>
        2.0242361724376678e-01 -1.5896850824356079e-01</leafValues></_>
    <_>
      <internalNodes>
        0 -1 31338 2.7196472510695457e-03</internalNodes>
      <leafValues>
        -7.1825675666332245e-02 4.7697699069976807e-01</leafValues></_>
    <_>
      <internalNodes>
        0 -1 151419 -1.0272842645645142e-01</internalNodes>
      <leafValues>
        4.9177849292755127e-01 -6.5136738121509552e-02</leafValues></_>
    <_>
      <internalNodes>
        0 -1 325161 5.9820665046572685e-03</internalNodes>
      <leafValues>
        -9.5544859766960144e-02 3.5550528764724731e-01</leafValues></_>
    <_>
      <internalNodes>
        0 -1 487099 -1.3463232899084687e-03</internalNodes>
      <leafValues>
        1.8359650671482086e-01 -1.9920390844345093e-01</leafValues></_>
    <_>
      <internalNodes>
        0 -1 520667 1.3391274842433631e-04</internalNodes>
      <leafValues>
        1.3627468049526215e-01 -2.3843817412853241e-01</leafValues></_>
    <_>
      <internalNodes>
        0 -1 458030 -4.3480773456394672e-03</internalNodes>
      <leafValues>
        6.0700899362564087e-01 -5.1164921373128891e-02</leafValues></_>
    <_>
      <internalNodes>
        0 -1 592498 -2.9414824675768614e-03</internalNodes>
      <leafValues>
        -5.5857712030410767e-01 6.3549965620040894e-02</leafValues></_>
    <_>
      <internalNodes>
        0 -1 257117 -5.4865283891558647e-03</internalNodes>
      <leafValues>
        3.7995457649230957e-01 -9.3826048076152802e-02</leafValues></_>
    <_>
      <internalNodes>
        0 -1 538757 -5.6741671869531274e-05</internalNodes>
      <leafValues>
        -2.6463779807090759e-01 1.1713951826095581e-01</leafValues></_>
    <_>
      <internalNodes>
        0 -1 522115 -1.3390692765824497e-04</internalNodes>
      <leafValues>
        1.5820702910423279e-01 -1.8281570076942444e-01</leafValues></_>
    <_>
      <internalNodes>
        0 -1 414480 -4.3447474017739296e-03</internalNodes>
      <leafValues>
        3.1788119673728943e-01 -1.0681924223899841e-01</leafValues></_>
    <_>
      <internalNodes>
        0 -1 551835 -3.5723010078072548e-03</internalNodes>
      <leafValues>
        6.1031299829483032e-01 -5.0520449876785278e-02</leafValues></_>
    <_>
      <internalNodes>
        0 -1 504977 -5.4869800806045532e-03</internalNodes>
      <leafValues>
        -7.0198857784271240e-01 5.1459956914186478e-02</leafValues></_></weakClassifiers></stage4>
</opencv_storage>
