<?xml version="1.0"?>
<opencv_storage>
<stage8>
  <maxWeakCount>56</maxWeakCount>
  <stageThreshold>-8.1411409378051758e-01</stageThreshold>
  <weakClassifiers>
    <_>
      <internalNodes>
        0 -1 63414 -1.1977507174015045e-01</internalNodes>
      <leafValues>
        3.6936935782432556e-01 -2.9986962676048279e-02</leafValues></_>
    <_>
      <internalNodes>
        0 -1 153510 2.2707828879356384e-01</internalNodes>
      <leafValues>
        -6.9301575422286987e-02 3.9195328950881958e-01</leafValues></_>
    <_>
      <internalNodes>
        0 -1 83875 -2.7945247711613774e-04</internalNodes>
      <leafValues>
        -2.3600083589553833e-01 1.1912305653095245e-01</leafValues></_>
    <_>
      <internalNodes>
        0 -1 205132 6.1435876414179802e-03</internalNodes>
      <leafValues>
        4.9964994192123413e-02 -5.3851801156997681e-01</leafValues></_>
    <_>
      <internalNodes>
        0 -1 269003 -1.0582630056887865e-03</internalNodes>
      <leafValues>
        5.0767022371292114e-01 -5.1543753594160080e-02</leafValues></_>
    <_>
      <internalNodes>
        0 -1 502657 1.3565961271524429e-03</internalNodes>
      <leafValues>
        6.7864939570426941e-02 -3.1374710798263550e-01</leafValues></_>
    <_>
      <internalNodes>
        0 -1 438138 -5.0703946501016617e-02</internalNodes>
      <leafValues>
        3.6448949575424194e-01 -5.2938777953386307e-02</leafValues></_>
    <_>
      <internalNodes>
        0 -1 364082 5.2366316318511963e-02</internalNodes>
      <leafValues>
        6.1149753630161285e-02 -3.5194623470306396e-01</leafValues></_>
    <_>
      <internalNodes>
        0 -1 36435 3.5469777882099152e-02</internalNodes>
      <leafValues>
        6.4795747399330139e-02 -6.2880808115005493e-01</leafValues></_>
    <_>
      <internalNodes>
        0 -1 406431 6.5680574625730515e-03</internalNodes>
      <leafValues>
        -8.9367814362049103e-02 2.8574120998382568e-01</leafValues></_>
    <_>
      <internalNodes>
        0 -1 413790 -3.8609225302934647e-02</internalNodes>
      <leafValues>
        5.2258759737014771e-01 -5.9299483895301819e-02</leafValues></_>
    <_>
      <internalNodes>
        0 -1 73554 -5.6323707103729248e-03</internalNodes>
      <leafValues>
        -6.0467225313186646e-01 4.1999757289886475e-02</leafValues></_>
    <_>
      <internalNodes>
        0 -1 578946 3.0326399952173233e-02</internalNodes>
      <leafValues>
        -7.6682105660438538e-02 3.0425083637237549e-01</leafValues></_>
    <_>
      <internalNodes>
        0 -1 603212 4.4908411800861359e-03</internalNodes>
      <leafValues>
        -1.1607383936643600e-01 2.6798802614212036e-01</leafValues></_>
    <_>
      <internalNodes>
        0 -1 649461 2.8956399182789028e-04</internalNodes>
      <leafValues>
        5.8853954076766968e-02 -4.1384625434875488e-01</leafValues></_>
    <_>
      <internalNodes>
        0 -1 332447 1.3603787010652013e-05</internalNodes>
      <leafValues>
        -1.6612438857555389e-01 1.5881924331188202e-01</leafValues></_>
    <_>
      <internalNodes>
        0 -1 203796 -5.6026680395007133e-03</internalNodes>
      <leafValues>
        -4.1897672414779663e-01 6.1334989964962006e-02</leafValues></_>
    <_>
      <internalNodes>
        0 -1 628833 -1.8677555490285158e-03</internalNodes>
      <leafValues>
        3.9917320013046265e-01 -6.4667358994483948e-02</leafValues></_>
    <_>
      <internalNodes>
        0 -1 342606 5.0521571210992988e-06</internalNodes>
      <leafValues>
        -1.5799747407436371e-01 1.5482310950756073e-01</leafValues></_>
    <_>
      <internalNodes>
        0 -1 495627 -1.9136928021907806e-02</internalNodes>
      <leafValues>
        -8.3737224340438843e-01 2.6257622987031937e-02</leafValues></_>
    <_>
      <internalNodes>
        0 -1 158453 -1.2677785754203796e-01</internalNodes>
      <leafValues>
        -5.6462329626083374e-01 3.4426413476467133e-02</leafValues></_>
    <_>
      <internalNodes>
        0 -1 558647 2.0434997975826263e-02</internalNodes>
      <leafValues>
        -3.6937143653631210e-02 7.5414401292800903e-01</leafValues></_>
    <_>
      <internalNodes>
        0 -1 486640 -2.3829030396882445e-04</internalNodes>
      <leafValues>
        -4.1826909780502319e-01 6.6596038639545441e-02</leafValues></_>
    <_>
      <internalNodes>
        0 -1 135357 -1.9035858567804098e-03</internalNodes>
      <leafValues>
        4.0317502617835999e-01 -6.2802106142044067e-02</leafValues></_>
    <_>
      <internalNodes>
        0 -1 42442 1.1729777324944735e-03</internalNodes>
      <leafValues>
        6.6364720463752747e-02 -3.6387690901756287e-01</leafValues></_>
    <_>
      <internalNodes>
        0 -1 6453 2.1130421664565802e-03</internalNodes>
      <leafValues>
        -9.2384338378906250e-02 2.5404638051986694e-01</leafValues></_>
    <_>
      <internalNodes>
        0 -1 26007 -7.0496893022209406e-04</internalNodes>
      <leafValues>
        2.2466927766799927e-01 -1.0964451730251312e-01</leafValues></_>
    <_>
      <internalNodes>
        0 -1 132945 -4.6525619109161198e-04</internalNodes>
      <leafValues>
        1.7171156406402588e-01 -1.4615775644779205e-01</leafValues></_>
    <_>
      <internalNodes>
        0 -1 647861 1.6074310406111181e-04</internalNodes>
      <leafValues>
        7.4369408190250397e-02 -3.2440865039825439e-01</leafValues></_>
    <_>
      <internalNodes>
        0 -1 505197 7.1663595736026764e-04</internalNodes>
      <leafValues>
        -1.1413159221410751e-01 2.0005565881729126e-01</leafValues></_>
    <_>
      <internalNodes>
        0 -1 196747 -1.9542442169040442e-04</internalNodes>
      <leafValues>
        1.6441909968852997e-01 -1.3461020588874817e-01</leafValues></_>
    <_>
      <internalNodes>
        0 -1 538099 4.6072332188487053e-03</internalNodes>
      <leafValues>
        4.0757026523351669e-02 -5.6329041719436646e-01</leafValues></_>
    <_>
      <internalNodes>
        0 -1 574540 9.0822641504928470e-04</internalNodes>
      <leafValues>
        -1.0657283663749695e-01 2.3393613100051880e-01</leafValues></_>
    <_>
      <internalNodes>
        0 -1 49779 2.2800929844379425e-02</internalNodes>
      <leafValues>
        -8.8294297456741333e-02 2.7313655614852905e-01</leafValues></_>
    <_>
      <internalNodes>
        0 -1 551812 1.1224301852053031e-04</internalNodes>
      <leafValues>
        1.1362940818071365e-01 -2.0487354695796967e-01</leafValues></_>
    <_>
      <internalNodes>
        0 -1 376200 5.4313078522682190e-02</internalNodes>
      <leafValues>
        -4.4342853128910065e-02 5.6423920392990112e-01</leafValues></_>
    <_>
      <internalNodes>
        0 -1 313676 -1.4612963423132896e-03</internalNodes>
      <leafValues>
        2.6624271273612976e-01 -8.1678897142410278e-02</leafValues></_>
    <_>
      <internalNodes>
        0 -1 466600 3.8899106439203024e-03</internalNodes>
      <leafValues>
        5.8331031352281570e-02 -4.2058402299880981e-01</leafValues></_>
    <_>
      <internalNodes>
        0 -1 417662 -2.1771277533844113e-04</internalNodes>
      <leafValues>
        1.1768966168165207e-01 -1.9861604273319244e-01</leafValues></_>
    <_>
      <internalNodes>
        0 -1 318418 1.9342061132192612e-02</internalNodes>
      <leafValues>
        -3.2856218516826630e-02 6.4871215820312500e-01</leafValues></_>
    <_>
      <internalNodes>
        0 -1 34601 1.3107270933687687e-04</internalNodes>
      <leafValues>
        -1.3323913514614105e-01 1.8623802065849304e-01</leafValues></_>
    <_>
      <internalNodes>
        0 -1 444508 2.3953830532263964e-04</internalNodes>
      <leafValues>
        9.8449610173702240e-02 -2.5518625974655151e-01</leafValues></_>
    <_>
      <internalNodes>
        0 -1 433003 1.0862273629754782e-03</internalNodes>
      <leafValues>
        -1.0996090620756149e-01 2.0515397191047668e-01</leafValues></_>
    <_>
      <internalNodes>
        0 -1 522015 -1.3972790911793709e-03</internalNodes>
      <leafValues>
        2.0404240489006042e-01 -1.2432605028152466e-01</leafValues></_>
    <_>
      <internalNodes>
        0 -1 485452 8.4619866684079170e-03</internalNodes>
      <leafValues>
        -1.3499192893505096e-01 2.2422988712787628e-01</leafValues></_>
    <_>
      <internalNodes>
        0 -1 634991 9.0111969038844109e-03</internalNodes>
      <leafValues>
        -8.7551258504390717e-02 3.0360183119773865e-01</leafValues></_>
    <_>
      <internalNodes>
        0 -1 155582 -8.1248637288808823e-03</internalNodes>
      <leafValues>
        2.4860574305057526e-01 -9.7259260714054108e-02</leafValues></_>
    <_>
      <internalNodes>
        0 -1 151449 -2.7076659724116325e-02</internalNodes>
      <leafValues>
        -6.8422174453735352e-01 3.8588188588619232e-02</leafValues></_>
    <_>
      <internalNodes>
        0 -1 440228 -3.5757727921009064e-02</internalNodes>
      <leafValues>
        9.0903848409652710e-01 -3.4147139638662338e-02</leafValues></_>
    <_>
      <internalNodes>
        0 -1 484213 -7.8415859024971724e-04</internalNodes>
      <leafValues>
        -4.2985495924949646e-01 6.3210219144821167e-02</leafValues></_>
    <_>
      <internalNodes>
        0 -1 8565 -2.7454967494122684e-05</internalNodes>
      <leafValues>
        -1.9892553985118866e-01 1.0990406572818756e-01</leafValues></_>
    <_>
      <internalNodes>
        0 -1 494331 2.9204664751887321e-03</internalNodes>
      <leafValues>
        -6.6926538944244385e-02 3.4389600157737732e-01</leafValues></_>
    <_>
      <internalNodes>
        0 -1 638663 -5.7841338275466114e-05</internalNodes>
      <leafValues>
        -2.6121604442596436e-01 9.3635469675064087e-02</leafValues></_>
    <_>
      <internalNodes>
        0 -1 459254 -8.7025534594431520e-04</internalNodes>
      <leafValues>
        2.0534956455230713e-01 -1.1778647452592850e-01</leafValues></_>
    <_>
      <internalNodes>
        0 -1 162807 -7.8928368166089058e-03</internalNodes>
      <leafValues>
        2.1918240189552307e-01 -1.2896890938282013e-01</leafValues></_>
    <_>
      <internalNodes>
        0 -1 378321 -4.0368758141994476e-02</internalNodes>
      <leafValues>
        -7.4055075645446777e-01 3.6305584013462067e-02</leafValues></_></weakClassifiers></stage8>
</opencv_storage>
