<?xml version="1.0"?>
<opencv_storage>
<stage2>
  <maxWeakCount>28</maxWeakCount>
  <stageThreshold>-1.0718343257904053e+00</stageThreshold>
  <weakClassifiers>
    <_>
      <internalNodes>
        0 -1 225007 1.9984855316579342e-03</internalNodes>
      <leafValues>
        -6.4398542046546936e-02 5.5234658718109131e-01</leafValues></_>
    <_>
      <internalNodes>
        0 -1 224896 -1.6190792666748166e-03</internalNodes>
      <leafValues>
        4.7915062308311462e-01 -1.4634013175964355e-01</leafValues></_>
    <_>
      <internalNodes>
        0 -1 175864 -6.4659374766051769e-04</internalNodes>
      <leafValues>
        4.6172329783439636e-01 -1.3472190499305725e-01</leafValues></_>
    <_>
      <internalNodes>
        0 -1 178269 8.0212578177452087e-03</internalNodes>
      <leafValues>
        1.0020703822374344e-01 -5.1389265060424805e-01</leafValues></_>
    <_>
      <internalNodes>
        0 -1 131406 3.7657644134014845e-03</internalNodes>
      <leafValues>
        -1.3552850484848022e-01 5.1666069030761719e-01</leafValues></_>
    <_>
      <internalNodes>
        0 -1 210286 5.6742378546914551e-06</internalNodes>
      <leafValues>
        -1.4384903013706207e-01 3.4595298767089844e-01</leafValues></_>
    <_>
      <internalNodes>
        0 -1 197294 -1.6858492745086551e-03</internalNodes>
      <leafValues>
        3.5329011082649231e-01 -2.0598563551902771e-01</leafValues></_>
    <_>
      <internalNodes>
        0 -1 643257 2.0587977487593889e-03</internalNodes>
      <leafValues>
        1.8254607915878296e-01 -3.0531758069992065e-01</leafValues></_>
    <_>
      <internalNodes>
        0 -1 354205 -5.9858579188585281e-03</internalNodes>
      <leafValues>
        4.6022289991378784e-01 -9.9901720881462097e-02</leafValues></_>
    <_>
      <internalNodes>
        0 -1 10409 7.0503000169992447e-03</internalNodes>
      <leafValues>
        -4.4071868062019348e-02 6.2591403722763062e-01</leafValues></_>
    <_>
      <internalNodes>
        0 -1 297757 -5.7489611208438873e-04</internalNodes>
      <leafValues>
        7.1343827247619629e-01 -6.7406944930553436e-02</leafValues></_>
    <_>
      <internalNodes>
        0 -1 162536 -2.6685991324484348e-03</internalNodes>
      <leafValues>
        4.3050912022590637e-01 -1.0492271929979324e-01</leafValues></_>
    <_>
      <internalNodes>
        0 -1 443750 -1.8106256902683526e-05</internalNodes>
      <leafValues>
        1.7801740765571594e-01 -2.6962843537330627e-01</leafValues></_>
    <_>
      <internalNodes>
        0 -1 435845 -7.7587991952896118e-02</internalNodes>
      <leafValues>
        4.0910446643829346e-01 -1.1913879215717316e-01</leafValues></_>
    <_>
      <internalNodes>
        0 -1 512997 -9.6290174406021833e-04</internalNodes>
      <leafValues>
        3.9619913697242737e-01 -1.1995888501405716e-01</leafValues></_>
    <_>
      <internalNodes>
        0 -1 483039 -6.0356767789926380e-05</internalNodes>
      <leafValues>
        1.9437125325202942e-01 -2.9206100106239319e-01</leafValues></_>
    <_>
      <internalNodes>
        0 -1 576662 -3.8024148670956492e-04</internalNodes>
      <leafValues>
        5.4883658885955811e-01 -9.1897055506706238e-02</leafValues></_>
    <_>
      <internalNodes>
        0 -1 76203 6.2381470203399658e-01</internalNodes>
      <leafValues>
        -6.6840015351772308e-02 7.1243506669998169e-01</leafValues></_>
    <_>
      <internalNodes>
        0 -1 387109 4.9708196893334389e-03</internalNodes>
      <leafValues>
        -1.1313006281852722e-01 4.0619859099388123e-01</leafValues></_>
    <_>
      <internalNodes>
        0 -1 286183 -1.6747584566473961e-02</internalNodes>
      <leafValues>
        2.9575219750404358e-01 -1.6743171215057373e-01</leafValues></_>
    <_>
      <internalNodes>
        0 -1 158477 -1.0812196414917707e-03</internalNodes>
      <leafValues>
        3.4265914559364319e-01 -1.3377055525779724e-01</leafValues></_>
    <_>
      <internalNodes>
        0 -1 252846 1.2734793126583099e-03</internalNodes>
      <leafValues>
        -1.4547343552112579e-01 3.5857093334197998e-01</leafValues></_>
    <_>
      <internalNodes>
        0 -1 442039 -3.3199343830347061e-02</internalNodes>
      <leafValues>
        3.8343766331672668e-01 -1.3197439908981323e-01</leafValues></_>
    <_>
      <internalNodes>
        0 -1 565795 -1.3598633930087090e-02</internalNodes>
      <leafValues>
        2.6168593764305115e-01 -1.6907264292240143e-01</leafValues></_>
    <_>
      <internalNodes>
        0 -1 262 -6.0023795813322067e-03</internalNodes>
      <leafValues>
        -3.2669422030448914e-01 1.4959996938705444e-01</leafValues></_>
    <_>
      <internalNodes>
        0 -1 208221 7.5866369297727942e-04</internalNodes>
      <leafValues>
        -7.0418275892734528e-02 8.4678733348846436e-01</leafValues></_>
    <_>
      <internalNodes>
        0 -1 369450 -5.5271452292799950e-03</internalNodes>
      <leafValues>
        3.7176266312599182e-01 -1.1388248950242996e-01</leafValues></_>
    <_>
      <internalNodes>
        0 -1 32216 -1.1512568453326821e-03</internalNodes>
      <leafValues>
        4.4766682386398315e-01 -9.5242761075496674e-02</leafValues></_></weakClassifiers></stage2>
</opencv_storage>
