<?xml version="1.0"?>
<opencv_storage>
<stage0>
  <maxWeakCount>10</maxWeakCount>
  <stageThreshold>-8.8107746839523315e-01</stageThreshold>
  <weakClassifiers>
    <_>
      <internalNodes>
        0 -1 389724 1.7642418388277292e-03</internalNodes>
      <leafValues>
        -9.2475585639476776e-02 7.8649234771728516e-01</leafValues></_>
    <_>
      <internalNodes>
        0 -1 339490 -2.2294460795819759e-03</internalNodes>
      <leafValues>
        7.1602213382720947e-01 -1.6842876374721527e-01</leafValues></_>
    <_>
      <internalNodes>
        0 -1 57345 -8.9842947199940681e-03</internalNodes>
      <leafValues>
        6.0314518213272095e-01 -1.5372051298618317e-01</leafValues></_>
    <_>
      <internalNodes>
        0 -1 380433 -1.0130697861313820e-02</internalNodes>
      <leafValues>
        6.0809755325317383e-01 -1.9319558143615723e-01</leafValues></_>
    <_>
      <internalNodes>
        0 -1 621584 -2.7491732034832239e-03</internalNodes>
      <leafValues>
        5.2483487129211426e-01 -2.0563760399818420e-01</leafValues></_>
    <_>
      <internalNodes>
        0 -1 367922 -1.4631676021963358e-03</internalNodes>
      <leafValues>
        5.9898126125335693e-01 -1.6842453181743622e-01</leafValues></_>
    <_>
      <internalNodes>
        0 -1 315464 9.3305227346718311e-04</internalNodes>
      <leafValues>
        -2.5119686126708984e-01 4.6738559007644653e-01</leafValues></_>
    <_>
      <internalNodes>
        0 -1 406019 4.4551752507686615e-03</internalNodes>
      <leafValues>
        -1.2287717312574387e-01 4.8794758319854736e-01</leafValues></_>
    <_>
      <internalNodes>
        0 -1 52827 2.9572826623916626e-01</internalNodes>
      <leafValues>
        -1.3452599942684174e-01 5.9462922811508179e-01</leafValues></_>
    <_>
      <internalNodes>
        0 -1 225240 -1.5232586860656738e-01</internalNodes>
      <leafValues>
        6.7867338657379150e-01 -1.0917729139328003e-01</leafValues></_></weakClassifiers></stage0>
</opencv_storage>
