<?xml version="1.0"?>
<opencv_storage>
<stage13>
  <maxWeakCount>68</maxWeakCount>
  <stageThreshold>-7.7725988626480103e-01</stageThreshold>
  <weakClassifiers>
    <_>
      <internalNodes>
        0 -1 538793 -5.2750308532267809e-04</internalNodes>
      <leafValues>
        3.0350664258003235e-01 -3.7144936621189117e-02</leafValues></_>
    <_>
      <internalNodes>
        0 -1 640129 -2.3783855140209198e-03</internalNodes>
      <leafValues>
        2.3475810885429382e-01 -1.2023149430751801e-01</leafValues></_>
    <_>
      <internalNodes>
        0 -1 145111 3.0641159974038601e-03</internalNodes>
      <leafValues>
        -7.2367846965789795e-02 3.3597737550735474e-01</leafValues></_>
    <_>
      <internalNodes>
        0 -1 506759 -9.6096465131267905e-04</internalNodes>
      <leafValues>
        1.2721519172191620e-01 -1.6344054043292999e-01</leafValues></_>
    <_>
      <internalNodes>
        0 -1 17295 3.7105369567871094e-01</internalNodes>
      <leafValues>
        -6.2885716557502747e-02 4.2409104108810425e-01</leafValues></_>
    <_>
      <internalNodes>
        0 -1 476702 -5.0898147746920586e-03</internalNodes>
      <leafValues>
        2.4358890950679779e-01 -1.0864796489477158e-01</leafValues></_>
    <_>
      <internalNodes>
        0 -1 37731 2.9692950192838907e-04</internalNodes>
      <leafValues>
        8.0123603343963623e-02 -2.5313490629196167e-01</leafValues></_>
    <_>
      <internalNodes>
        0 -1 455586 3.3163321204483509e-03</internalNodes>
      <leafValues>
        -8.7625123560428619e-02 2.0551137626171112e-01</leafValues></_>
    <_>
      <internalNodes>
        0 -1 157003 -1.6741963103413582e-02</internalNodes>
      <leafValues>
        1.6563408076763153e-01 -1.4292556047439575e-01</leafValues></_>
    <_>
      <internalNodes>
        0 -1 502594 -5.3725973702967167e-04</internalNodes>
      <leafValues>
        -2.2436007857322693e-01 1.1155946552753448e-01</leafValues></_>
    <_>
      <internalNodes>
        0 -1 212416 -7.0686027407646179e-02</internalNodes>
      <leafValues>
        3.9929458498954773e-01 -7.5788177549839020e-02</leafValues></_>
    <_>
      <internalNodes>
        0 -1 35843 -7.3925475589931011e-04</internalNodes>
      <leafValues>
        1.7194660007953644e-01 -1.0652760416269302e-01</leafValues></_>
    <_>
      <internalNodes>
        0 -1 631322 7.1660317480564117e-03</internalNodes>
      <leafValues>
        -4.8956461250782013e-02 2.9394829273223877e-01</leafValues></_>
    <_>
      <internalNodes>
        0 -1 202718 1.8928852677345276e-01</internalNodes>
      <leafValues>
        -2.7966763824224472e-02 7.6904934644699097e-01</leafValues></_>
    <_>
      <internalNodes>
        0 -1 519939 -7.3286192491650581e-04</internalNodes>
      <leafValues>
        -2.6507461071014404e-01 8.7851524353027344e-02</leafValues></_>
    <_>
      <internalNodes>
        0 -1 432457 -4.9509912729263306e-02</internalNodes>
      <leafValues>
        7.2296720743179321e-01 -4.6867612749338150e-02</leafValues></_>
    <_>
      <internalNodes>
        0 -1 566801 -1.1604199244175106e-05</internalNodes>
      <leafValues>
        1.6628754138946533e-01 -1.1197364330291748e-01</leafValues></_>
    <_>
      <internalNodes>
        0 -1 349085 9.3396840384230018e-05</internalNodes>
      <leafValues>
        7.7849313616752625e-02 -2.6884159445762634e-01</leafValues></_>
    <_>
      <internalNodes>
        0 -1 24660 1.1751165584428236e-04</internalNodes>
      <leafValues>
        -1.1151121556758881e-01 1.7798537015914917e-01</leafValues></_>
    <_>
      <internalNodes>
        0 -1 619719 -9.0779445599764585e-05</internalNodes>
      <leafValues>
        -2.3160351812839508e-01 8.8486246764659882e-02</leafValues></_>
    <_>
      <internalNodes>
        0 -1 29424 -4.3345671147108078e-03</internalNodes>
      <leafValues>
        2.6893731951713562e-01 -8.3945535123348236e-02</leafValues></_>
    <_>
      <internalNodes>
        0 -1 33066 7.6206150697544217e-04</internalNodes>
      <leafValues>
        -1.2009368836879730e-01 1.7470125854015350e-01</leafValues></_>
    <_>
      <internalNodes>
        0 -1 619830 -6.0129060875624418e-04</internalNodes>
      <leafValues>
        3.0532783269882202e-01 -6.8147569894790649e-02</leafValues></_>
    <_>
      <internalNodes>
        0 -1 505885 -3.9060661219991744e-04</internalNodes>
      <leafValues>
        -2.8654220700263977e-01 7.0035800337791443e-02</leafValues></_>
    <_>
      <internalNodes>
        0 -1 649608 -1.3813893310725689e-02</internalNodes>
      <leafValues>
        -5.4386222362518311e-01 4.0988512337207794e-02</leafValues></_>
    <_>
      <internalNodes>
        0 -1 444019 4.4201384298503399e-03</internalNodes>
      <leafValues>
        -8.4606066346168518e-02 2.4324473738670349e-01</leafValues></_>
    <_>
      <internalNodes>
        0 -1 419807 -6.3381697982549667e-03</internalNodes>
      <leafValues>
        -4.7763639688491821e-01 4.0641773492097855e-02</leafValues></_>
    <_>
      <internalNodes>
        0 -1 324538 -1.0302088412572630e-05</internalNodes>
      <leafValues>
        1.6073419153690338e-01 -1.2144060432910919e-01</leafValues></_>
    <_>
      <internalNodes>
        0 -1 629445 -2.9459176585078239e-03</internalNodes>
      <leafValues>
        -7.7080470323562622e-01 2.0632451400160789e-02</leafValues></_>
    <_>
      <internalNodes>
        0 -1 494229 1.0172825568588451e-05</internalNodes>
      <leafValues>
        -1.2375749647617340e-01 1.5744923055171967e-01</leafValues></_>
    <_>
      <internalNodes>
        0 -1 519643 -8.8946949690580368e-03</internalNodes>
      <leafValues>
        4.8531752824783325e-01 -3.7174154072999954e-02</leafValues></_>
    <_>
      <internalNodes>
        0 -1 536033 -1.8398301108391024e-05</internalNodes>
      <leafValues>
        1.3292916119098663e-01 -1.5960502624511719e-01</leafValues></_>
    <_>
      <internalNodes>
        0 -1 400055 -7.2649130597710609e-03</internalNodes>
      <leafValues>
        -5.8140069246292114e-01 3.4055400639772415e-02</leafValues></_>
    <_>
      <internalNodes>
        0 -1 194239 -1.3663376448675990e-03</internalNodes>
      <leafValues>
        3.4565392136573792e-01 -6.0356196016073227e-02</leafValues></_>
    <_>
      <internalNodes>
        0 -1 233247 1.3743516802787781e-01</internalNodes>
      <leafValues>
        2.6311738416552544e-02 -7.4381786584854126e-01</leafValues></_>
    <_>
      <internalNodes>
        0 -1 351840 8.6488394299522042e-04</internalNodes>
      <leafValues>
        5.4588496685028076e-02 -3.2801145315170288e-01</leafValues></_>
    <_>
      <internalNodes>
        0 -1 642498 -6.3876132480800152e-04</internalNodes>
      <leafValues>
        2.1437063813209534e-01 -9.2961244285106659e-02</leafValues></_>
    <_>
      <internalNodes>
        0 -1 360233 -5.7940840721130371e-02</internalNodes>
      <leafValues>
        4.5217233896255493e-01 -4.2408231645822525e-02</leafValues></_>
    <_>
      <internalNodes>
        0 -1 373660 -2.4454301455989480e-04</internalNodes>
      <leafValues>
        -2.2976204752922058e-01 9.6456944942474365e-02</leafValues></_>
    <_>
      <internalNodes>
        0 -1 537384 -4.5497308747144416e-06</internalNodes>
      <leafValues>
        1.5844342112541199e-01 -1.1999189108610153e-01</leafValues></_>
    <_>
      <internalNodes>
        0 -1 496454 3.3372247125953436e-03</internalNodes>
      <leafValues>
        -5.8183133602142334e-02 3.2569363713264465e-01</leafValues></_>
    <_>
      <internalNodes>
        0 -1 514373 -6.8404246121644974e-04</internalNodes>
      <leafValues>
        1.9305360317230225e-01 -1.1323860287666321e-01</leafValues></_>
    <_>
      <internalNodes>
        0 -1 647835 2.0516908261924982e-04</internalNodes>
      <leafValues>
        9.4102442264556885e-02 -2.1205899119377136e-01</leafValues></_>
    <_>
      <internalNodes>
        0 -1 109361 -2.6631663786247373e-04</internalNodes>
      <leafValues>
        -2.8430363535881042e-01 7.0123493671417236e-02</leafValues></_>
    <_>
      <internalNodes>
        0 -1 312024 -6.3437782227993011e-02</internalNodes>
      <leafValues>
        -5.7105475664138794e-01 3.9017029106616974e-02</leafValues></_>
    <_>
      <internalNodes>
        0 -1 227086 3.7807788699865341e-02</internalNodes>
      <leafValues>
        4.5944157987833023e-02 -4.0835475921630859e-01</leafValues></_>
    <_>
      <internalNodes>
        0 -1 512327 -2.7087904512882233e-02</internalNodes>
      <leafValues>
        6.3796228170394897e-01 -3.3899236470460892e-02</leafValues></_>
    <_>
      <internalNodes>
        0 -1 590520 1.2955602142028511e-04</internalNodes>
      <leafValues>
        1.0146329551935196e-01 -2.1764282882213593e-01</leafValues></_>
    <_>
      <internalNodes>
        0 -1 516179 1.0083515942096710e-01</internalNodes>
      <leafValues>
        -4.2659863829612732e-02 6.1628073453903198e-01</leafValues></_>
    <_>
      <internalNodes>
        0 -1 361627 2.5274561718106270e-02</internalNodes>
      <leafValues>
        -7.4105843901634216e-02 2.9104328155517578e-01</leafValues></_>
    <_>
      <internalNodes>
        0 -1 608166 -5.4542132420465350e-04</internalNodes>
      <leafValues>
        2.1029277145862579e-01 -1.1841037124395370e-01</leafValues></_>
    <_>
      <internalNodes>
        0 -1 401031 -1.1144205018354114e-05</internalNodes>
      <leafValues>
        1.7342862486839294e-01 -1.2917594611644745e-01</leafValues></_>
    <_>
      <internalNodes>
        0 -1 424059 -6.3766079256311059e-04</internalNodes>
      <leafValues>
        -2.9466322064399719e-01 7.6865762472152710e-02</leafValues></_>
    <_>
      <internalNodes>
        0 -1 635468 2.9527751030400395e-04</internalNodes>
      <leafValues>
        -7.7131211757659912e-02 2.9415979981422424e-01</leafValues></_>
    <_>
      <internalNodes>
        0 -1 316572 -9.1428146697580814e-04</internalNodes>
      <leafValues>
        5.2003300189971924e-01 -3.7528742104768753e-02</leafValues></_>
    <_>
      <internalNodes>
        0 -1 318278 -2.0148356270510703e-04</internalNodes>
      <leafValues>
        -2.6017841696739197e-01 7.7596165239810944e-02</leafValues></_>
    <_>
      <internalNodes>
        0 -1 208231 -2.7447047614259645e-05</internalNodes>
      <leafValues>
        1.6823187470436096e-01 -1.2209798395633698e-01</leafValues></_>
    <_>
      <internalNodes>
        0 -1 143719 2.9641336295753717e-03</internalNodes>
      <leafValues>
        -1.1346643418073654e-01 1.7279368638992310e-01</leafValues></_>
    <_>
      <internalNodes>
        0 -1 181279 -1.6203908307943493e-04</internalNodes>
      <leafValues>
        1.7828913033008575e-01 -1.1025777459144592e-01</leafValues></_>
    <_>
      <internalNodes>
        0 -1 302570 1.3156541623175144e-02</internalNodes>
      <leafValues>
        3.8238894194364548e-02 -5.7842248678207397e-01</leafValues></_>
    <_>
      <internalNodes>
        0 -1 649220 4.9195380415767431e-04</internalNodes>
      <leafValues>
        5.8765783905982971e-02 -3.2394659519195557e-01</leafValues></_>
    <_>
      <internalNodes>
        0 -1 619905 2.4816549848765135e-03</internalNodes>
      <leafValues>
        -3.8350649178028107e-02 5.9642684459686279e-01</leafValues></_>
    <_>
      <internalNodes>
        0 -1 267267 2.7159642428159714e-02</internalNodes>
      <leafValues>
        -1.9208908081054688e-02 8.7055557966232300e-01</leafValues></_>
    <_>
      <internalNodes>
        0 -1 553825 -1.3952326844446361e-04</internalNodes>
      <leafValues>
        -2.8240883350372314e-01 7.5299300253391266e-02</leafValues></_>
    <_>
      <internalNodes>
        0 -1 461477 3.2740468159317970e-03</internalNodes>
      <leafValues>
        -3.6880664527416229e-02 5.9550392627716064e-01</leafValues></_>
    <_>
      <internalNodes>
        0 -1 625543 -6.8555737379938364e-04</internalNodes>
      <leafValues>
        1.9724358618259430e-01 -9.0551145374774933e-02</leafValues></_>
    <_>
      <internalNodes>
        0 -1 564406 -7.8000845387578011e-03</internalNodes>
      <leafValues>
        8.3135199546813965e-01 -2.4577328935265541e-02</leafValues></_>
    <_>
      <internalNodes>
        0 -1 115240 -3.3789859153330326e-03</internalNodes>
      <leafValues>
        -4.9026203155517578e-01 4.5548528432846069e-02</leafValues></_></weakClassifiers></stage13>
</opencv_storage>
