<?xml version="1.0"?>
<opencv_storage>
<stage16>
  <maxWeakCount>20</maxWeakCount>
  <stageThreshold>-1.3913488388061523e+00</stageThreshold>
  <weakClassifiers>
    <_>
      <internalNodes>
        0 -1 437435 -1.6763297608122230e-03</internalNodes>
      <leafValues>
        6.9230771064758301e-01 -6.8723583221435547e-01</leafValues></_>
    <_>
      <internalNodes>
        0 -1 30221 -1.3418095477391034e-05</internalNodes>
      <leafValues>
        4.7518145292997360e-02 -3.4958758950233459e-01</leafValues></_>
    <_>
      <internalNodes>
        0 -1 381562 -1.2571374827530235e-04</internalNodes>
      <leafValues>
        -4.1843375563621521e-01 1.0150622576475143e-01</leafValues></_>
    <_>
      <internalNodes>
        0 -1 373029 9.4629734754562378e-02</internalNodes>
      <leafValues>
        7.9999551177024841e-02 -1.</leafValues></_>
    <_>
      <internalNodes>
        0 -1 91104 -8.8272651191800833e-04</internalNodes>
      <leafValues>
        -5.5984121561050415e-01 3.8695815950632095e-02</leafValues></_>
    <_>
      <internalNodes>
        0 -1 505438 -1.9218859961256385e-04</internalNodes>
      <leafValues>
        3.1820589303970337e-01 -1.5559396147727966e-01</leafValues></_>
    <_>
      <internalNodes>
        0 -1 60053 2.8333887457847595e-03</internalNodes>
      <leafValues>
        6.5753258764743805e-02 -8.2104164361953735e-01</leafValues></_>
    <_>
      <internalNodes>
        0 -1 171566 6.3434336334466934e-03</internalNodes>
      <leafValues>
        -6.2089946120977402e-02 7.2835940122604370e-01</leafValues></_>
    <_>
      <internalNodes>
        0 -1 100525 -4.1370250983163714e-05</internalNodes>
      <leafValues>
        -3.0673325061798096e-01 1.4086289703845978e-01</leafValues></_>
    <_>
      <internalNodes>
        0 -1 314757 2.2391444872482680e-05</internalNodes>
      <leafValues>
        -2.3325538635253906e-01 1.8776015937328339e-01</leafValues></_>
    <_>
      <internalNodes>
        0 -1 432126 -7.6495343819260597e-05</internalNodes>
      <leafValues>
        2.6082262396812439e-01 -1.6750811040401459e-01</leafValues></_>
    <_>
      <internalNodes>
        0 -1 174382 -2.4473818484693766e-04</internalNodes>
      <leafValues>
        -5.6863701343536377e-01 8.5497036576271057e-02</leafValues></_>
    <_>
      <internalNodes>
        0 -1 500847 -3.0414010398089886e-03</internalNodes>
      <leafValues>
        4.2357215285301208e-01 -1.1320710182189941e-01</leafValues></_>
    <_>
      <internalNodes>
        0 -1 495473 -7.3047773912549019e-04</internalNodes>
      <leafValues>
        5.4116177558898926e-01 -8.5407420992851257e-02</leafValues></_>
    <_>
      <internalNodes>
        0 -1 96448 1.1021034792065620e-02</internalNodes>
      <leafValues>
        -1.0936612635850906e-01 4.2237475514411926e-01</leafValues></_>
    <_>
      <internalNodes>
        0 -1 262569 -4.7153569757938385e-03</internalNodes>
      <leafValues>
        2.8897532820701599e-01 -1.5860064327716827e-01</leafValues></_>
    <_>
      <internalNodes>
        0 -1 345563 -5.0306608900427818e-03</internalNodes>
      <leafValues>
        -7.7362543344497681e-01 5.9815302491188049e-02</leafValues></_>
    <_>
      <internalNodes>
        0 -1 4627 1.0067096352577209e-01</internalNodes>
      <leafValues>
        5.9424772858619690e-02 -6.8978619575500488e-01</leafValues></_>
    <_>
      <internalNodes>
        0 -1 46588 -6.0291454195976257e-02</internalNodes>
      <leafValues>
        -6.3641256093978882e-01 7.1789629757404327e-02</leafValues></_>
    <_>
      <internalNodes>
        0 -1 220801 -1.0078774765133858e-02</internalNodes>
      <leafValues>
        2.9412358999252319e-01 -1.6338886320590973e-01</leafValues></_></weakClassifiers></stage16>
</opencv_storage>
