<?xml version="1.0"?>
<opencv_storage>
<stage21>
  <maxWeakCount>13</maxWeakCount>
  <stageThreshold>-1.3203212022781372e+00</stageThreshold>
  <weakClassifiers>
    <_>
      <internalNodes>
        0 -1 236716 4.1315585374832153e-02</internalNodes>
      <leafValues>
        -7.0912218093872070e-01 5.8823531866073608e-01</leafValues></_>
    <_>
      <internalNodes>
        0 -1 491569 -7.2565715527161956e-04</internalNodes>
      <leafValues>
        3.3971488475799561e-01 -3.4550237655639648e-01</leafValues></_>
    <_>
      <internalNodes>
        0 -1 327907 -4.8095018428284675e-05</internalNodes>
      <leafValues>
        -3.3400475978851318e-01 2.6812562346458435e-01</leafValues></_>
    <_>
      <internalNodes>
        0 -1 9047 8.9605874381959438e-04</internalNodes>
      <leafValues>
        -1.9367770850658417e-01 5.3135824203491211e-01</leafValues></_>
    <_>
      <internalNodes>
        0 -1 116814 4.4302316382527351e-04</internalNodes>
      <leafValues>
        2.5997585058212280e-01 -4.0808165073394775e-01</leafValues></_>
    <_>
      <internalNodes>
        0 -1 409262 1.5113204426597804e-04</internalNodes>
      <leafValues>
        3.1743043661117554e-01 -3.9907851815223694e-01</leafValues></_>
    <_>
      <internalNodes>
        0 -1 288810 -9.1041726991534233e-03</internalNodes>
      <leafValues>
        5.2483510971069336e-01 -1.9976860284805298e-01</leafValues></_>
    <_>
      <internalNodes>
        0 -1 365441 -6.8960624048486352e-05</internalNodes>
      <leafValues>
        -3.6798018217086792e-01 3.4313970804214478e-01</leafValues></_>
    <_>
      <internalNodes>
        0 -1 209360 2.2456141188740730e-02</internalNodes>
      <leafValues>
        1.6939206421375275e-01 -6.4028608798980713e-01</leafValues></_>
    <_>
      <internalNodes>
        0 -1 280347 2.6706224889494479e-04</internalNodes>
      <leafValues>
        -2.2947680950164795e-01 4.7596848011016846e-01</leafValues></_>
    <_>
      <internalNodes>
        0 -1 98613 1.1860879603773355e-03</internalNodes>
      <leafValues>
        -2.9023262858390808e-01 4.3630638718605042e-01</leafValues></_>
    <_>
      <internalNodes>
        0 -1 10702 -8.4101004176773131e-05</internalNodes>
      <leafValues>
        -3.5351324081420898e-01 3.1744030117988586e-01</leafValues></_>
    <_>
      <internalNodes>
        0 -1 407568 7.4129179665760603e-06</internalNodes>
      <leafValues>
        -2.9920670390129089e-01 3.9960575103759766e-01</leafValues></_></weakClassifiers></stage21>
</opencv_storage>
