<?xml version="1.0"?>
<opencv_storage>
<stage11>
  <maxWeakCount>83</maxWeakCount>
  <stageThreshold>-7.0615839958190918e-01</stageThreshold>
  <weakClassifiers>
    <_>
      <internalNodes>
        0 -1 37619 2.1607495844364166e-02</internalNodes>
      <leafValues>
        5.1059730350971222e-02 7.5806450843811035e-01</leafValues></_>
    <_>
      <internalNodes>
        0 -1 143150 -6.1917481943964958e-03</internalNodes>
      <leafValues>
        -5.6216847896575928e-01 3.6695711314678192e-02</leafValues></_>
    <_>
      <internalNodes>
        0 -1 143150 -6.1407471075654030e-03</internalNodes>
      <leafValues>
        8.1173545122146606e-01 -1.8937352579087019e-03</leafValues></_>
    <_>
      <internalNodes>
        0 -1 143150 -5.9859417378902435e-03</internalNodes>
      <leafValues>
        -1. 2.2776124533265829e-03</leafValues></_>
    <_>
      <internalNodes>
        0 -1 143150 -5.9317750856280327e-03</internalNodes>
      <leafValues>
        8.6760163307189941e-01 -4.7869401169009507e-04</leafValues></_>
    <_>
      <internalNodes>
        0 -1 143150 -5.8971242979168892e-03</internalNodes>
      <leafValues>
        -1. 5.7102937716990709e-04</leafValues></_>
    <_>
      <internalNodes>
        0 -1 143150 -5.7080304250121117e-03</internalNodes>
      <leafValues>
        1. -9.5877272542566061e-04</leafValues></_>
    <_>
      <internalNodes>
        0 -1 143150 -5.6487047113478184e-03</internalNodes>
      <leafValues>
        -1. 1.1440183734521270e-03</leafValues></_>
    <_>
      <internalNodes>
        0 -1 143150 -5.3601595573127270e-03</internalNodes>
      <leafValues>
        9.7720009088516235e-01 -3.6749783903360367e-03</leafValues></_>
    <_>
      <internalNodes>
        0 -1 143150 -5.3302017040550709e-03</internalNodes>
      <leafValues>
        -1. 1.7248913645744324e-03</leafValues></_>
    <_>
      <internalNodes>
        0 -1 143150 -5.2356719970703125e-03</internalNodes>
      <leafValues>
        9.7850710153579712e-01 -1.4556023525074124e-03</leafValues></_>
    <_>
      <internalNodes>
        0 -1 143150 -5.0046956166625023e-03</internalNodes>
      <leafValues>
        -9.8922216892242432e-01 1.8230272689834237e-03</leafValues></_>
    <_>
      <internalNodes>
        0 -1 143150 -4.9550747498869896e-03</internalNodes>
      <leafValues>
        9.7975999116897583e-01 -9.7370782168582082e-04</leafValues></_>
    <_>
      <internalNodes>
        0 -1 143150 -4.8896865919232368e-03</internalNodes>
      <leafValues>
        -9.8915731906890869e-01 1.1585983447730541e-03</leafValues></_>
    <_>
      <internalNodes>
        0 -1 143150 -4.7645554877817631e-03</internalNodes>
      <leafValues>
        9.8069208860397339e-01 -1.9531245343387127e-03</leafValues></_>
    <_>
      <internalNodes>
        0 -1 143150 -4.8399614170193672e-03</internalNodes>
      <leafValues>
        -9.8897325992584229e-01 -2.4835267176115394e-09</leafValues></_>
    <_>
      <internalNodes>
        0 -1 143150 -4.8051504418253899e-03</internalNodes>
      <leafValues>
        9.8084425926208496e-01 -5.1437731671429270e-15</leafValues></_>
    <_>
      <internalNodes>
        0 -1 143150 -4.8399614170193672e-03</internalNodes>
      <leafValues>
        -9.8879349231719971e-01 1.2198177589341935e-15</leafValues></_>
    <_>
      <internalNodes>
        0 -1 143150 -4.8051504418253899e-03</internalNodes>
      <leafValues>
        9.8114353418350220e-01 -1.3991776419658257e-14</leafValues></_>
    <_>
      <internalNodes>
        0 -1 143150 -4.8399614170193672e-03</internalNodes>
      <leafValues>
        -9.8862171173095703e-01 6.6016062313435132e-15</leafValues></_>
    <_>
      <internalNodes>
        0 -1 143150 -4.8051504418253899e-03</internalNodes>
      <leafValues>
        9.8142087459564209e-01 6.8827237610430067e-15</leafValues></_>
    <_>
      <internalNodes>
        0 -1 143165 -5.2788434550166130e-03</internalNodes>
      <leafValues>
        -5.7171815633773804e-01 6.7349630407989025e-03</leafValues></_>
    <_>
      <internalNodes>
        0 -1 143162 -5.1568672060966492e-03</internalNodes>
      <leafValues>
        8.0823713541030884e-01 -3.7365951575338840e-03</leafValues></_>
    <_>
      <internalNodes>
        0 -1 176658 -5.0979461520910263e-03</internalNodes>
      <leafValues>
        -9.9198567867279053e-01 2.6819510385394096e-03</leafValues></_>
    <_>
      <internalNodes>
        0 -1 176658 -4.7735297121107578e-03</internalNodes>
      <leafValues>
        8.6251926422119141e-01 -2.9483891557902098e-03</leafValues></_>
    <_>
      <internalNodes>
        0 -1 176658 -4.7471979632973671e-03</internalNodes>
      <leafValues>
        -9.8169678449630737e-01 7.1478582685813308e-04</leafValues></_>
    <_>
      <internalNodes>
        0 -1 176658 -4.7068670392036438e-03</internalNodes>
      <leafValues>
        8.9829689264297485e-01 -5.2183627849444747e-04</leafValues></_>
    <_>
      <internalNodes>
        0 -1 109188 -4.2703757062554359e-03</internalNodes>
      <leafValues>
        -6.2647575139999390e-01 7.2677456773817539e-03</leafValues></_>
    <_>
      <internalNodes>
        0 -1 109182 -2.3123428691178560e-03</internalNodes>
      <leafValues>
        5.6502532958984375e-01 -3.7133134901523590e-02</leafValues></_>
    <_>
      <internalNodes>
        0 -1 176646 -3.3809016458690166e-03</internalNodes>
      <leafValues>
        -5.6253373622894287e-01 1.1826185509562492e-03</leafValues></_>
    <_>
      <internalNodes>
        0 -1 43060 -5.0148916244506836e-01</internalNodes>
      <leafValues>
        6.0448426008224487e-01 -3.2985232770442963e-02</leafValues></_>
    <_>
      <internalNodes>
        0 -1 72118 -8.5940095596015453e-04</internalNodes>
      <leafValues>
        3.4708407521247864e-01 -7.5944803655147552e-02</leafValues></_>
    <_>
      <internalNodes>
        0 -1 239275 -5.4591158404946327e-03</internalNodes>
      <leafValues>
        5.9694904088973999e-01 -1.5179496258497238e-02</leafValues></_>
    <_>
      <internalNodes>
        0 -1 73856 -1.0471651330590248e-02</internalNodes>
      <leafValues>
        -8.1658911705017090e-01 -1.0623672977089882e-02</leafValues></_>
    <_>
      <internalNodes>
        0 -1 176703 5.6565664708614349e-03</internalNodes>
      <leafValues>
        4.7110142186284065e-03 9.2582315206527710e-01</leafValues></_>
    <_>
      <internalNodes>
        0 -1 57123 -3.6075902171432972e-03</internalNodes>
      <leafValues>
        3.0926737189292908e-01 -8.0424480140209198e-02</leafValues></_>
    <_>
      <internalNodes>
        0 -1 545687 -8.8254652917385101e-02</internalNodes>
      <leafValues>
        3.6416327953338623e-01 -5.6866608560085297e-02</leafValues></_>
    <_>
      <internalNodes>
        0 -1 289801 -3.4666827414184809e-03</internalNodes>
      <leafValues>
        7.3432075977325439e-01 -3.3549934625625610e-02</leafValues></_>
    <_>
      <internalNodes>
        0 -1 494220 2.0545145869255066e-01</internalNodes>
      <leafValues>
        -6.7865565419197083e-02 2.8575149178504944e-01</leafValues></_>
    <_>
      <internalNodes>
        0 -1 387101 7.4987754225730896e-02</internalNodes>
      <leafValues>
        -2.7887465432286263e-02 7.4277490377426147e-01</leafValues></_>
    <_>
      <internalNodes>
        0 -1 399013 6.5522268414497375e-04</internalNodes>
      <leafValues>
        1.0894799232482910e-01 -2.8204783797264099e-01</leafValues></_>
    <_>
      <internalNodes>
        0 -1 566316 4.8463027924299240e-03</internalNodes>
      <leafValues>
        -1.0442072898149490e-01 2.2606714069843292e-01</leafValues></_>
    <_>
      <internalNodes>
        0 -1 158418 -3.1996986363083124e-03</internalNodes>
      <leafValues>
        3.1004956364631653e-01 -7.0894561707973480e-02</leafValues></_>
    <_>
      <internalNodes>
        0 -1 334288 -3.5135570913553238e-02</internalNodes>
      <leafValues>
        -7.2068268060684204e-01 3.2855160534381866e-02</leafValues></_>
    <_>
      <internalNodes>
        0 -1 526157 4.8338081687688828e-03</internalNodes>
      <leafValues>
        -3.5763729363679886e-02 6.7409855127334595e-01</leafValues></_>
    <_>
      <internalNodes>
        0 -1 508748 4.8575484470347874e-06</internalNodes>
      <leafValues>
        -1.2590019404888153e-01 1.5008746087551117e-01</leafValues></_>
    <_>
      <internalNodes>
        0 -1 3297 -3.5106402356177568e-03</internalNodes>
      <leafValues>
        1.8475066125392914e-01 -1.0924422740936279e-01</leafValues></_>
    <_>
      <internalNodes>
        0 -1 629038 3.4116097958758473e-04</internalNodes>
      <leafValues>
        2.2842714563012123e-02 -6.2535220384597778e-01</leafValues></_>
    <_>
      <internalNodes>
        0 -1 88836 1.2031096266582608e-03</internalNodes>
      <leafValues>
        -7.0626072585582733e-02 2.8891029953956604e-01</leafValues></_>
    <_>
      <internalNodes>
        0 -1 519496 -7.7711309131700546e-05</internalNodes>
      <leafValues>
        -2.0889298617839813e-01 9.7195819020271301e-02</leafValues></_>
    <_>
      <internalNodes>
        0 -1 481203 -1.4519991353154182e-02</internalNodes>
      <leafValues>
        3.8197213411331177e-01 -5.3123112767934799e-02</leafValues></_>
    <_>
      <internalNodes>
        0 -1 400589 -1.0740914149209857e-05</internalNodes>
      <leafValues>
        1.6365566849708557e-01 -1.2252345681190491e-01</leafValues></_>
    <_>
      <internalNodes>
        0 -1 281356 -1.0462468490004539e-02</internalNodes>
      <leafValues>
        -4.8095709085464478e-01 4.8732981085777283e-02</leafValues></_>
    <_>
      <internalNodes>
        0 -1 92552 -2.8760617133229971e-03</internalNodes>
      <leafValues>
        1.9349794089794159e-01 -1.0688804090023041e-01</leafValues></_>
    <_>
      <internalNodes>
        0 -1 572864 3.0493596568703651e-04</internalNodes>
      <leafValues>
        -8.6426869034767151e-02 2.6502215862274170e-01</leafValues></_>
    <_>
      <internalNodes>
        0 -1 68215 -6.8961298093199730e-03</internalNodes>
      <leafValues>
        -2.8061702847480774e-01 8.2058429718017578e-02</leafValues></_>
    <_>
      <internalNodes>
        0 -1 104082 -9.1347321867942810e-02</internalNodes>
      <leafValues>
        -5.8077359199523926e-01 4.2703293263912201e-02</leafValues></_>
    <_>
      <internalNodes>
        0 -1 140980 3.6987088620662689e-02</internalNodes>
      <leafValues>
        -7.7613107860088348e-02 2.9133605957031250e-01</leafValues></_>
    <_>
      <internalNodes>
        0 -1 484606 -6.1175196606200188e-05</internalNodes>
      <leafValues>
        1.4290173351764679e-01 -2.1743735671043396e-01</leafValues></_>
    <_>
      <internalNodes>
        0 -1 635197 3.2479492947459221e-03</internalNodes>
      <leafValues>
        -7.8998163342475891e-02 2.8358608484268188e-01</leafValues></_>
    <_>
      <internalNodes>
        0 -1 635193 -2.7351388707756996e-03</internalNodes>
      <leafValues>
        3.0399256944656372e-01 -7.7929437160491943e-02</leafValues></_>
    <_>
      <internalNodes>
        0 -1 592291 7.8646751353517175e-04</internalNodes>
      <leafValues>
        8.2716532051563263e-02 -3.0852428078651428e-01</leafValues></_>
    <_>
      <internalNodes>
        0 -1 335929 -4.2426370084285736e-02</internalNodes>
      <leafValues>
        2.8627014160156250e-01 -1.2298394739627838e-01</leafValues></_>
    <_>
      <internalNodes>
        0 -1 16849 -1.1061751842498779e-01</internalNodes>
      <leafValues>
        -5.7992786169052124e-01 4.5494984835386276e-02</leafValues></_>
    <_>
      <internalNodes>
        0 -1 566707 -1.1945976439164951e-05</internalNodes>
      <leafValues>
        1.5656220912933350e-01 -1.4161871373653412e-01</leafValues></_>
    <_>
      <internalNodes>
        0 -1 239432 1.0061083594337106e-03</internalNodes>
      <leafValues>
        5.4319020360708237e-02 -4.5277923345565796e-01</leafValues></_>
    <_>
      <internalNodes>
        0 -1 238577 -4.7067529521882534e-04</internalNodes>
      <leafValues>
        1.8793518841266632e-01 -1.1659307777881622e-01</leafValues></_>
    <_>
      <internalNodes>
        0 -1 267989 -1.0887428652495146e-03</internalNodes>
      <leafValues>
        -4.4244047999382019e-01 4.7491554170846939e-02</leafValues></_>
    <_>
      <internalNodes>
        0 -1 140573 -1.5850437805056572e-02</internalNodes>
      <leafValues>
        6.1595541238784790e-01 -3.3260956406593323e-02</leafValues></_>
    <_>
      <internalNodes>
        0 -1 486938 3.4193573519587517e-03</internalNodes>
      <leafValues>
        3.9955224841833115e-02 -5.8193504810333252e-01</leafValues></_>
    <_>
      <internalNodes>
        0 -1 467115 1.0820079594850540e-02</internalNodes>
      <leafValues>
        -1.0127671808004379e-01 2.2763237357139587e-01</leafValues></_>
    <_>
      <internalNodes>
        0 -1 511746 -2.1578360348939896e-02</internalNodes>
      <leafValues>
        2.5606250762939453e-01 -9.5643870532512665e-02</leafValues></_>
    <_>
      <internalNodes>
        0 -1 604224 2.9319250024855137e-03</internalNodes>
      <leafValues>
        4.3456584215164185e-02 -5.6527084112167358e-01</leafValues></_>
    <_>
      <internalNodes>
        0 -1 453699 -8.3012562245130539e-03</internalNodes>
      <leafValues>
        7.5111317634582520e-01 -3.2605919986963272e-02</leafValues></_>
    <_>
      <internalNodes>
        0 -1 366485 -9.4353388994932175e-03</internalNodes>
      <leafValues>
        -4.3381947278976440e-01 6.1147961765527725e-02</leafValues></_>
    <_>
      <internalNodes>
        0 -1 33016 -1.1429050937294960e-03</internalNodes>
      <leafValues>
        2.9209429025650024e-01 -7.9273179173469543e-02</leafValues></_>
    <_>
      <internalNodes>
        0 -1 398623 5.8847659965977073e-04</internalNodes>
      <leafValues>
        1.1488030850887299e-01 -1.8511125445365906e-01</leafValues></_>
    <_>
      <internalNodes>
        0 -1 502194 1.6352700185962021e-04</internalNodes>
      <leafValues>
        1.0900495946407318e-01 -2.1544675529003143e-01</leafValues></_>
    <_>
      <internalNodes>
        0 -1 536870 -1.7481064423918724e-02</internalNodes>
      <leafValues>
        3.9712530374526978e-01 -6.4433567225933075e-02</leafValues></_>
    <_>
      <internalNodes>
        0 -1 647412 -4.7736469423398376e-04</internalNodes>
      <leafValues>
        2.5970023870468140e-01 -8.2501128315925598e-02</leafValues></_>
    <_>
      <internalNodes>
        0 -1 584438 5.7231172831961885e-06</internalNodes>
      <leafValues>
        -1.3261754810810089e-01 1.5862087905406952e-01</leafValues></_>
    <_>
      <internalNodes>
        0 -1 620252 1.7440433148294687e-03</internalNodes>
      <leafValues>
        7.8559510409832001e-02 -2.7344730496406555e-01</leafValues></_>
    <_>
      <internalNodes>
        0 -1 414552 2.9891086742281914e-03</internalNodes>
      <leafValues>
        -9.3663774430751801e-02 2.3988942801952362e-01</leafValues></_></weakClassifiers></stage11>
</opencv_storage>
