<?xml version="1.0"?>
<opencv_storage>
<stage9>
  <maxWeakCount>57</maxWeakCount>
  <stageThreshold>-8.0566257238388062e-01</stageThreshold>
  <weakClassifiers>
    <_>
      <internalNodes>
        0 -1 37584 1.2124571949243546e-02</internalNodes>
      <leafValues>
        4.6376813203096390e-02 8.0000001192092896e-01</leafValues></_>
    <_>
      <internalNodes>
        0 -1 599461 -1.8885651603341103e-02</internalNodes>
      <leafValues>
        2.9905384778976440e-01 -1.1547118425369263e-01</leafValues></_>
    <_>
      <internalNodes>
        0 -1 141952 -5.2429147064685822e-02</internalNodes>
      <leafValues>
        3.9448747038841248e-01 -8.2754954695701599e-02</leafValues></_>
    <_>
      <internalNodes>
        0 -1 562000 -2.7935681864619255e-03</internalNodes>
      <leafValues>
        3.8474205136299133e-01 -7.0708699524402618e-02</leafValues></_>
    <_>
      <internalNodes>
        0 -1 114398 -3.5834956169128418e-01</internalNodes>
      <leafValues>
        4.6705117821693420e-01 -6.0398574918508530e-02</leafValues></_>
    <_>
      <internalNodes>
        0 -1 22161 -1.9436471164226532e-02</internalNodes>
      <leafValues>
        3.0320149660110474e-01 -7.7615842223167419e-02</leafValues></_>
    <_>
      <internalNodes>
        0 -1 538928 2.6397034525871277e-04</internalNodes>
      <leafValues>
        6.5876752138137817e-02 -3.4997355937957764e-01</leafValues></_>
    <_>
      <internalNodes>
        0 -1 140861 1.5700181946158409e-02</internalNodes>
      <leafValues>
        9.4773456454277039e-02 -6.5968126058578491e-01</leafValues></_>
    <_>
      <internalNodes>
        0 -1 107501 -7.8558683162555099e-04</internalNodes>
      <leafValues>
        3.2363286614418030e-01 -1.0909170657396317e-01</leafValues></_>
    <_>
      <internalNodes>
        0 -1 484187 9.3599825049750507e-05</internalNodes>
      <leafValues>
        1.1924456804990768e-01 -1.8143194913864136e-01</leafValues></_>
    <_>
      <internalNodes>
        0 -1 442894 -3.1876628054305911e-04</internalNodes>
      <leafValues>
        -2.1159893274307251e-01 1.1125514656305313e-01</leafValues></_>
    <_>
      <internalNodes>
        0 -1 483731 1.8996693193912506e-02</internalNodes>
      <leafValues>
        -1.0001089423894882e-01 2.5625228881835938e-01</leafValues></_>
    <_>
      <internalNodes>
        0 -1 577014 -3.5088296979665756e-02</internalNodes>
      <leafValues>
        2.8331914544105530e-01 -8.8201291859149933e-02</leafValues></_>
    <_>
      <internalNodes>
        0 -1 452085 -3.0250005424022675e-02</internalNodes>
      <leafValues>
        2.5134402513504028e-01 -1.0490056872367859e-01</leafValues></_>
    <_>
      <internalNodes>
        0 -1 465843 1.9327388145029545e-03</internalNodes>
      <leafValues>
        7.6717339456081390e-02 -2.9684323072433472e-01</leafValues></_>
    <_>
      <internalNodes>
        0 -1 56591 -7.7873945236206055e-02</internalNodes>
      <leafValues>
        2.4325852096080780e-01 -9.1798506677150726e-02</leafValues></_>
    <_>
      <internalNodes>
        0 -1 373300 7.3042197618633509e-04</internalNodes>
      <leafValues>
        1.1688908934593201e-01 -1.9446349143981934e-01</leafValues></_>
    <_>
      <internalNodes>
        0 -1 528567 5.9608924202620983e-03</internalNodes>
      <leafValues>
        -3.8536511361598969e-02 6.9120371341705322e-01</leafValues></_>
    <_>
      <internalNodes>
        0 -1 240925 3.2213054597377777e-02</internalNodes>
      <leafValues>
        -6.4614385366439819e-02 3.1750550866127014e-01</leafValues></_>
    <_>
      <internalNodes>
        0 -1 270305 -1.7249736934900284e-02</internalNodes>
      <leafValues>
        2.3116055130958557e-01 -1.0729458183050156e-01</leafValues></_>
    <_>
      <internalNodes>
        0 -1 519958 -6.7193897848483175e-05</internalNodes>
      <leafValues>
        1.1545740813016891e-01 -1.8764953315258026e-01</leafValues></_>
    <_>
      <internalNodes>
        0 -1 78291 -1.0803602344822139e-04</internalNodes>
      <leafValues>
        -2.4546799063682556e-01 9.6643395721912384e-02</leafValues></_>
    <_>
      <internalNodes>
        0 -1 225227 -3.6102063022553921e-03</internalNodes>
      <leafValues>
        2.8050065040588379e-01 -9.2744678258895874e-02</leafValues></_>
    <_>
      <internalNodes>
        0 -1 567896 -4.4281923328526318e-04</internalNodes>
      <leafValues>
        2.3276165127754211e-01 -1.0822287201881409e-01</leafValues></_>
    <_>
      <internalNodes>
        0 -1 466556 3.2333290437236428e-04</internalNodes>
      <leafValues>
        9.0413920581340790e-02 -2.9587721824645996e-01</leafValues></_>
    <_>
      <internalNodes>
        0 -1 328125 -1.6398659348487854e-01</internalNodes>
      <leafValues>
        2.5286898016929626e-01 -9.6898756921291351e-02</leafValues></_>
    <_>
      <internalNodes>
        0 -1 169471 2.2665122523903847e-03</internalNodes>
      <leafValues>
        -2.2073596715927124e-02 7.7048730850219727e-01</leafValues></_>
    <_>
      <internalNodes>
        0 -1 19879 1.9268200267106295e-03</internalNodes>
      <leafValues>
        -8.8834643363952637e-02 2.6231247186660767e-01</leafValues></_>
    <_>
      <internalNodes>
        0 -1 6360 1.6830262029543519e-04</internalNodes>
      <leafValues>
        6.4409144222736359e-02 -3.7868994474411011e-01</leafValues></_>
    <_>
      <internalNodes>
        0 -1 628871 -2.0366562530398369e-03</internalNodes>
      <leafValues>
        2.1597847342491150e-01 -1.0329302400350571e-01</leafValues></_>
    <_>
      <internalNodes>
        0 -1 141492 2.5659475475549698e-02</internalNodes>
      <leafValues>
        3.4455664455890656e-02 -6.3601857423782349e-01</leafValues></_>
    <_>
      <internalNodes>
        0 -1 68884 4.6080322936177254e-03</internalNodes>
      <leafValues>
        -7.6401397585868835e-02 3.1484553217887878e-01</leafValues></_>
    <_>
      <internalNodes>
        0 -1 141030 -7.5055751949548721e-05</internalNodes>
      <leafValues>
        -2.3209618031978607e-01 1.1267350614070892e-01</leafValues></_>
    <_>
      <internalNodes>
        0 -1 646219 -1.3504138914868236e-03</internalNodes>
      <leafValues>
        4.0135633945465088e-01 -5.9081319719552994e-02</leafValues></_>
    <_>
      <internalNodes>
        0 -1 645334 -1.1294051073491573e-03</internalNodes>
      <leafValues>
        -6.5915632247924805e-01 4.0660806000232697e-02</leafValues></_>
    <_>
      <internalNodes>
        0 -1 322533 1.8823709338903427e-02</internalNodes>
      <leafValues>
        -7.3712453246116638e-02 3.8713756203651428e-01</leafValues></_>
    <_>
      <internalNodes>
        0 -1 60068 1.8435862660408020e-01</internalNodes>
      <leafValues>
        -6.2629953026771545e-02 3.8637605309486389e-01</leafValues></_>
    <_>
      <internalNodes>
        0 -1 645319 1.3225520960986614e-03</internalNodes>
      <leafValues>
        -1.0390716791152954e-01 2.4069929122924805e-01</leafValues></_>
    <_>
      <internalNodes>
        0 -1 566992 -2.3526298173237592e-04</internalNodes>
      <leafValues>
        -2.2295978665351868e-01 9.9926084280014038e-02</leafValues></_>
    <_>
      <internalNodes>
        0 -1 560432 1.6216291114687920e-03</internalNodes>
      <leafValues>
        -6.2077172100543976e-02 3.6674824357032776e-01</leafValues></_>
    <_>
      <internalNodes>
        0 -1 424455 5.1369448192417622e-04</internalNodes>
      <leafValues>
        9.7216986119747162e-02 -2.4990104138851166e-01</leafValues></_>
    <_>
      <internalNodes>
        0 -1 53695 2.6663197204470634e-03</internalNodes>
      <leafValues>
        -5.8074835687875748e-02 4.0340578556060791e-01</leafValues></_>
    <_>
      <internalNodes>
        0 -1 336070 2.3404575884342194e-02</internalNodes>
      <leafValues>
        5.0087224692106247e-02 -4.9617516994476318e-01</leafValues></_>
    <_>
      <internalNodes>
        0 -1 458754 4.9502803012728691e-03</internalNodes>
      <leafValues>
        -4.2485598474740982e-02 5.2008110284805298e-01</leafValues></_>
    <_>
      <internalNodes>
        0 -1 256981 -9.9908150732517242e-03</internalNodes>
      <leafValues>
        3.0523106455802917e-01 -7.3331192135810852e-02</leafValues></_>
    <_>
      <internalNodes>
        0 -1 394072 -2.0967769622802734e-01</internalNodes>
      <leafValues>
        6.9145792722702026e-01 -3.0563730746507645e-02</leafValues></_>
    <_>
      <internalNodes>
        0 -1 408677 -2.4659611284732819e-02</internalNodes>
      <leafValues>
        5.9784436225891113e-01 -2.7893027290701866e-02</leafValues></_>
    <_>
      <internalNodes>
        0 -1 162659 -4.1554989293217659e-03</internalNodes>
      <leafValues>
        3.0979490280151367e-01 -7.5161173939704895e-02</leafValues></_>
    <_>
      <internalNodes>
        0 -1 505586 -1.3646639883518219e-02</internalNodes>
      <leafValues>
        2.0697765052318573e-01 -1.1240524798631668e-01</leafValues></_>
    <_>
      <internalNodes>
        0 -1 447690 3.2769495155662298e-03</internalNodes>
      <leafValues>
        -1.2312147766351700e-01 2.1635109186172485e-01</leafValues></_>
    <_>
      <internalNodes>
        0 -1 639596 2.5944376830011606e-03</internalNodes>
      <leafValues>
        -5.9101216495037079e-02 3.8204532861709595e-01</leafValues></_>
    <_>
      <internalNodes>
        0 -1 37399 1.6582241281867027e-02</internalNodes>
      <leafValues>
        5.3197208791971207e-02 -5.0594139099121094e-01</leafValues></_>
    <_>
      <internalNodes>
        0 -1 140474 -9.3022437067702413e-04</internalNodes>
      <leafValues>
        3.2701236009597778e-01 -7.4659228324890137e-02</leafValues></_>
    <_>
      <internalNodes>
        0 -1 296270 -2.7342414250597358e-04</internalNodes>
      <leafValues>
        -2.9452827572822571e-01 9.0393327176570892e-02</leafValues></_>
    <_>
      <internalNodes>
        0 -1 613242 1.8221698701381683e-02</internalNodes>
      <leafValues>
        -3.1234044581651688e-02 7.7944153547286987e-01</leafValues></_>
    <_>
      <internalNodes>
        0 -1 271054 1.2748419307172298e-02</internalNodes>
      <leafValues>
        -1.4087150990962982e-01 2.0047828555107117e-01</leafValues></_>
    <_>
      <internalNodes>
        0 -1 42743 -2.3474276065826416e-01</internalNodes>
      <leafValues>
        5.7241272926330566e-01 -4.6283692121505737e-02</leafValues></_></weakClassifiers></stage9>
</opencv_storage>
