<?xml version="1.0"?>
<opencv_storage>
<stage6>
  <maxWeakCount>49</maxWeakCount>
  <stageThreshold>-8.6995983123779297e-01</stageThreshold>
  <weakClassifiers>
    <_>
      <internalNodes>
        0 -1 74022 2.0455349236726761e-02</internalNodes>
      <leafValues>
        4.0816325694322586e-02 8.1690138578414917e-01</leafValues></_>
    <_>
      <internalNodes>
        0 -1 420779 6.4319500233978033e-04</internalNodes>
      <leafValues>
        1.1682429164648056e-01 -3.2165601849555969e-01</leafValues></_>
    <_>
      <internalNodes>
        0 -1 136522 2.3747878149151802e-02</internalNodes>
      <leafValues>
        9.1483272612094879e-02 -3.7300482392311096e-01</leafValues></_>
    <_>
      <internalNodes>
        0 -1 388874 -6.2330812215805054e-02</internalNodes>
      <leafValues>
        3.6222997307777405e-01 -1.0599984973669052e-01</leafValues></_>
    <_>
      <internalNodes>
        0 -1 15325 1.9867369532585144e-01</internalNodes>
      <leafValues>
        -1.1638475209474564e-01 3.6377632617950439e-01</leafValues></_>
    <_>
      <internalNodes>
        0 -1 495817 -5.1045871805399656e-04</internalNodes>
      <leafValues>
        2.7030402421951294e-01 -1.1643814295530319e-01</leafValues></_>
    <_>
      <internalNodes>
        0 -1 495056 3.5872674197889864e-04</internalNodes>
      <leafValues>
        -1.7928257584571838e-01 2.4011807143688202e-01</leafValues></_>
    <_>
      <internalNodes>
        0 -1 288463 -3.3560484647750854e-02</internalNodes>
      <leafValues>
        -3.6984753608703613e-01 1.3101096451282501e-01</leafValues></_>
    <_>
      <internalNodes>
        0 -1 39316 -4.2952843941748142e-03</internalNodes>
      <leafValues>
        -3.1594681739807129e-01 6.6008552908897400e-02</leafValues></_>
    <_>
      <internalNodes>
        0 -1 1563 1.9293162971735001e-02</internalNodes>
      <leafValues>
        1.4324547350406647e-01 -3.8165161013603210e-01</leafValues></_>
    <_>
      <internalNodes>
        0 -1 74841 -3.6961962468922138e-03</internalNodes>
      <leafValues>
        2.3925335705280304e-01 -1.5239876508712769e-01</leafValues></_>
    <_>
      <internalNodes>
        0 -1 326276 1.2421573512256145e-02</internalNodes>
      <leafValues>
        -5.4291632026433945e-02 3.3303958177566528e-01</leafValues></_>
    <_>
      <internalNodes>
        0 -1 647839 5.6850869441404939e-04</internalNodes>
      <leafValues>
        9.9732458591461182e-02 -2.3106241226196289e-01</leafValues></_>
    <_>
      <internalNodes>
        0 -1 628228 -1.1090638116002083e-02</internalNodes>
      <leafValues>
        4.7301483154296875e-01 -4.8099484294652939e-02</leafValues></_>
    <_>
      <internalNodes>
        0 -1 567839 1.4365176903083920e-03</internalNodes>
      <leafValues>
        -7.3209762573242188e-02 3.9297980070114136e-01</leafValues></_>
    <_>
      <internalNodes>
        0 -1 645080 -9.4518945843447000e-05</internalNodes>
      <leafValues>
        -2.5738477706909180e-01 1.1256811022758484e-01</leafValues></_>
    <_>
      <internalNodes>
        0 -1 649960 -1.1303261271677911e-04</internalNodes>
      <leafValues>
        -2.8618031740188599e-01 9.5879949629306793e-02</leafValues></_>
    <_>
      <internalNodes>
        0 -1 227675 9.6048432169482112e-05</internalNodes>
      <leafValues>
        -1.4692251384258270e-01 1.8936723470687866e-01</leafValues></_>
    <_>
      <internalNodes>
        0 -1 537453 -6.6507887095212936e-03</internalNodes>
      <leafValues>
        4.5355993509292603e-01 -7.4981354176998138e-02</leafValues></_>
    <_>
      <internalNodes>
        0 -1 530069 -5.0218380056321621e-04</internalNodes>
      <leafValues>
        3.4423789381980896e-01 -6.7814551293849945e-02</leafValues></_>
    <_>
      <internalNodes>
        0 -1 586610 5.8480491861701012e-03</internalNodes>
      <leafValues>
        -3.2114986330270767e-02 6.9729673862457275e-01</leafValues></_>
    <_>
      <internalNodes>
        0 -1 518574 1.2455726391635835e-04</internalNodes>
      <leafValues>
        1.2328699231147766e-01 -2.3921732604503632e-01</leafValues></_>
    <_>
      <internalNodes>
        0 -1 141072 2.3961171973496675e-03</internalNodes>
      <leafValues>
        -7.5517088174819946e-02 3.7528693675994873e-01</leafValues></_>
    <_>
      <internalNodes>
        0 -1 553715 1.9636936485767365e-04</internalNodes>
      <leafValues>
        7.0994608104228973e-02 -3.9955982565879822e-01</leafValues></_>
    <_>
      <internalNodes>
        0 -1 635419 9.4937896355986595e-03</internalNodes>
      <leafValues>
        -5.3056169301271439e-02 5.0233983993530273e-01</leafValues></_>
    <_>
      <internalNodes>
        0 -1 562686 -2.9560285620391369e-03</internalNodes>
      <leafValues>
        3.8380381464958191e-01 -6.2626942992210388e-02</leafValues></_>
    <_>
      <internalNodes>
        0 -1 453885 -3.9180754683911800e-03</internalNodes>
      <leafValues>
        2.0345439016819000e-01 -1.3084499537944794e-01</leafValues></_>
    <_>
      <internalNodes>
        0 -1 572865 -1.1106082638434600e-05</internalNodes>
      <leafValues>
        1.7008073627948761e-01 -1.8255053460597992e-01</leafValues></_>
    <_>
      <internalNodes>
        0 -1 322250 1.8041447037830949e-04</internalNodes>
      <leafValues>
        9.6436537802219391e-02 -2.9121211171150208e-01</leafValues></_>
    <_>
      <internalNodes>
        0 -1 640471 5.6604651035740972e-04</internalNodes>
      <leafValues>
        8.0898240208625793e-02 -3.3418211340904236e-01</leafValues></_>
    <_>
      <internalNodes>
        0 -1 370513 -4.3340057134628296e-02</internalNodes>
      <leafValues>
        2.1974688768386841e-01 -1.1917917430400848e-01</leafValues></_>
    <_>
      <internalNodes>
        0 -1 350386 -1.4789984561502934e-03</internalNodes>
      <leafValues>
        1.8196995556354523e-01 -2.0292951166629791e-01</leafValues></_>
    <_>
      <internalNodes>
        0 -1 397138 -1.6460630577057600e-03</internalNodes>
      <leafValues>
        -2.6642796397209167e-01 1.1994641274213791e-01</leafValues></_>
    <_>
      <internalNodes>
        0 -1 295824 5.1205101954110432e-06</internalNodes>
      <leafValues>
        -1.4422118663787842e-01 1.9644400477409363e-01</leafValues></_>
    <_>
      <internalNodes>
        0 -1 16941 -1.6201364994049072e-01</internalNodes>
      <leafValues>
        -2.6979744434356689e-01 9.9150121212005615e-02</leafValues></_>
    <_>
      <internalNodes>
        0 -1 55623 -4.3733641505241394e-03</internalNodes>
      <leafValues>
        4.0162995457649231e-01 -6.3172325491905212e-02</leafValues></_>
    <_>
      <internalNodes>
        0 -1 640837 2.4779152590781450e-04</internalNodes>
      <leafValues>
        1.3140152394771576e-01 -2.0934650301933289e-01</leafValues></_>
    <_>
      <internalNodes>
        0 -1 389806 -4.9643465317785740e-03</internalNodes>
      <leafValues>
        2.0666150748729706e-01 -1.2502720952033997e-01</leafValues></_>
    <_>
      <internalNodes>
        0 -1 313520 1.6876461450010538e-03</internalNodes>
      <leafValues>
        -1.1881192028522491e-01 2.5613236427307129e-01</leafValues></_>
    <_>
      <internalNodes>
        0 -1 13926 -6.1978725716471672e-03</internalNodes>
      <leafValues>
        -8.6926591396331787e-01 3.5782899707555771e-02</leafValues></_>
    <_>
      <internalNodes>
        0 -1 545969 -1.5532724792137742e-03</internalNodes>
      <leafValues>
        2.6187354326248169e-01 -1.1045549809932709e-01</leafValues></_>
    <_>
      <internalNodes>
        0 -1 464482 2.5306915631517768e-04</internalNodes>
      <leafValues>
        1.0173569619655609e-01 -2.8320521116256714e-01</leafValues></_>
    <_>
      <internalNodes>
        0 -1 281210 6.9256885908544064e-03</internalNodes>
      <leafValues>
        -7.5400307774543762e-02 3.6666426062583923e-01</leafValues></_>
    <_>
      <internalNodes>
        0 -1 314719 5.5808204706409015e-06</internalNodes>
      <leafValues>
        -1.5963783860206604e-01 1.6810375452041626e-01</leafValues></_>
    <_>
      <internalNodes>
        0 -1 332488 5.7916127843782306e-05</internalNodes>
      <leafValues>
        -1.5425302088260651e-01 1.6544972360134125e-01</leafValues></_>
    <_>
      <internalNodes>
        0 -1 246331 -2.4658277630805969e-02</internalNodes>
      <leafValues>
        5.2019405364990234e-01 -5.5247873067855835e-02</leafValues></_>
    <_>
      <internalNodes>
        0 -1 505572 2.7291574515402317e-03</internalNodes>
      <leafValues>
        9.1055214405059814e-02 -3.1378704309463501e-01</leafValues></_>
    <_>
      <internalNodes>
        0 -1 183253 4.0054783225059509e-02</internalNodes>
      <leafValues>
        6.4752817153930664e-02 -4.0441951155662537e-01</leafValues></_>
    <_>
      <internalNodes>
        0 -1 606 3.7855722010135651e-02</internalNodes>
      <leafValues>
        -9.5452025532722473e-02 2.8728398680686951e-01</leafValues></_></weakClassifiers></stage6>
</opencv_storage>
